743 100
， -0.5108388 -0.48682 -0.13566148 0.22589968 -0.30719 -0.19648786 0.029230986 -0.13937403 0.15313835 -0.032006666 -0.6343823 -0.1690267 0.4055767 -0.79166424 0.36294055 -0.79478323 -0.024199422 0.26724333 0.31032223 -1.0491767 -0.56051636 0.24985862 -0.25485677 -1.2935768 -0.42457047 0.32996348 0.12906756 0.16573471 0.025208117 0.79323095 0.8398445 -0.6883225 -0.17375554 -0.7886751 0.03266959 -0.4313703 -1.5086869 0.44582844 0.37700883 -0.1538758 0.7283752 0.23022427 -0.37319627 0.46578923 -0.9295115 -1.3996538 -0.0043224227 -0.9487808 0.5086601 0.53431904 0.41402873 -0.194789 -0.5810656 -1.0173624 -0.72676075 1.1987056 0.52682626 -0.3843865 -0.25879964 -0.3343464 0.13736361 -0.6291796 0.12630509 0.044849295 -0.41207096 -0.61007357 0.81628954 -0.18798552 0.23879708 -0.55848026 -0.6482647 -0.34521863 -0.76906264 -0.52808124 0.20775704 0.30885062 -0.20746718 -0.014961422 -0.93611234 0.27990702 0.060982384 -0.23190439 -0.4031813 -0.3437384 -0.5289596 -0.5273503 -0.1857753 -0.24377008 -0.54673713 1.2127137 0.5058485 0.9336857 -0.47539505 -1.0307132 -0.5526758 0.07125496 0.38353282 -0.7620238 -0.06407931 -0.2026205
。 0.05334223 -0.06960543 -0.13745184 0.23271914 -0.6266612 -0.35574427 -0.6052254 0.11441849 -0.16119254 -0.5305331 -0.77571166 0.31833282 0.19584525 -0.33396623 -0.099456966 -1.1409642 -0.9957123 0.96796846 0.07096571 -0.78680617 -1.0717232 0.31381866 -0.26143336 -0.55732805 -0.34376037 0.14653113 0.8171308 -0.8028926 -0.53334355 0.9492985 1.5885155 -0.7367865 -0.00017657876 -0.21941742 -1.0533574 -1.0701158 -1.2982169 0.7412639 0.1794141 -0.1514988 0.561231 -0.08132334 0.55551827 0.42322734 -0.7361827 -0.71548134 0.3563208 -0.8070766 0.61066014 0.49097437 0.7918281 -0.55068755 -0.13267279 0.74083483 -0.7498562 1.0020611 0.3580894 -0.5653571 0.15543236 0.04089552 0.14120202 0.15280466 0.9507035 0.15720999 -0.033272818 -0.53395885 0.1338493 -0.014574886 -0.66008776 -0.8731348 0.2788285 0.0194812 -0.94606125 -0.57648724 0.389437 0.3476284 -0.23620158 0.42120543 -0.60509026 0.25210226 -0.3849512 -0.8403754 -0.75271857 0.09893465 -0.3180773 -0.5274359 -1.3385725 0.48535287 0.39588928 0.74426025 0.50159514 0.9797732 0.32695836 -1.432362 0.27504358 0.25268364 0.37871876 -0.68949634 -0.74121404 0.67167056
无 -0.07731963 -0.76439834 -0.5313861 0.66738564 -0.08428983 -0.07508941 -1.0626025 -0.4364632 0.28441855 0.40071234 -1.857139 -0.09543613 -0.39748353 0.09890773 1.2743804 -0.71262103 -1.1040363 0.31155455 -0.6303844 -1.9723998 -0.3101107 0.73342395 -0.39735335 0.3009483 -0.5475593 0.33781573 0.42689818 0.34244424 -0.1725909 0.36637634 0.061938386 -0.21901259 -1.0057893 -1.6265732 -0.056259494 -1.1248429 0.5686895 0.7313719 0.88597023 1.3696865 0.59210277 0.77665466 0.013906656 0.79335815 0.073225975 -0.8671745 -1.1696675 -1.7432772 -1.0674785 0.4781934 0.28996623 1.0002301 0.45754194 -0.45728582 -0.24867944 -1.0684285 0.55795467 -0.9968097 -0.8895285 -1.1039863 0.63168275 -1.2335056 -1.6637084 0.13779593 -0.5953397 -1.1570768 -0.16333093 -0.38495773 -0.673265 -0.8642679 -0.73108613 0.48380566 -1.3498671 0.58155334 0.60178727 0.6824594 0.014105509 0.593188 0.8335703 -0.60727084 0.05112229 -0.11284352 -0.32287392 1.0837808 -0.71652234 0.7347836 -1.046927 -0.5577987 -1.1360595 -0.25594538 0.4718073 -0.14132412 -0.16177364 -1.5821608 0.23892885 0.79705364 -0.32286978 0.15082926 -0.3563093 0.17793877
及 -0.8331095 -0.2381319 -0.9295248 -0.1939359 -0.6461595 -0.4066042 0.5297854 0.4298228 1.6433607 -1.3852148 -0.30199385 1.1782286 -0.076694235 0.3308059 -0.13431765 -0.42393833 -0.89834297 0.5844697 -0.3622147 -1.468175 -0.1519071 0.021635257 0.2385194 -1.2954663 0.39263493 0.22283296 1.1596185 -0.2475517 -0.57759553 -0.34828898 -0.031040937 -1.750417 -0.01568025 -1.146855 0.05609074 -0.54800445 -1.6197505 1.1354367 -0.45541137 1.272829 0.4705876 0.015225134 0.52353936 1.0728023 -0.48158216 -1.4294746 -0.7147193 0.5847733 0.5822725 0.09514167 -1.255422 -2.2909858 -0.053332526 1.4248766 -0.98553187 0.61332256 0.22933127 -0.70654786 -0.4660922 -0.059888434 -0.76088005 -0.025900658 -1.6869817 0.16938691 -0.42191434 -0.97311723 -0.32570928 -0.5568258 0.39815634 -2.0173512 -0.9831026 -0.18457334 -1.5541394 0.60433155 0.39242166 0.82303196 -1.3621254 -1.1294903 -0.45198122 0.93232423 -0.3076372 -0.9367026 -1.5961317 1.0513908 -1.2335477 -0.6993435 -0.5543561 0.5511427 -0.31468338 0.47152674 0.5012717 0.24480456 0.18846226 -1.5798006 -0.04515349 0.21072033 -1.1215999 -0.2786546 0.93725306 -0.07438503
痛 0.18049283 -0.9247668 -1.7275121 0.024287434 -1.6057576 -0.71458006 -1.1759634 0.023220982 1.6088185 1.2176069 0.05400203 -0.88196963 -0.7046325 0.65545595 0.6309492 0.03320021 -0.9826444 -0.081188396 -0.14749229 -0.8958831 0.7590933 -0.23890105 -0.4002734 -0.16293488 -0.07936001 -0.4072427 1.0158402 0.5874969 0.58954984 1.1899585 -0.2773344 0.0056666387 1.2861114 -0.003284877 0.5774054 -2.6107202 -0.15648599 0.3463175 -0.02714953 0.3646617 -0.020257842 0.27520376 0.4426687 2.3583162 0.439998 -2.5567112 0.5744921 -0.59793454 -1.4279575 0.7815521 -0.28607538 -0.47260192 -1.1164596 0.6923306 -0.21765582 -0.20849825 1.5562209 -1.6429055 1.3393977 -1.664077 -0.14979821 -1.8035301 -0.58816653 1.1532344 -0.98804975 -1.5734496 -0.33449715 0.010453129 -1.0525281 -1.1496353 -2.130442 0.73041314 -1.0492717 0.3987014 0.3962978 0.221856 -0.5674705 -0.28317484 1.1917746 -0.04672419 0.56187737 -0.40249354 -1.2353988 1.8614635 0.29254422 1.2608443 1.242244 -0.98388743 -1.1101729 0.18186058 -0.8828923 0.35819566 -0.7683573 -0.45347133 -0.048871115 1.2198367 1.2493571 1.5652181 -0.35700172 -1.2097113
未 0.25608495 -0.22845733 -1.877549 1.0195874 -1.3473252 0.14600131 0.26872167 -0.89543027 -0.42353502 -0.90252453 0.056802988 -0.6055069 0.6657839 -0.1637989 0.9080114 0.32938796 -1.5820105 0.8280477 0.66661006 -0.8039843 1.3070729 0.815901 -0.052660964 -0.92702985 -0.29769176 0.5299299 -0.053789165 -1.1500931 -0.6477627 0.34612322 1.5021961 -0.52625984 1.0288568 0.6291256 1.1594635 1.0587376 0.20966081 0.35246006 1.1557693 -0.6684775 -0.030761026 1.3071098 1.4939476 0.33661523 -0.7834213 -0.88179916 -2.192686 0.5530271 0.9932729 -0.19732273 1.1213166 -1.6600357 0.1089114 2.1488283 0.6522376 0.84384435 0.788322 -0.14498658 -1.0590237 -0.047494166 0.4973948 -0.5862082 -0.58674055 -0.2175926 1.4343164 -0.15241644 -0.20151821 -1.1744957 -0.81217206 -1.993392 -0.01313534 1.9013083 -0.3351257 0.43468723 1.4993632 0.50774 0.88031524 1.4044865 -0.47037894 0.028086567 -0.56227815 -0.18883471 -0.7412022 2.3775785 -2.7859318 -0.9886993 -0.76593757 -0.9225163 0.33189496 0.73714966 0.30558956 0.9577914 1.4494848 -0.7181684 -1.3759911 0.9432594 -2.1270251 0.9287767 0.021106107 -0.60439026
常 1.3207476 -1.279826 0.19186176 -0.86153036 0.27378863 -0.81298834 0.35221255 0.5078215 0.53316885 -1.2018857 0.14984064 -0.36481887 1.2023073 0.5645613 -0.84131616 -0.15803741 1.4836316 -0.34177515 0.60561496 -0.9042823 0.43118176 0.33858836 0.51055425 0.08114877 -0.14289051 1.4301383 1.6725343 0.50918174 1.6071931 -0.21145718 0.59488493 0.47321546 0.6297213 -0.17292087 -0.56979 -2.1218252 -1.0528626 -1.5454938 0.2696917 1.0456146 0.8573935 0.98784626 -0.05911211 0.41986084 -0.028946571 -0.06153064 -0.54819286 1.099583 1.8397392 0.26565787 -0.04099375 -1.7869807 0.08140021 1.3739965 0.8886597 2.9640977 0.8071307 -0.5249779 0.3091987 0.36385664 -0.36794606 0.06756786 1.8966144 0.51749355 0.4771513 -0.021370448 -0.17191373 -0.6918861 -0.5412552 0.4839751 1.2192426 -1.7030323 -0.47943178 0.55655634 0.11867683 -0.7844181 -1.3319284 1.3025095 0.5017104 0.21633466 -0.1857315 -1.13864 -1.1894478 1.1545546 0.33794257 -0.37894306 -1.0145423 0.7704848 0.0432281 1.9429446 -0.8522272 -0.14563923 1.3783723 -3.52811 -0.09373439 -0.59888536 -1.3917847 1.5281489 -0.9973651 0.7194615
腹 -0.20092106 -0.58127624 -0.6549366 0.40187648 -0.92118305 0.50715435 0.19816625 -0.3834256 0.71564037 -0.3503094 0.23716079 -0.49841908 -0.107913084 0.29168686 -0.6665973 0.10452598 -0.018378733 -0.44637883 0.7080181 0.19838168 -0.6982626 -0.07793228 0.6801633 -0.86185473 -0.44872952 -0.16947156 0.78298575 -1.544201 -0.039239876 1.4187658 0.8923025 -2.1802323 -0.18436025 0.041881833 0.7679021 -0.9063396 -0.23382047 2.068908 1.906463 0.028579494 0.17716391 2.4271743 1.3903415 0.43278992 -0.2424119 -2.2757463 -0.57918453 0.84712356 -0.25237206 1.2465812 1.656108 -2.1921368 0.32166517 1.4766917 -0.928327 1.1326226 -0.08977855 -0.23887771 -0.3799856 0.03801906 1.3134885 0.8025695 -0.5345624 0.42200986 -1.1357471 -0.44653645 0.7045202 0.29920128 -0.5026769 -2.4567204 -0.002106671 -0.08682516 0.3011417 0.8145536 0.7801805 0.17617847 -0.7362922 -0.5513915 0.21136466 -0.26259443 -0.4166916 0.32507625 -1.0609915 2.0973523 -1.5545464 -0.2831947 -1.0118142 -0.5259616 -1.1775233 -0.16482015 -0.33154196 1.0064632 -0.21152161 -2.4558427 -1.4163859 -0.9189678 -0.54612154 1.1195202 0.33269674 -1.5056108
音 -0.023884712 -1.8806405 -0.63740623 0.86570305 -0.5539302 1.760591 -0.22925423 -1.8506306 0.4483737 -1.3364422 -0.35495022 -0.15131778 0.14485353 -1.7632942 -0.9048958 -1.030382 -0.5340295 1.2662066 0.17634344 0.24308263 -0.13379502 0.13243291 -0.40386558 -0.96711403 -0.7814222 0.57389146 -1.0149035 -0.14655982 -1.0462976 0.046656583 0.29376304 -2.6762984 0.8559985 0.9599722 -0.47365642 0.80434436 -1.0728647 0.8006364 -1.2064773 0.49435169 -0.08818311 0.39115646 0.16790779 -1.7408243 -1.9250354 -2.3542345 -1.4527315 0.6555937 -0.7265057 -0.41284087 -0.86538947 -2.8396192 -1.6846521 3.0864155 1.1217644 2.2278528 1.0510263 0.5763299 -1.2716268 -1.7368835 0.72790486 0.2339323 0.30849236 0.21442956 -0.49483028 -0.13465111 -1.0344974 0.50433385 -0.35790765 -0.41270277 -0.5425096 -0.3431278 0.10066374 -0.3303042 0.8392019 -1.0133294 -0.31121114 -0.51690847 -1.0785656 1.1204485 0.7719639 0.6860679 -0.06699597 2.669391 -0.54128337 -0.032009833 -2.3398926 -1.0989088 -0.3926626 -0.20984769 0.5963774 1.1266662 0.13397181 -1.0184025 -0.9009786 -1.4833927 -0.6013091 -0.35063893 -0.051291026 0.94200176
双 0.34216055 -0.5846198 0.724963 0.17497414 -0.50380355 -0.45356727 0.67087466 -0.76603734 0.5877447 0.1374632 -1.177942 -1.872698 0.05686138 0.9075026 0.42838266 -0.91953105 -1.1647074 -0.11312375 -0.56338197 -0.18628319 1.1887246 0.46308318 1.367333 0.38733414 -0.70948136 1.9461449 -1.0724072 -0.43222997 0.62563133 -0.37403744 -0.018260421 -1.6568757 -0.029449157 -0.36153173 -0.17514041 -0.51686144 -0.61956006 0.14733286 1.2236147 0.48449025 -0.50192845 -0.40778956 -0.85700464 0.2757937 -0.54030997 0.4225321 -0.58148366 1.2785789 0.2544523 -1.0966488 1.2954218 -1.3772414 -0.7672314 -1.1139711 0.046918977 0.0723957 0.50184923 -1.0582672 -0.38328165 -1.4251622 0.35917515 -0.72082555 0.32047862 1.458752 0.9270573 1.1655521 -0.8965601 -0.050468005 -0.72708976 -1.0650071 0.76604444 0.18764202 -1.5464499 -1.1613495 -0.035924286 0.9194176 1.2289169 -1.0580682 -0.67147386 1.4187251 0.22758518 0.7459726 -0.104789115 -0.15863003 -1.7974467 -0.24367584 -1.2389176 -0.17777525 0.43988097 -0.04982155 0.7903031 0.41250715 0.032223657 -0.46590424 1.1434605 -0.6165724 -1.229344 -0.22566597 0.15006767 1.5617148
部 -0.84851193 1.3052597 -0.8728137 -1.0047764 -1.8982193 -2.0065854 0.15602674 0.3565449 0.32809308 -1.1775328 -0.09847871 0.17409538 -0.7150558 0.38444966 1.1838852 -0.06612927 0.10623196 0.38556114 0.9088223 -0.28105307 0.36217126 -0.21751451 -1.2513193 -1.2587408 0.028578458 -0.24608578 1.8768461 -0.42683235 0.92134804 -0.13235329 -0.14817788 -0.2099447 -0.7601344 -0.50822127 1.5923734 -1.9561061 1.393879 -0.78557724 0.44028535 0.014516058 -1.1701796 -0.051358126 1.5510987 2.4922695 0.5545478 -2.4370418 -1.2692205 0.018177193 -0.73917264 -0.4322247 0.2997758 -0.7042283 -0.04848882 0.8012017 -0.6396019 -0.3498358 -0.23615423 -0.5001769 0.3567033 -0.40766305 -1.2849014 -0.9685884 -1.3970857 0.71399146 0.7431928 0.09793296 1.7097684 -1.0718552 -1.10069 -0.3968754 -1.4648379 0.4372687 0.22606587 -0.2520424 0.15141313 -0.11637751 0.9622209 -1.0362264 0.11692498 -0.8300225 -0.17098229 -0.4434949 -0.31400347 1.0836262 -0.8855716 -0.41811672 1.2068168 -0.3449419 -0.57118136 1.0714546 -0.75636935 1.6887738 -0.94534224 -1.328101 -0.6886164 1.2624083 1.5109401 1.420547 -1.6028543 -0.30315614
正 1.7116011 1.1727313 -0.5195153 -0.99104506 -0.43192467 1.9813362 0.30155888 0.17000028 0.8977341 1.8683023 -0.13807802 2.420953 1.8687265 -0.042420056 1.1394455 0.31863517 0.10426811 -0.3683579 1.3963747 1.0081213 1.3683529 1.3989677 -0.61517256 0.9578171 -0.8399721 0.35502532 1.4728448 -0.6575353 -0.27441445 0.59854066 0.8442704 -0.094439045 -0.06339839 -1.8461282 -0.25600046 -0.74069744 -0.89428633 1.027035 1.2676884 0.2074877 -0.579418 0.6214713 0.8387712 1.2600963 -0.8143161 2.2148128 0.23762673 1.0229609 1.7341415 0.84743404 0.6378527 -1.7628151 -1.3195777 -0.44102323 1.0000907 0.7443523 0.03649407 -1.2257178 0.15819444 -1.4273752 0.36557788 0.55695134 0.6971611 1.1972411 -0.3899112 0.8060704 -0.71414214 -0.72338456 -0.077211104 1.4250679 2.2432823 0.16873522 -1.027072 -0.79875994 -0.8052197 0.23659563 -1.6690191 1.0864217 -0.568047 0.8785721 0.11605043 -0.73988503 0.9561817 -0.6955494 0.35412297 -0.11526883 -0.88293165 1.7480854 -0.78386456 0.81481713 -0.7404893 -0.6652625 -0.64624673 0.14448503 -0.5344812 1.96046 -0.18995987 0.8978559 -0.5249219 0.38140225
肿 0.72269154 -0.41966757 0.5769281 -0.5741089 -0.80396575 -1.0390984 -0.6002 -0.37063077 0.5968378 -0.298962 -0.34001136 -2.0105731 -0.3748186 1.0269458 0.29135373 0.3091513 -0.8010679 0.6647954 2.0718172 -1.203964 -0.5618206 -0.44132027 -0.22984846 0.517258 -0.5080692 0.5130283 -0.2510954 1.1121008 -0.8071918 1.1926254 -0.33807978 -0.9592813 -0.90327567 -1.8485478 -0.4584922 -1.0103042 -0.16639672 1.4460813 0.6171269 -1.0741796 0.44482145 1.5360109 0.36450508 0.88107884 -0.5056068 -0.089901 -0.74789774 0.87263286 -2.2834566 1.1044173 0.6314707 -0.44019777 0.84281933 0.63059473 -0.85801774 -0.16803859 -0.45410812 -1.0628623 0.669761 -0.4565103 0.6718575 -0.6581495 -1.7925144 1.8721583 -0.25160024 -1.4219693 1.1440833 0.1744691 0.39735606 -0.93583184 -2.1373549 1.3660699 0.510203 -0.07371362 -2.291424 2.1518672 0.63126034 -1.02114 1.119341 -0.66337687 1.3834182 0.2643435 -0.5969629 1.7965554 0.076256044 2.1446593 -1.7190821 -0.54824346 -2.6775277 1.2117659 -0.2548765 1.5391742 -1.0166466 -1.3449162 0.58231896 0.7569089 2.105718 1.030472 -2.2276554 -0.9116748
动 -0.85580117 0.4869033 -1.0385195 0.23677783 -0.41315612 -2.0087817 0.25176314 -1.6295813 1.4966007 -1.1095339 0.43641055 0.2384236 -0.970722 0.8031798 0.7623491 -0.8652424 -0.60366255 0.4677079 1.8874742 -0.97925025 -1.9845829 0.80857366 0.9854194 0.04267812 -0.7574046 -0.483509 0.016714435 0.1258422 -1.1063423 0.59497964 -0.7480777 -0.64185965 -0.6431348 -1.0958676 -1.7042208 -1.2021799 -0.7840223 0.33829623 -1.6584414 1.1018665 -0.4848885 -0.7306238 -0.5017083 0.5657836 -2.0148337 -0.1362818 -0.60042584 0.0791701 0.94403213 -0.3666279 0.17838165 -1.2246289 -1.5393214 1.7385937 0.7116747 0.06692124 -0.5284737 0.7175064 -0.7301258 -0.91089976 -0.944592 -1.977081 0.6907123 0.7635783 0.90057695 0.954557 0.51762146 1.9036258 -1.2108098 0.631961 -1.219364 -0.014656247 -1.4646273 -0.110209286 -0.89961994 -0.27422085 0.16433582 -0.33533403 -1.1792947 0.19544955 1.3390951 -0.46985275 -0.36383444 0.36167976 -0.9912717 1.0116518 0.9804179 0.21365376 -1.0622607 -0.81011146 0.029374648 0.33610564 0.24908985 1.6607093 -1.6700348 0.94748735 1.4460423 0.6416131 1.5357813 1.0429927
可 -0.40060896 0.3138758 0.5653445 0.31088114 -0.13547602 0.65876496 0.5788878 0.38616168 0.30653176 -0.87369376 0.7756363 0.20860356 0.72522414 -0.18777159 -0.4415674 0.33515403 -0.6228593 -0.90489376 0.79151684 -1.4126155 0.50049376 0.5108286 0.5447074 0.41885662 0.15533733 -0.91136676 0.7593395 -1.2091794 0.001727442 0.28849187 1.0339276 0.34854892 -0.74859273 0.70544374 2.0691504 -0.50528735 -0.96234703 -0.13069537 -0.17564617 -0.34231955 0.17752726 1.0783263 0.041428022 0.44630027 -0.613596 0.10484241 -1.0284574 -0.086634316 0.9377334 0.11625163 0.6798773 -2.5856302 -0.8257806 -0.28197926 0.97076494 1.1572917 0.8015567 -1.2848771 0.42165285 -0.10471973 -0.12430133 1.1312233 -0.46641484 -0.43815604 0.95143956 -0.15079904 -0.5448351 0.34530073 -1.2583494 -1.005669 -1.0256162 -1.1825811 0.56736 -0.82316643 0.10128679 -0.95500815 -0.12517713 0.27473152 0.77639455 0.68238175 -0.4623153 -0.25019476 -0.6457571 0.47398275 0.13799216 0.72431815 -0.41689876 0.18079929 -0.12213085 0.8093724 -1.7068921 0.43430448 0.17578746 -2.3404603 -0.6476878 1.3662838 -0.33423612 0.35503784 -0.52841854 0.6092168
性 0.029228643 -1.2245395 -1.2019955 1.1413332 -0.5817691 0.5773635 -0.14787386 -2.2597713 -0.584253 -0.95628923 0.16372308 0.5528088 0.62438214 -0.4983971 -0.7092103 -1.5070008 0.5764174 1.4594014 0.103397064 0.09700099 0.39852038 -1.1163697 -2.091003 -1.5078424 0.05064761 0.9285727 -0.6484213 -0.23551214 -0.20076413 -0.67480445 0.425586 -2.5175972 0.24096087 -0.6395288 -0.5818884 0.60352695 -0.8178481 0.26752678 0.268542 -0.12555405 0.58934724 -0.01565557 -0.018463802 -1.257971 -0.99651104 -2.3473148 -1.2645419 0.0059904368 -1.1022421 0.54612786 -1.1723783 -0.6705433 -0.8381174 2.7559018 0.7990124 0.78009355 -1.015518 0.20484543 -0.10641363 -1.1456431 -1.3355908 -1.4086297 0.6483809 -0.33916426 -0.6994846 0.5652449 -0.8463584 0.81677955 -0.118398175 -0.7297166 -0.53082573 -0.15564054 -0.022368548 -1.4774716 0.40525597 -1.9547446 0.013843117 -0.96916544 -1.07549 0.3349666 0.96546835 -1.0544891 -0.49081957 1.875376 -0.2024475 0.14472786 -1.0349872 -0.22666718 0.1337278 -1.1492311 -0.40964752 0.26394463 -0.15952857 0.69023055 -0.24183074 0.38306835 -0.50245506 -0.26039368 0.1971949 0.4493246
压 -1.0426888 -0.59417963 -1.1409538 0.09336489 -0.3778703 -0.03150797 0.35917926 -1.3212262 1.056689 0.62624544 0.54894584 -1.1152067 -0.44532666 0.8078203 -0.71491015 -0.87262326 0.3320233 -0.8267562 0.282149 -0.07679483 -0.041301012 0.43788353 0.4945831 -1.6717303 0.9609467 0.49112195 0.37070101 0.26511833 1.0012957 1.4698037 0.43626073 0.48714006 -0.58663 -0.45340306 -0.29759577 -1.266553 1.3193816 2.191056 0.8037364 -0.58792716 -0.540179 -0.9252483 0.70143896 1.2287902 -0.6175012 -0.063129224 -1.1543705 -0.27640355 -1.3716973 0.53320026 1.326597 -0.0022602354 -0.31518546 0.20575356 -0.022857523 0.3610501 -0.54097295 -0.101435125 -1.592447 0.25707853 -1.1053115 -0.7354147 -0.12529269 0.23472232 -1.032998 -0.43951973 1.1343931 1.6583905 -1.074041 -2.1457417 -1.0393074 0.3775004 -0.6577575 0.63499343 0.024930121 -0.15486923 -0.1809226 -2.2441814 0.9512118 1.4304878 -0.13510837 0.3134409 -1.7592821 1.4033736 -1.5373005 -0.4341518 -1.0974513 -1.1857196 -2.7895787 -0.47016752 0.1984241 -0.029869188 -0.7417893 -0.97026354 0.21567401 1.1082424 0.14168447 1.2495728 -0.902779 -1.0832188
侧 0.0038695855 -0.60808194 -0.1543877 -0.6673958 -0.50411344 -1.6865853 -0.89513427 -0.14143546 1.6057907 -0.41883507 -0.4360249 0.0695417 0.13702181 -0.5374349 0.14330584 -0.96271366 0.104738 1.7074643 0.6072028 -0.1484013 0.5465577 -0.37391183 -0.48465908 0.11590288 0.63361704 -0.10304096 0.29405004 0.52636695 0.212763 -0.3447544 0.08950992 -0.5624383 0.1627766 -0.5025968 -0.4962018 0.08922169 -0.24136521 -0.38444722 0.4600601 0.26905116 0.16266389 0.036730386 0.7056355 -0.08742953 -0.5616413 0.93995726 -0.61368626 0.4061683 -0.6662025 -0.28959265 0.72201777 -0.51835054 -0.49202463 -0.2922467 0.69220626 -0.88072205 0.042369958 0.14315058 1.8960313 -0.13482532 -1.5649098 0.335695 -0.9688417 0.3587495 0.30346492 -0.41788235 0.54170245 -0.5270296 -0.88274395 -0.0925723 -0.03260792 0.7875538 -0.6353982 -0.24887203 0.1466234 0.37815663 1.1151687 0.671688 0.082707025 0.22418956 0.03031971 -0.90985656 -0.98298854 0.0049153385 1.8308326 -0.14892949 -1.6603899 0.19560736 -2.5367076 0.96451986 -0.9947667 1.3099003 -0.7786115 -0.3215456 -1.2201034 1.1624935 0.4683045 -0.19744861 -2.2855928 0.33631518
触 -0.8646291 -1.4911617 -0.18017931 0.020736068 -0.9205913 0.45705715 0.61578494 -0.16523123 -0.8984195 -0.06661394 -1.0212334 -0.02531393 -1.2750951 -0.5326372 -1.8389103 0.56212574 -0.8148791 0.7369802 -0.14225207 -0.0752945 0.98900545 -0.2883831 -2.0286944 -0.6864808 -0.61983955 1.1363747 -0.0531319 -0.4618064 0.24398562 0.026080286 -2.2739363 -0.22620046 0.052519377 -0.31435138 -0.17205186 -1.7319703 1.2854216 0.9761089 -1.17669 0.62948793 -0.7378843 0.5318626 0.16091397 0.768954 0.22828296 -0.99365824 -1.3249949 0.87944025 -2.23714 0.78871715 0.44000062 -1.0373248 -0.21249884 0.5571844 -0.4789859 0.23821864 0.23700659 0.021758689 -2.01906 -2.097104 -0.16821529 0.12274988 -0.80417883 2.7369142 -0.6074285 -1.3920318 1.0435869 -0.104559645 0.54437625 -1.9513103 -1.0666741 0.7642062 -1.8238583 0.08306327 -0.0259274 0.99968505 0.48937646 -0.82131284 -0.17632715 1.034135 -0.54058385 -0.6330623 -1.2496512 2.159759 -1.3589743 -0.9383748 -0.9129745 0.5524512 -1.7626711 0.86350125 0.82624036 -0.66993886 -2.2217484 -1.5453788 0.16836393 1.5069153 0.18174906 -0.11857701 -2.201566 -0.6249843
体 -0.16523358 0.114294104 0.01666631 -0.08177052 0.22481582 0.7005321 1.3687202 1.8796012 0.021008926 -1.2908201 -1.2949665 1.6278784 0.9252773 -1.1781112 2.0613024 0.2103878 0.59229183 -1.0590717 0.21277097 -0.08209126 1.7308145 1.3433831 -0.074660845 -0.37160528 0.37298292 1.0989957 0.91501623 -0.632081 -0.72467303 -0.7839715 1.7872183 -0.7255587 -0.55230653 -0.9282057 0.22363034 -0.68878317 -0.6821471 -0.45743802 1.1645935 0.9197745 1.8470198 0.22402455 1.2752943 -0.4368417 1.0588646 0.95011693 0.061981358 0.40498284 1.4202583 -0.09406228 1.5960774 -1.9217502 0.006152408 -0.4263573 -0.12275758 1.5643562 2.0337985 -1.291254 -0.2594365 0.5753426 0.9344443 2.2372453 2.2442954 0.124269135 1.4708929 0.26153988 0.5842236 -1.0588803 -1.8775892 0.19579 2.173328 -0.60612684 -0.9867738 -0.7314724 -0.19363973 -0.4096575 -1.5592644 0.3755903 -0.5335799 1.2178291 -0.21159226 -0.54206246 0.72652465 1.3512397 0.46850187 0.5579744 0.08230675 -0.77350575 0.86619335 0.6466526 -2.0059237 0.26311 -0.345702 -3.0908794 -0.28987008 -1.8397863 -1.2531284 0.40826988 -1.975991 0.899979
神 -2.136252 0.090892896 0.17876776 -0.9533595 0.6042247 0.778965 0.26333198 2.180713 -0.63759506 0.8007765 0.21629709 1.6503154 0.087324016 -1.502676 1.0020887 -0.26492774 -0.19627376 -1.1687434 -0.57306015 -0.5507569 0.082260385 1.0199183 1.2184739 0.6844155 1.0194697 0.5494194 -1.3855345 -0.90412384 -1.8546749 -0.69721293 -1.0520624 0.4724922 -0.3298566 0.72496045 1.339973 0.85224205 -0.73653656 1.0622389 0.24067758 1.5669767 0.8679698 0.6623699 0.12410987 -1.2127557 -0.3107334 0.015934765 0.21306713 0.75893563 0.8733109 -0.092223816 1.7196504 -0.82551277 -0.2914798 -0.3850968 0.32116485 1.2074896 3.1766596 -0.30353236 -0.45684367 -0.72214746 2.3548772 1.7378659 0.5405316 -0.2498624 0.9523785 -0.85320413 -0.74108976 -0.31164047 -0.4498357 -1.2456658 0.6108062 -1.8978645 -0.9928631 -0.046958577 -0.38855782 -1.6305573 0.3057006 -0.44942993 -0.37433505 0.5674274 -0.6967957 -0.21936706 1.1515957 -1.0743152 -0.6469883 0.6394201 0.40143538 -1.4023454 1.5744458 1.2854284 -0.6143092 -1.6317294 -0.7690363 -1.2595893 -1.3017522 -1.0594743 -0.20336811 1.1243852 -1.3825786 2.4376361
查 0.712505 0.6638635 1.4059246 0.2568001 -0.9499568 0.91631216 -1.0625027 1.8855293 -0.6409229 0.6710627 0.76552165 3.070386 0.14012522 -0.09930458 0.4588827 -0.77206814 0.053193234 -0.047843087 0.8238683 -0.19731382 0.8228278 -0.6189793 0.044843756 1.7150421 -1.3292389 -0.1595854 1.0450789 0.47430158 -0.5681216 -0.19145131 1.3980342 -0.6731097 -0.67106515 0.10114599 0.64456666 -0.60235244 0.3830577 -0.9133226 0.919689 1.2051129 1.0729172 -0.7611411 0.033038765 -1.2274843 1.078736 0.87780046 -0.39065015 0.72147006 1.5192916 -0.5418901 1.1927947 -0.8406218 -0.1823055 -0.027989442 0.38213852 3.1122413 1.8388606 0.80827874 0.89895326 1.0013491 0.64264613 2.000888 0.5739062 -0.68863773 0.5391978 0.7246253 -0.64438695 -1.9281663 -1.5067155 -0.7750802 2.6205184 -0.6892408 -0.5422826 -0.27437267 1.1037544 0.24281195 0.12141898 -0.17670107 -0.58359486 0.64928865 -0.9658485 -1.430628 1.873965 0.8241181 -0.8892813 1.5303775 -1.1041452 0.40563986 1.6814837 1.4920907 -1.038419 0.78018826 0.89719415 -2.5617638 -1.3025619 -0.802943 -1.719303 -0.41177472 -1.6837577 1.6468797
见 -2.7083414 1.1094779 0.94628805 -0.45522714 -1.509966 1.5551909 2.0263982 0.2053112 -0.82188636 -0.6641321 -0.897749 0.8557238 -0.5923032 0.31085798 0.91606003 0.76181316 0.61460507 -0.56422037 1.1703024 0.5522358 -1.6956701 1.0708985 -1.6019875 -0.9721956 -1.3856237 -0.1804245 1.4550995 -0.22723877 -0.6926039 -1.2514468 -0.19951859 -2.05158 -0.40811887 0.7423686 -0.5659012 -0.9513628 1.6940671 -0.82586104 1.8573447 1.1440803 -1.2797315 1.321596 1.2742233 -0.41851515 -0.5006394 -1.162838 -0.63708514 0.12181614 -0.2574916 1.602922 0.15087453 -1.6545455 -0.7106799 1.8612432 0.0706035 1.4773859 0.8315669 1.8618195 0.95413315 -1.1102164 1.5231961 1.8127296 -1.5314293 0.4446502 -0.10372858 0.54710954 0.947819 -1.4344634 0.85776675 -1.0989304 1.3904569 0.05062695 -0.26981145 1.3206108 -1.3479495 -0.9786794 0.57254136 -0.61274576 0.1947966 0.58180636 -0.14561455 -0.8125288 0.94864714 1.0016019 0.15027286 1.6724286 -0.6982704 0.028056936 1.1992564 0.3308107 0.791734 0.8701663 0.503349 -3.8404675 -0.8910274 -0.5097532 -0.631269 0.21224801 -0.75274104 0.645958
患 -1.8938514 0.39876196 1.2275554 -0.113239825 1.4539142 1.1013916 1.046968 2.3383093 -2.24352 0.78456753 0.8991137 1.7122248 0.018729294 -0.16398373 -0.6251647 -0.30119956 0.5046904 -1.6703919 0.04740865 -0.2288578 -2.000142 0.6064898 0.082847275 1.1750228 0.81966424 -0.46624336 -1.7945691 -1.2912642 -0.38006142 0.7854559 -0.70232874 0.24606024 -0.36416212 0.98549294 1.5821158 0.81318545 -0.3057024 0.8409223 -1.6402636 0.9756083 0.45305085 1.0781147 -0.40319145 -0.90863 -0.8888144 -0.12161357 0.996061 1.9017875 0.32923356 -0.23481326 0.8696437 0.32086286 -0.7373158 -0.14704792 -0.1247909 -0.032903105 0.9672205 1.391985 -0.24311206 0.2313188 0.26940203 -0.67385584 0.22719167 -1.508647 1.087757 0.35079965 -0.09704139 -0.61690193 0.442337 0.7400344 -0.8167696 0.50568956 0.781682 -0.48581463 -0.29666656 -0.9722994 0.5732992 -0.09287812 -0.08054713 0.18214782 -0.8387811 1.0207863 0.2972802 -0.6653732 0.568526 -2.0752604 2.5790887 -0.647654 1.7493155 -0.22556058 -0.29185656 -0.15036274 -2.005063 0.20674226 -0.2782747 -0.9320053 -0.35888758 -0.7614799 -0.031613763 0.8152497
者 -1.2804203 -0.20774192 0.39907148 -0.9627293 1.4062301 0.030708862 0.39461476 3.0935903 -2.7652671 0.4094432 0.16188028 1.5163933 -0.23836899 -0.9214122 -0.434237 -0.20034014 1.8241976 -1.2350873 0.1651435 -0.68120533 -1.5016267 -0.54393584 0.2500919 0.1772885 -0.48139182 1.0265085 -1.1316342 -0.9844645 -0.87035847 1.1044568 -0.39110416 1.7364963 0.16738962 1.8994584 2.1778715 -0.5500073 -0.25088802 0.20357494 -0.93489367 0.038055807 1.1086501 0.5714557 -0.87877387 -0.38656947 -1.2494304 -0.077291615 1.3292477 0.8953949 -0.5029952 -0.48029825 0.18127179 -0.27638605 -0.90530604 -0.010358978 -0.89598864 0.596318 1.1665202 0.499062 0.71825284 -0.172324 -0.18934098 0.74167067 -0.4031143 -1.1522042 0.9861628 0.34333685 -0.35218596 -0.09219181 -0.18948512 -0.011180266 -0.5373552 -0.38608465 1.3228259 0.33783558 0.27270886 -1.6042536 0.42346245 -0.41955647 -0.6361482 0.067707956 -1.0232091 0.75631434 0.5305699 -0.91025484 -0.12714633 -1.535243 2.085987 -1.2660304 1.3724791 0.22608562 0.22681266 -1.720627 -1.6026008 0.11886109 -0.24212971 0.05780257 -0.019567156 0.180403 -0.026762195 0.73598236
心 0.8316933 -0.52669555 -0.13293187 1.4006389 -1.6296304 1.3536836 0.6987 0.31527716 -0.031694125 -0.35688004 0.222432 -1.134528 -0.7135719 0.2509796 0.9852745 1.3758061 0.58814913 -0.2225566 0.43894264 -0.34714952 1.2342963 -0.7861253 -0.15986437 0.16004393 0.84461254 0.00031722398 0.35689622 0.14922126 0.6094683 1.2804264 2.5270014 -1.4753929 -1.1035473 0.07472546 0.8726072 -1.3505571 0.5279823 0.2152607 0.3582698 0.68876815 -0.49018046 1.2086791 0.5457188 -1.3827847 0.9426433 -0.6048414 -0.87315774 1.9954364 0.8656495 -0.27956712 1.1393206 -1.1084716 -0.059108283 0.8309395 -2.1377077 2.263531 1.1386945 0.74671894 -1.1438997 -0.5850274 2.221996 1.1564162 0.5269019 0.7901295 0.2502913 0.86473805 0.3173574 -1.1251138 -1.1528358 -0.7633988 -0.06925723 -0.07071208 0.39632055 -0.44553575 0.36742675 -0.29532862 1.1837823 -0.55388105 -0.28089517 -0.36208552 -0.4145655 1.1594609 1.0715023 1.363825 -2.725051 -0.64267844 -0.80795777 -0.7877023 -0.3050425 -0.6777071 0.51069915 0.2994195 0.9795216 -2.5085564 -1.9152741 -2.1118155 -0.23828374 -0.06701002 -0.5552055 0.29551417
、 -0.99104875 0.21572082 -1.4513606 -0.48955998 -0.6317773 -0.4091867 -0.7851981 -0.73694205 0.8812572 0.10448743 -0.19714004 0.410461 -0.50256604 -0.23879719 1.022239 0.4532934 -0.1857758 -0.11663279 0.31969628 -1.0352606 0.30327812 -0.09441264 0.26435497 -0.9219471 0.3399452 0.1142385 1.0654168 -0.2686487 0.5902592 0.023436934 1.4423915 -0.60241395 -0.20852719 -0.123017386 1.1689149 -1.2566926 -0.8914271 0.186927 -0.38751408 0.5696219 0.37791663 -0.18243256 -0.055531483 1.2854288 0.46725842 0.5104119 0.3944337 -0.18751755 1.2302731 0.12545486 0.27504563 -0.055227153 -0.18197653 -2.0347261 -1.4065517 0.045354925 1.1901151 -0.5462489 0.68713766 0.26858836 -0.995203 0.4246523 -0.7060074 -0.1436889 -0.5180568 0.187237 0.5598131 -0.09809602 -0.0021391523 -1.0526962 -0.46266222 -0.17016205 -0.83796537 0.7754902 1.1880885 0.0055476017 -0.90747297 -0.30258235 -0.47890761 -0.15145753 -0.283453 -0.7435145 -1.2679341 -0.1420266 -0.5834698 -0.40624893 -0.36521766 -0.08743824 -1.464794 0.72025543 -1.1449447 -0.1332839 0.5171998 -0.5009359 0.36443692 0.29059187 -0.10672142 -0.23074873 -0.7355527 -0.3332045
： 0.5232019 0.8037909 1.0480417 -0.34280896 0.11650873 1.8297577 0.3536106 0.9294647 0.7942508 0.8867479 -0.33447728 1.0064621 0.85083 -0.4184209 1.549563 0.76691395 -0.1628399 -0.37491578 0.8210224 0.09186273 0.48019728 0.58654 0.5180044 0.18384677 -0.26214653 -0.3093381 0.54855853 -0.32244012 -0.5827292 0.18871598 1.8515021 0.08652646 -0.5324338 0.61430645 0.5730081 0.4913113 -0.36828756 0.39539003 -0.15489288 -0.38381505 1.2268996 -0.009622895 0.36519927 -0.8380198 0.5532172 1.5631853 -0.3024983 -0.46005574 2.6154838 -0.49106055 1.5488713 -1.3374822 0.28473744 -1.224981 0.2877935 2.837702 1.8518628 0.25447232 -0.16223806 1.1999779 0.66292375 2.3476589 0.9371741 -1.0631162 0.25420216 1.5601304 -0.49180308 -1.5369997 -0.5707983 1.7341628 2.1093643 0.4910064 0.35062018 0.9948407 1.0368909 -0.51428443 -0.5438405 0.93627036 0.5539607 0.34232014 0.042442467 0.7813897 1.0944636 0.21305443 0.19788235 1.0099705 -1.36782 0.38138232 0.78790385 1.1130812 -0.4849537 0.3510905 0.08546454 -0.79557776 -0.4195291 -0.742409 -1.3780818 -0.2282565 -0.72628415 0.82517815
肺 -0.13557549 -0.13715084 -0.46010664 0.24692787 -0.84120864 0.48665935 -0.41456145 2.2281168 -0.23783235 -3.0884984 -1.7777778 2.20624 0.49304366 -2.4649174 1.2260065 -0.13351715 -0.0064126686 1.6077255 0.8296196 -0.4257382 0.6929963 -1.5576549 0.38992342 -0.26662874 0.91425014 0.043612856 0.3981868 -0.29485172 -2.2297754 -1.8343146 0.77235365 -1.0371984 0.06910561 0.48651522 0.8082508 1.8290994 -0.15183455 0.11757322 0.4850338 1.553242 -0.8574453 1.0542493 -0.35925922 -1.1810809 0.59341115 -1.1900258 -0.6202354 -0.6770866 1.1088527 0.075906634 1.5012718 -1.2606632 -0.9326554 1.578008 1.0483894 0.8179806 3.502627 0.9122125 -1.0572245 -1.4087453 0.11116194 0.82290983 -1.1774884 0.22856992 0.31291902 1.4605982 -0.15952413 -1.0040741 -0.30237004 -2.3074505 1.9865706 -0.12645805 -0.7386522 0.21669967 0.62329084 -1.8078015 0.7504339 0.16979694 -1.673639 -0.1639924 0.5510722 -0.72730964 0.34194657 1.8731273 -0.3952057 -0.35894504 -2.9403813 -0.5268345 -0.16674374 0.055049133 -0.13616098 1.2654109 -0.26544815 -1.7877539 -1.2937659 -0.82588696 -0.43184853 0.28464648 -1.905243 1.8860651
区 1.781697 0.06369447 -0.5874073 1.5478578 -0.5378131 -0.24970095 -1.7489151 0.09733607 0.36995655 0.009439855 -0.10810901 0.23998234 -0.95522135 -0.6621099 -2.8073308 -0.971408 -0.487151 0.79616976 -0.6332147 0.06423404 2.1863356 -0.21415015 -0.28452823 -0.71281224 0.49927294 0.7347268 -0.6137343 -1.1556442 0.415899 1.4117956 -0.42334923 -2.7150102 0.71379584 -0.9558007 -0.35339493 -0.12256565 0.12774472 -0.14269835 0.6743227 0.11697867 -0.28132114 2.408694 0.7163003 -0.41806406 0.5521655 -1.025219 0.018763104 0.34753028 -1.4450463 0.71407515 -0.20431714 -0.8889703 0.5218433 2.0396261 -0.7454732 -1.1201448 -0.27547497 -0.110850506 -1.2520471 -1.2198716 -0.62264806 0.13617887 1.2021729 0.19630738 -1.298955 -0.7546619 -0.7253012 -0.32847923 -1.4674635 -1.8555347 -1.4179579 -0.11415681 -2.4669626 -0.66915977 0.4929866 0.39972842 0.575642 1.4676598 -0.94635826 -0.96040475 -0.7449328 -0.7611461 -1.2814336 1.0655473 -0.3192108 -0.26711187 0.18665217 0.37204123 -2.2754707 -1.8167669 0.15468423 -0.013456523 -1.7827487 -1.6823552 -3.010388 -0.967307 0.79840565 0.12678984 -0.27816692 -1.0841228
反 0.58243144 0.41203374 -2.0198293 -0.908377 -1.3337328 0.01339392 -1.3927373 -1.3467703 -0.15279381 1.7161342 -0.34627855 -0.15052953 0.7503618 0.45527083 -0.53133595 -0.57145363 -1.1288006 0.7962149 -0.033883195 1.8366696 0.08628906 1.183518 -0.023750372 -1.1165527 0.77460164 -0.18232106 -0.26227495 -0.31153032 1.6139308 0.08716044 -0.5670399 -0.25654322 -1.3307686 -0.47127014 0.45293093 -2.0950491 0.7413314 -0.9949198 0.076051 1.5783046 -0.93606377 1.1567475 0.20146836 -0.20845273 -0.08433299 -0.45144108 0.77794933 1.5253705 -0.14358371 0.261557 -0.25634024 -2.1003642 -0.85938245 0.21853602 -2.2031326 0.5037977 -2.515443 -0.58239377 2.1643507 -0.6087368 -0.760497 -0.96940905 -0.50333005 0.7099764 -3.4807944 -2.1555111 0.51986843 0.6551761 1.920426 -0.18187624 -0.96867406 -0.5609271 -1.1656185 -0.32444844 -0.34872827 0.47206768 -0.26683795 1.0848997 -0.7562255 0.8022017 -0.3889783 -0.13901028 -0.5213012 1.552291 -0.18809126 -1.2884842 -1.2948616 -1.197095 -3.2994113 1.3090705 -0.9745666 0.81265247 1.5756049 -1.3727701 -0.014398364 1.1738046 0.33739498 -0.048740476 -0.27275068 -2.430917
尿 1.450277 1.0274763 1.5525929 0.59983516 -0.94736904 -0.36916894 -1.3772206 1.4676971 0.17316094 0.85201705 -0.72028685 0.2735566 -0.22913007 0.024763925 0.5536249 -0.6812635 -1.2542526 0.21277946 -0.8817732 -0.4445606 0.08640074 1.515875 0.05806838 -0.9613986 0.29329422 -0.23723899 0.8505826 2.030237 -0.16703953 1.6975067 -0.61918896 -0.4725185 -1.8283279 -2.1003315 0.5114947 -0.8622417 1.0107766 0.16760583 0.52918077 -1.2160883 0.82776827 -0.39427882 0.3198517 -1.2391601 1.1541656 0.89686036 0.007613256 -2.0315576 -0.41557384 0.9052888 1.3444533 -0.2738015 1.324051 -0.8730332 -0.48988143 -0.105652004 -0.48091817 -2.9838824 -1.0697312 -0.607801 0.46053308 -0.99950045 -1.2802038 -1.0054263 -0.79002506 -2.775585 0.71181756 -0.7484464 -1.5964669 1.2189264 0.56450266 -1.0833046 -0.22006479 2.2333949 -1.5202602 -1.5378286 -0.69431555 -0.4278825 1.183377 -0.09061422 -0.8038802 0.6234228 0.91000766 1.5362321 -0.8783044 0.9769279 0.5588236 1.4287789 -1.8730792 1.0863061 0.65183234 0.43456373 -0.2724146 -0.0112784915 -0.15831985 0.81919825 -1.5131636 0.95156455 0.07780906 -1.2078724
清 1.0780507 -1.141154 -0.032514732 1.233005 -0.22295786 2.311737 -1.7714531 2.0638216 -1.58221 -0.14371122 -0.7570462 1.4152642 -0.44592878 -0.8506591 0.26916575 0.35658258 -0.10419556 0.24059072 -0.1712859 -0.42662814 0.36345977 -1.0715293 3.1373823 0.931371 0.98483974 0.2582277 -1.5055223 -0.8766164 -2.014553 -0.902936 0.56339705 -2.1139421 -0.43721998 -0.47570407 0.83705527 1.5502821 -1.1823043 1.2382371 -2.0921643 2.1112661 -0.73567265 1.7718562 -1.1572176 -1.4869845 -0.19475664 -1.9444302 1.125803 1.5939299 0.3330856 0.26056364 0.48843527 -1.74622 -1.2580789 -0.005469682 -1.390276 1.482415 1.5391757 -0.9635058 -0.57380295 -1.0165333 0.60780585 -0.06785026 0.3743511 0.95864666 -0.13829623 1.881582 0.01796847 0.6501197 -0.054133676 -1.2788482 0.5868777 -0.9009114 -0.45948893 -0.5738009 0.027808955 0.8495536 -0.2226498 -0.24597034 -2.139535 -1.0816374 0.41800237 1.1577994 1.5680747 0.5122908 -1.6770517 -0.574026 -2.0133429 -1.0909759 0.47376642 0.51372415 -1.1305621 -0.18046075 -0.7593918 -1.6843339 -0.1360999 -0.56842077 -0.9336487 0.12115799 0.060404576 2.6588302
异 0.6519515 1.0303844 0.9056197 0.97330815 -1.9899974 0.92797214 -0.3347023 0.635316 1.4266329 -0.86428666 -1.3085871 0.9211221 0.77808803 -0.25530124 2.1869068 -1.5482341 -0.91470766 0.64080906 1.5750673 -1.0628703 -0.2701296 0.92109436 -1.2743156 -0.061723344 -1.214897 0.4385077 0.7311233 -1.7674532 -1.2399685 -0.24414054 2.4144356 -1.3850594 -1.3810245 0.75028545 1.6456074 -2.000697 0.59346104 -0.04395792 2.0293186 0.32148662 -0.5247143 0.30213714 2.131602 -0.35439655 -0.3250379 -1.1141391 -1.5283705 0.09122548 -0.3471326 -0.18624151 0.7103137 -3.198932 -1.8865205 3.1867852 0.1840324 0.61322236 -0.13388872 1.2008221 0.563143 -1.8054794 1.0949019 2.7383893 -1.8071761 1.3056415 0.08949441 0.34416738 -0.6175502 -1.9199909 -1.9739596 -0.59722954 0.9349832 0.82346934 1.232172 -0.34796673 1.9476138 -0.2769582 1.2836723 -0.1098952 -0.24425893 -0.13271032 0.103543736 0.12703276 0.30673453 1.4103472 -0.4602687 0.68938446 -0.2961463 -0.51929146 -0.50608146 0.7893425 0.95611167 2.7747223 -0.0041799466 -1.9715065 -2.1385913 -0.31723803 0.199148 -0.51409817 -0.94956726 -1.3542298
分 -0.780424 0.08491036 1.4049058 1.4915121 -0.18135762 1.3253496 -1.0841781 -1.0413452 0.108568005 0.21678838 -0.6752508 -3.7408369 -0.30648777 -0.7112276 -0.1077003 0.11011396 0.6395073 -0.22176656 -1.1122452 1.5698824 0.39887452 1.6681565 1.1365254 0.5383708 -1.0528904 0.39191848 -0.3068675 0.74962395 0.7695103 0.80828756 1.1241534 -0.34461662 1.3090084 -0.42865914 -1.2895852 0.11411848 1.2064496 -1.6195228 -0.79384583 0.8757998 -1.1706789 1.3844963 1.008387 -0.94734216 -0.5526776 1.3177148 1.2198472 0.19092044 -1.1526797 0.04131948 0.65449387 -0.7303021 0.15760538 1.0459652 1.5058247 -1.0005535 -0.99695826 0.111609094 0.5577221 -1.5350028 -0.5770007 1.1941682 0.17859696 0.339513 -0.19970581 1.3289586 0.42285335 -0.7433123 0.9007937 -0.17615981 2.7569008 -0.16409576 -1.8336898 0.0426906 -0.0261103 1.0219661 0.5954642 1.8978239 0.30106375 0.68677986 -1.7098581 0.37825269 0.31609097 -0.24475768 1.3014702 -0.14525993 -2.2344115 0.005791377 -1.2868462 -1.1409025 1.422691 0.069788575 1.276913 -1.6436135 -2.009896 -0.11111376 0.72880113 -0.3687678 -0.2091545 -0.06076509
肢 1.951714 -0.32222867 0.060309764 -1.9542747 0.17712352 -1.2901963 -2.5159807 -2.1535327 1.9058125 1.1141807 -0.22304903 -1.0707806 0.22953647 -0.2551848 0.030997766 -1.0632896 0.37691548 -0.59603035 1.6626775 -0.6202308 -0.24549878 1.0550708 1.7203879 -0.8754877 -1.6686925 0.26734045 -1.7063361 -1.3948077 -0.13176891 -0.8238008 -1.1979685 0.44805542 -0.24003102 -0.86617535 -2.118937 -1.1672522 -0.85495055 -2.4511297 -0.57205033 2.1390269 -1.3467077 -0.35838082 1.3513658 1.2236534 -2.0023272 1.1846545 -0.6112962 -0.07113175 -0.20721114 -0.31461808 -0.7177857 -0.93125635 -0.62774473 0.75822973 1.69627 0.17780556 -0.70256907 0.70913273 0.4070762 -1.4740939 -1.2703116 -0.1753295 -0.9851565 0.5417358 0.3582199 1.3520696 -0.13733591 -0.25539836 -0.5253073 -0.4262553 -1.0447978 0.2682736 -0.74845016 0.5425126 -0.57292485 0.84323347 0.70734715 0.15744011 0.017591637 -2.3765442 1.5587734 -1.1768175 -2.9643352 0.8820052 1.4483294 0.85658205 -2.98633 -0.62786645 -1.3881086 0.93093115 0.603556 -0.17218389 -0.618753 -0.06672428 0.31699452 2.3776357 1.7245966 1.1048071 -0.5476588 0.046708405
便 0.7144647 -0.20855342 -0.16956276 -0.7515154 -1.0960549 0.55309504 -0.5017871 0.92544407 1.2968194 1.9569554 0.42883223 2.6072407 0.3245295 0.3987232 1.5551848 0.21403632 -0.74644357 -1.0382274 1.5824791 1.4964439 1.9128085 2.1661768 1.1380064 0.403876 0.42440376 0.17156483 0.37864405 -0.95192945 -1.2367411 0.7483616 -0.25029573 -0.25491288 -0.8835267 -1.1451243 0.14185531 -2.1771545 -0.39689246 0.7801832 0.30523 0.29926786 1.4487637 -0.3058226 0.15861438 -1.3782487 0.91925657 3.580969 -0.40387005 1.4292973 2.9569688 -0.25130594 2.2509184 -2.3039696 0.45659673 -1.5136635 -0.32718453 2.716662 1.5802507 -1.614777 0.8132747 -0.1782864 1.7908117 1.6789036 2.6350117 0.7618892 -0.5422043 0.8790779 0.34986016 -2.0435433 -1.036347 0.9728487 2.4013684 -1.0960126 -0.6058225 1.0797105 0.278345 -1.2028899 -1.816725 0.86108977 0.4559411 1.1559699 0.16424012 -0.4859598 0.012236361 1.4965475 -0.010210326 0.41166297 -1.0300239 1.0810795 -0.07873554 2.6381624 -1.5943943 -1.2168543 -1.4174535 -1.3047271 -0.8664165 -1.5581217 -1.5717965 0.45254716 -2.184364 0.3806472
胀 0.20590289 0.9507191 -0.09898299 0.56664366 -0.6068369 -0.84244347 -0.43477163 2.1890674 0.9716522 1.1327701 0.33839813 0.50755876 0.36363012 -0.26796755 0.14137687 -1.2476507 -1.9195454 -0.085651696 -0.9798043 0.111599624 1.9517201 1.3411229 -0.091621585 -1.8767924 1.2382299 -0.4462312 -0.29071185 -0.23976052 0.3674867 0.9101395 0.42484036 1.341334 -0.9419824 -0.16831252 0.2980526 -0.6356841 1.7886702 -1.1419529 -0.4443293 -0.013153209 -0.43137667 -1.2725669 0.24355884 0.5994572 1.1923229 -0.72489357 0.16611381 -1.6611501 -0.5875633 0.68627864 0.07797148 -0.8315017 -0.29788512 -0.64518017 -1.077239 0.12520847 -0.057436027 -1.1218209 -0.23327467 -0.4339392 -0.77046007 -0.41592774 -1.0571711 -2.9732618 -1.3080723 -1.9692744 -0.18452808 0.6787632 -1.3669587 -1.3662401 -1.0887104 -0.9701844 -1.6243136 0.016409058 -1.6701852 -1.2488204 1.2359041 -1.5705978 0.9294424 0.745985 -0.82863164 -1.1436323 -0.8302497 1.6170485 -0.9500325 0.1103533 1.3778012 -0.19341178 -1.1235921 0.6481896 -0.23800957 0.30991054 -0.20001507 -1.7138611 -0.12332109 1.4524261 0.8994744 2.22386 -1.8776302 0.21818766
右 -1.7174225 2.101708 0.090079844 -0.17016342 -1.1983639 -1.373348 0.99499357 -1.0954459 0.24940677 2.0185165 0.25241652 -1.9459615 -0.45845675 1.5997742 -0.73731333 1.2945749 -0.92483044 -0.15965962 -0.15400624 -1.2343864 0.786938 0.18257211 -0.13362852 -0.92163473 -2.0152628 0.9080683 0.44331142 -0.55420816 1.4500532 -0.1353828 -0.8817966 -0.6403502 -0.49553314 0.08514106 0.5740779 -2.0820045 0.58695215 -0.9859059 0.62139875 -0.8605224 -0.67118627 0.29284438 -0.045786068 2.2093475 -0.5741101 -0.20126246 -0.31589785 1.0626428 -0.80293 -1.5837044 -0.35833287 -0.9668897 -0.60144335 -0.088414796 -1.4917499 -0.74457175 -1.0883595 -0.25786558 0.43202257 -0.14358588 -0.4003562 -0.32031673 -1.0082079 0.541894 1.5635648 -0.051226374 0.05774267 -0.06788063 -1.1437591 -1.1328167 -0.5918579 -0.09967277 -0.5062782 -0.8101965 -1.078178 0.6390913 2.0038998 -0.37848178 0.3310179 0.28554085 0.09657151 0.053435802 -0.83446085 0.06116311 -0.95820606 0.7697947 1.2779506 0.3402535 0.66011846 0.08061447 -0.84107846 0.073626414 0.14628737 -0.59089535 1.759392 1.0047643 -0.8523641 0.72282237 -0.40734673 -0.17394936
肌 0.8039092 -0.40515012 -3.0616996 -1.0860217 -0.9172529 0.09529964 -0.9630309 -1.5683905 1.2808224 1.8057863 -0.21213083 0.29712394 0.09461308 1.0908378 0.27363658 -0.9064052 -0.14045414 0.16726561 0.070913635 -0.29036483 0.94478357 2.005589 -0.912318 -1.1625454 -1.2884469 0.6801027 0.52195174 -0.5237448 1.6722825 1.4250988 0.7862258 0.03519157 -0.9036914 -1.5565498 -0.89028925 -3.2075841 -0.9374036 0.20586036 -0.79488164 1.8405517 -0.78020453 0.18386655 0.7476832 1.9990788 0.4437283 0.35686848 -0.3796027 1.4384229 0.3597083 -0.4025922 -1.1622331 -1.0172971 -0.3227823 0.3741436 -0.3294078 0.8928115 -1.4369577 -0.4958353 0.87815315 -2.3236442 0.6501468 -0.4448082 0.89528966 1.429156 -2.16254 -0.84473974 0.6710999 0.46202433 1.1736245 -0.13387886 -0.5299163 -0.40217552 -2.2699587 0.3588823 1.0445182 0.96557605 -1.1065946 1.0000252 0.9349874 -0.39043534 0.20986007 -0.20383291 -0.94384795 1.2104189 -0.7078992 -1.8003763 -0.4056778 -0.16682358 -1.7210983 -0.16754012 -1.0331078 -0.8730203 0.5389419 -0.51135015 1.2388773 0.825048 -0.18611942 0.15068401 -0.37604007 -2.1667423
口 -1.8836198 1.1138316 0.892918 0.7421362 1.1211783 0.036936875 -0.768634 -0.9129819 -0.47320515 1.0205173 -1.7104797 -1.8272412 -0.2864589 -0.17179094 0.1473698 -0.7748417 -0.87387896 -0.507968 0.89435315 0.9420009 -1.9613805 1.2230147 -0.12788393 0.3664544 -1.129235 0.48847625 0.8051548 -0.6872989 1.4267008 -0.97497606 0.6285394 1.954685 -1.580581 -1.3920987 -1.7999433 -0.54054123 -0.18320894 -0.14281249 0.09751653 0.4974076 -0.10527255 1.2730685 1.0023843 0.05423197 -1.3993125 -1.5271333 0.0927398 -1.5927662 -1.7867199 -1.3969845 0.3621759 -0.0012948797 0.30609614 0.75254935 -1.8767117 0.20439807 -2.0121489 -0.9850625 0.049838893 0.810004 -0.71270865 0.14254887 1.4470232 -0.5206006 0.2660578 -0.7666603 0.116410315 -0.13698621 -1.3291472 -1.3680807 -0.12230822 -0.7058128 1.2672837 -1.3850576 0.019460741 -0.048925173 0.26705962 1.2541928 1.0661165 -1.3497967 -0.03320604 1.2506853 2.0882413 1.5246006 -0.15059416 1.0372018 0.6480132 -1.5159049 0.17368972 1.5006646 -0.32903153 1.0334204 0.16983265 -0.93521285 0.24900895 -0.10941363 1.9127498 0.31470084 0.3534403 -0.20469615
阴 0.50001174 -0.025465451 -0.83740425 0.88612014 0.6202561 -0.30167702 0.35928634 -2.4069266 0.8021723 -1.6959534 -1.5001974 -0.29179162 0.47738516 -0.44183403 -1.7955251 -0.52170235 -0.4033726 0.70651937 0.16533817 -0.45495838 0.9420188 0.6071799 -1.2210673 -0.6830607 0.07944388 1.5117332 0.71538305 1.1495819 0.9955496 -0.83876616 -0.42156065 -2.4006498 -0.5408149 -2.1585064 -0.96619487 -0.12208665 -0.6460063 -0.75107807 1.0936204 0.3638444 -0.05877576 0.12901756 0.694627 -0.5240734 -1.5433594 -2.0868585 -0.3340398 -0.12845257 -0.8817689 -0.20302989 -0.8412488 -0.5924992 -1.707025 1.1536405 1.0588349 0.64032596 -0.97033346 -1.3310555 0.53535813 -1.0493497 -1.2285463 -2.1342797 0.40909186 0.24465586 -0.92851865 0.62032324 -1.2335991 0.9214328 -1.1293247 -0.23173144 -0.7165011 -0.9176718 -0.71572757 -0.14517727 -0.3092825 -0.9980665 1.1617639 0.52532524 -0.6828782 1.0714716 0.6908227 -0.2068776 0.25765064 0.6994136 0.47653842 -1.065966 -1.0981318 0.7837285 -2.4421296 -0.5980753 -0.58738005 1.3324968 0.8420301 0.2203535 -0.10367573 0.6383098 -1.3149232 0.95575064 -0.27996674 0.5692238
叩 0.48278767 -1.366597 -1.1178979 0.5085934 -1.7956573 1.856202 -0.13310808 0.4278929 0.5429358 -1.631186 -0.3717394 -0.61729985 -1.2688997 -1.675585 -2.4645422 -0.7085359 -0.01184506 1.598068 -1.9211875 -1.3099716 0.49824968 -0.20323926 -0.33734712 -1.0241483 -0.23283467 2.4877315 -1.2553526 -1.4920353 -0.06328432 -0.05425583 -1.3115407 -1.905203 0.043799274 -1.8754479 1.3074977 -0.7217218 -0.14764138 0.3347141 0.7805732 0.5977471 -0.2901892 1.3190618 1.1798528 0.3932583 -0.5493773 -2.2557495 -1.3392272 0.78492224 -1.5463778 1.0707853 -0.8115672 -0.8586347 -0.53246707 1.7943827 0.06928038 0.026278576 0.15427749 -0.7749151 -2.6445386 -2.693306 0.43261743 -1.0251648 -1.5594968 1.3120098 0.100920096 -1.6043284 -0.76788497 -0.8854856 -1.0110458 -1.3803289 -1.755224 0.31490293 -1.1260946 0.0030967698 0.49017993 1.0593932 2.0447564 0.5339428 -1.042344 0.77516127 -0.34545124 -0.9542532 -0.9162311 1.3278966 -1.3186431 -1.2333751 -0.9296156 0.91477686 -1.6594262 -0.66620433 0.8370206 -0.58070666 -1.6563399 -0.9178557 -0.8128668 0.49325016 0.3333178 0.7331064 -0.726007 -0.075495236
头 -1.3652128 0.8029794 -0.95709705 -0.32431307 -0.08978578 -0.18597034 -0.9057548 1.8260703 0.9216137 3.104732 -1.2711027 -0.62763697 -0.555288 -0.39065155 1.3505188 -0.07009575 0.9377242 -1.3298267 0.5933329 0.48869342 -0.72547776 1.9440506 0.9441113 -1.1419566 0.99796337 0.6236373 -0.1882024 0.17075554 1.2243596 -0.5644692 0.31592378 1.1728368 -1.7966955 -0.0075114425 2.297884 -3.155144 1.2872971 -0.41347158 0.3665922 1.2325314 -0.37350416 0.64546263 0.6082007 0.44662556 0.26220495 2.0417469 0.040082656 -0.19898465 1.4676852 -0.076352894 1.9668145 -0.31655294 -0.6332403 -1.7189188 -1.3100985 -0.95626897 0.8862662 -0.88743687 0.28413916 0.11198163 0.6471925 1.0100816 0.48844054 -0.50831 -0.3351908 -0.6901972 1.4634793 -1.6252619 -0.7616326 0.21109933 1.8049259 -0.7726261 0.60133696 -0.09071507 0.28552848 0.113674074 1.0677074 1.688326 0.289271 0.46393695 -1.261456 -0.27060977 -0.14655791 0.13479109 0.12653798 -0.66409564 -1.0924956 -1.6473265 -2.582055 1.0041049 -1.4536482 -0.103213936 0.09187227 -2.09403 -0.26358426 -1.1143686 -0.7604498 1.245969 -2.4395354 -0.32073805
肠 -0.4693553 -0.53666365 -0.9336492 0.7717874 1.0022969 0.81443125 0.69135714 -2.694806 0.3439861 -2.6781907 -0.74391407 0.82771707 1.4179779 -0.231376 -0.7639363 -1.7796026 0.8718631 -0.65074104 1.3229034 -0.18064326 -0.26502565 0.9004869 -1.1614602 -1.0478605 -0.47843662 -0.19838466 -0.29002523 -0.5982186 0.41297626 0.8643884 0.122781046 -0.85234284 -0.99980885 -0.90190697 0.51656127 -1.0717056 -1.9000956 1.377798 0.6301054 0.42277187 1.1098411 0.13343537 0.7822572 -0.86485875 -1.5290216 -3.5824516 -1.0700443 1.3402395 0.1122818 -0.36054283 -0.31144762 -3.3006246 -1.4684701 2.6361933 1.8271123 2.357883 -1.1590942 -0.0014272579 -0.056439757 -1.0532016 -0.10895038 -0.071131125 2.8959486 1.3535032 -1.122296 0.25884303 -0.89428663 2.6223135 0.29987758 0.02954099 -0.1556434 -0.7842542 0.5760701 -0.4208862 1.073737 -0.92995435 -0.97608984 0.09285758 -2.5811331 1.5314775 -0.49231112 0.14661582 -0.65469676 0.9629052 -0.6690577 0.002260766 0.38068676 -0.81059027 -1.0210432 -0.038677227 -0.49357948 0.57052267 1.1748962 -0.86268276 -1.4884737 -0.8653494 -0.31840926 -0.987008 1.9453977 1.0793886
/ -1.4480392 -0.21868804 2.1402729 0.44337997 0.29939497 2.0544252 -0.51550436 -1.6729887 0.20265616 -1.2194178 0.4069395 -3.4284434 0.6360961 -0.79122007 1.176537 -0.2908786 1.5967795 1.2967876 -0.9840861 0.5950984 0.87011296 -0.20768327 1.2463439 1.1516647 -0.9955701 -0.17074786 1.3813472 1.5687821 1.142049 0.05150134 1.157882 -0.6226896 1.5364304 -0.52243334 -0.14938317 0.9668468 1.3889155 -1.6817647 -0.69927615 0.21121873 -0.8185277 0.85051376 0.13723868 -0.8881507 0.88748 0.8035985 1.5679786 0.6834644 -0.45584613 -1.0569288 -0.7450525 -0.6089705 1.1829023 1.6683838 2.2132235 -0.0855712 -1.1117909 1.1400266 0.33980337 -1.2098094 -0.4646303 1.5536561 -0.34383136 0.61602855 -0.5833336 3.238836 0.2487188 -0.66603804 2.018392 1.3395735 3.458264 -1.1058373 -1.2416427 -0.3915489 1.5378561 0.056607295 0.29761225 1.6493323 -0.642987 -0.27737096 -0.17953873 0.68517977 1.6024007 -0.3949545 1.4997835 -0.2228952 -2.1847074 0.7793442 -0.022041496 -1.3355902 0.28685427 -0.51424176 1.5444428 -0.48675328 -1.7733853 -0.86909497 0.88234216 -1.4739513 0.74364525 1.1504219
出 1.0590621 1.3761945 0.93729 1.1981124 1.6192983 -0.91075563 -1.0912957 1.4083512 -1.3580942 0.66843593 -0.8628653 0.26805666 0.9834904 -0.7957003 -0.444338 -0.5080497 0.45346624 -1.3191222 1.1096014 0.15451248 -0.08212279 0.09083899 -0.47282475 0.8599381 -0.99556506 -0.15941544 -0.97028977 -0.37147045 1.2940718 -0.58399796 -1.0972227 -0.4553982 -0.5213143 0.14216527 -0.8770756 -0.55557054 -1.0974642 1.3531848 -0.31330478 -1.3316307 0.9699276 0.6708792 -0.13196288 -0.3285803 -0.9379964 -1.9468251 -0.120026335 0.9247337 -1.2098426 0.85151863 0.3203975 -0.22762391 -0.89858866 1.8470848 -2.3408084 -0.5700197 -1.5303808 -0.5699309 1.5413108 1.1721833 -0.35086763 0.2611841 -0.8779029 -1.042002 -1.3264643 -0.524496 -0.4269569 -0.84230375 -0.355457 -1.2770253 -0.74937195 -0.22618648 1.2270873 -0.0845342 0.76244825 0.65588546 0.9267647 0.0661945 0.14930291 0.28855824 0.47036606 0.6203315 0.14677837 0.33991268 0.48077163 -0.76851 1.4087298 0.46397886 -0.3853639 -0.40519577 0.49330488 0.30520755 0.64073944 -0.71058935 0.66055423 0.57496214 -0.812174 0.23878136 0.370449 -0.30235848
闻 -1.2257441 -1.5573605 -1.7057185 -0.2769119 -1.0551574 2.4749603 -0.6557252 0.1218216 -2.1215806 -3.2387705 -0.3220377 1.078371 -0.7941998 -1.8686445 -1.2048469 -0.17367373 -0.3106166 0.48495653 -0.10057826 0.46014777 0.10012928 -1.3261918 -0.5651186 -0.28088528 -0.13353823 0.10386407 -1.4147203 -1.4121267 -2.81311 -0.13305631 0.2697711 -3.0693495 1.3448584 -0.12406536 -0.18247378 1.6661773 0.43201005 2.3141236 -0.8913224 1.2575994 -1.855187 1.350658 0.27405477 -1.7561997 0.5922487 -2.5418253 -0.26671192 0.21871282 -0.020872196 1.2905809 -0.3247568 -1.3000712 -1.7365441 3.8152583 -0.5615365 0.8893099 0.56920236 0.14910339 -2.080531 -1.6334043 1.302551 -0.6999987 0.41757315 1.3893137 -0.8958215 0.74000347 0.2736917 0.3626121 1.4645702 0.37380973 -0.7305539 1.1374185 -0.44858375 -0.11299865 1.5474056 0.6688494 -0.5234188 -0.5661071 -3.1770465 0.76909953 0.6728797 0.41102538 1.2591466 2.8720543 -1.5202284 -0.27475268 -1.6046975 -1.0886818 0.21044797 -2.2011483 1.6651706 0.35298184 -0.11353003 -0.8203394 -1.0312779 -2.7517529 0.6347809 0.054721583 -0.42994216 2.135951
下 0.2057587 -0.27219105 -0.6613815 -1.1691749 0.98840475 -0.89520806 -0.92746145 -0.22966412 0.9965388 -2.8365762 -0.9873555 1.386191 -1.6660204 -0.6251695 0.77266824 -0.09730762 0.25665554 1.0902513 1.265422 -2.203967 -0.45210552 1.6488484 -0.6667666 -0.4473402 -0.20541319 0.9983305 -1.8766321 -1.3301159 -0.72978705 -1.1486311 -1.2812618 -0.009742388 0.84609956 -0.2970608 -0.96385145 0.025897823 -0.483227 -1.3478124 -0.923699 0.4891381 -1.3693453 0.7764247 -1.0569113 1.5625353 -1.4523913 0.7157589 -0.90551585 0.25429976 -1.6832707 0.2763696 -0.95270705 -0.8145181 -1.1606733 0.41969004 0.4707898 0.2269594 -0.21036623 -0.49357805 0.29362214 -2.3547883 -0.38802913 1.3585982 -0.04000998 0.8454229 0.66608727 0.28016207 -1.1447473 -0.4012962 0.554689 -0.97634995 -1.653806 0.5351421 -0.28436252 0.22481324 -0.77589816 0.6558318 0.81332445 -0.018871289 -0.30308968 0.7309798 1.1709908 0.604624 -1.7823797 0.8016446 -0.424803 -1.018991 -1.0875971 -0.40790328 -2.3156307 0.9470045 0.15467793 1.1719254 -1.3877261 0.20154993 1.1508052 0.1906635 0.5069344 -0.46354133 -0.52504325 0.10438893
对 -0.15142135 -0.97393453 -0.37089753 -1.1206548 -0.27492282 -0.97113955 -0.5952955 -0.28636488 0.3022235 0.6225559 -1.9599235 -1.18086 -0.35997435 -0.68565375 1.1534728 -1.7278095 -0.5539679 1.4466122 -0.7194421 0.2967941 0.36497426 -1.8162515 0.45790455 0.35039818 1.7541288 1.9134324 0.76397586 0.9747133 2.109478 -2.124566 -0.710913 -0.77706504 -0.63113546 -1.0852803 -0.65000194 0.44581026 0.07552447 -0.8925844 2.4036038 -0.59214544 0.44005805 -0.14913033 -1.2163942 -2.0290902 0.2555219 -0.66854227 -1.5652809 0.48732004 -1.3530896 -0.009845536 0.57450074 0.078353114 -0.65047693 -0.08131496 -0.7215277 -1.336077 1.3043314 0.10688339 0.26231802 -0.3131172 -0.53150874 -1.1042278 0.34315526 1.6753185 0.10461378 -1.9231786 -0.5776083 -0.08627477 -0.66899663 -0.42613056 1.3608449 0.5807351 0.1724929 -1.7042633 1.090954 0.10332075 1.8279027 -0.88030297 -1.2485111 0.27442798 0.57277644 -0.24471971 -0.22216526 -0.7019932 0.92033315 -0.013160208 -1.2977723 -1.0108999 -2.0193486 1.2929344 -1.3267686 1.4987102 0.7610476 0.27709082 0.12112299 -0.054119837 -1.1323148 -1.0019572 -0.4348159 0.6439969
好 0.50541085 0.17228018 0.15168692 0.82786846 1.4270996 0.2789881 -0.28180426 2.9629984 -1.3699881 0.9751739 -0.15194964 0.7668387 0.07453257 -2.07984 -0.55264205 -0.02271207 0.56212 -1.5080365 0.18832245 -0.6480658 -0.62522036 -0.014678611 0.3206053 0.19183221 0.32783815 -0.4602596 -0.39669567 -1.1140476 0.12689114 -0.7075511 -0.5006369 0.4151673 -1.5533835 -0.3479609 0.7844627 0.30792984 -1.130585 1.2138575 -1.5889715 -0.0777719 2.8578043 0.16263157 -0.03521068 -0.48206016 -1.7316756 0.3721435 -0.7803788 -0.35610196 -0.97135866 -0.685604 0.4768333 -0.7128535 -0.5045523 -0.005961437 -1.0925249 -0.3667665 -0.86291164 -0.9060267 -0.19708253 0.72990817 -1.0428466 0.55796105 0.44532388 0.21572086 1.8100314 -1.0638518 -1.0097598 -0.7147242 -2.117936 0.41939437 -0.27302846 0.40071833 1.6422405 -1.2205701 0.1319438 -0.2663557 0.48671833 1.0472453 1.6618057 -0.4405855 1.131334 1.4845885 1.2063247 0.5492841 1.3735436 -0.13418552 1.033456 0.6098534 0.6858783 1.3704035 -0.814573 -0.8101636 -0.33919758 -0.5938189 0.881807 0.7162487 -0.9835804 1.6206404 1.2418246 -0.55891055
形 -0.09006252 0.8601273 2.281712 -1.1523863 0.40008426 -1.2491363 -1.2201349 -1.3590324 1.3050212 -0.6285533 -1.5329738 -1.2640201 0.07625077 -0.18880303 1.3391519 -2.5682383 0.12312591 -1.0166006 -0.2171006 0.06561821 -2.2360153 0.8594683 1.7376194 -0.70295644 0.8130389 1.2199419 1.3431233 0.23172984 0.34856096 -1.3072239 0.3766269 0.92915154 -0.8095009 -1.2383915 -0.8882988 -0.7746313 1.0306926 -1.2101914 0.7893234 1.3962858 -0.9172953 -0.52893054 1.336336 -0.32768226 -0.32598943 1.1245911 -0.33312067 -1.2373317 -1.1210343 0.19526586 0.34258312 0.30652523 -0.52325505 -1.9480219 2.4000247 -1.2829103 0.34584606 -0.7265949 0.78755254 0.14031342 -1.4255066 -0.6690863 -0.7099369 1.1756996 1.4518454 -0.67024624 1.5265582 0.598308 -1.8716313 0.35747397 -0.9565683 0.58076143 -0.6903465 0.26412714 -0.95997465 0.46409962 -0.16274592 -0.6065813 1.7442858 -0.25725985 -0.14667201 -0.78979117 -0.13718991 -0.2636714 0.6914363 2.5315905 -2.1322708 -2.1548467 -2.253064 1.4035512 -0.6835681 0.6029002 0.4328297 -1.8627651 -0.6359252 1.3216456 2.687633 0.71621 -0.2681468 0.35208243
大 -0.023496138 -0.15292202 1.575383 0.8649247 -0.12958921 0.003832718 -0.723132 0.8562842 0.3719741 1.7975835 -1.803273 1.6075225 0.4754032 -0.46814987 -0.1042475 -0.24219373 -2.67079 0.9402602 -0.636693 0.59322834 1.6896397 0.8083345 -0.38238618 -0.8533558 0.8191477 -0.6973467 0.28153843 0.70986456 1.1967283 -0.0943913 -0.68155825 0.8338586 -0.096093886 1.6483437 -0.7121621 -1.0073546 0.6432728 -1.9422182 -0.14161904 -0.15580569 -0.43212 -0.63762265 -0.43559295 -1.5457522 1.2517036 -0.048822697 -0.5257013 -0.5716678 1.6729194 0.7035437 0.6064667 -2.1533234 -1.2454852 -1.9007816 0.46282458 0.9187775 0.51575434 0.620449 1.1313647 -1.2211773 0.68199235 1.495094 0.09674889 0.71730244 -1.9075416 -2.5116763 0.12857515 0.03140948 0.06119374 0.19107582 0.6750466 -0.2445185 -2.6307082 0.8379101 1.2592643 0.11369414 0.38973528 0.36305025 0.1462295 -0.1314768 -1.9418455 -0.6792417 -0.017185865 0.13277467 0.015382757 0.9991572 0.34150904 0.56859833 -0.93237984 2.1451986 -0.8292396 -0.09270788 0.14609186 -2.2803652 -0.64671326 0.08330101 -1.0359275 -0.8110772 -1.3070322 0.021406002
张 0.1483469 -1.0859962 -1.97388 -0.15741478 -0.9653117 0.62997097 -0.28723255 -0.78244084 0.55576754 0.18446179 -0.2726273 1.0106093 -0.63149655 0.8834776 -0.085912295 -0.82264495 -0.24571088 0.8063367 0.6330711 -0.7403919 0.03929655 1.3453553 -1.5559527 -0.76255524 -1.0582987 0.8137827 0.20687912 -0.48582926 0.6179217 1.1652789 -0.45548534 -0.3338221 -0.30776754 -1.7450739 -1.146115 -2.49868 -0.7103837 0.41683927 -0.5424677 1.6241345 -0.8468648 -0.07029702 0.49738875 1.4904491 0.06419994 0.18708614 -0.94580257 2.4078054 -0.5114661 -0.47735536 -1.3243719 -1.9193907 -0.44922614 2.0855305 -0.4421445 0.67237324 -1.6144868 0.5061966 0.09028324 -2.0853746 -0.084607154 -0.47398305 0.18906645 1.7313195 -1.7936088 -1.3483002 0.14549872 -0.2068375 0.12902279 0.17800899 -0.06568468 0.14627285 -2.2381883 1.8029659 1.2810986 1.4631692 -0.9039835 1.3237584 0.14226031 -0.23778678 -0.036398392 -0.22261891 -1.2865947 2.7088933 -0.9218765 -2.2693179 -0.57131785 0.597651 -1.8088336 1.0652349 -0.23230042 0.07336117 0.1620497 -0.9861705 -0.17669268 -0.32159194 -1.9317327 -0.019688908 -0.21235508 -1.9738832
精 -1.7479405 -0.32221702 1.0824544 -0.053510964 0.54206276 2.2789664 0.28959373 3.1680534 -1.0191927 1.793969 -0.13254873 1.9474343 1.0441093 0.36395174 2.2597759 0.18508361 -0.10737071 -1.052131 1.0410239 -1.8463916 -1.2832671 0.93497074 1.6838017 0.47960535 0.615621 0.13790901 -2.1259964 -0.14101295 -1.8769983 0.027615068 -0.97025514 1.2326128 -0.9814771 -0.21275266 2.4715035 0.22283626 -0.037852485 0.23066634 -1.3345779 1.8592868 0.23961246 2.0314307 -1.5586656 0.3774038 -0.05451001 -1.292945 0.92226255 0.7134893 0.16777441 0.093825646 0.6670831 -1.0967417 -1.2333987 -1.5644231 0.25404513 1.1320611 2.8807192 0.6483588 -1.2026826 -0.45532754 1.7287804 1.2475246 -0.942722 -1.0575936 1.225143 -0.19520748 0.76977473 -0.5001286 -0.19446902 -0.27563295 -0.4571454 -1.1561236 1.0575312 0.7147906 -2.14732 -1.5475279 0.71711105 -0.2798496 -1.4203272 -1.3211517 -0.7194428 -0.06019203 0.97906876 0.8402535 -0.530392 0.11034622 0.8497182 -1.2574617 0.56888175 1.3786027 -0.955742 -1.8419939 -2.4825287 -0.16342737 -0.7979016 0.34669304 1.2032566 0.1520605 -0.31096324 2.255155
发 -0.6284514 -0.8806649 0.11584278 1.3025938 -0.09120835 1.9766684 -1.4843816 0.8775995 0.11433229 2.4064062 -0.93735456 -2.1921904 -0.33573404 1.1070341 1.8269259 0.25819796 0.09618985 -1.106976 2.2880237 -1.6997503 -0.51437515 0.13522397 0.84785885 -1.2339512 1.1497939 0.08132205 -0.1228591 0.17553486 -0.3407694 1.4011954 -0.75979346 -0.93456566 -2.5825622 -3.0143042 1.9743104 -1.517009 -1.9717926 1.0922874 -0.47982442 -0.14841306 0.8414401 0.6409601 0.24044071 -0.59528524 -0.73977107 -2.3245826 -0.76624286 -0.2203612 -0.7184627 -0.3014145 0.6466066 -1.5171317 0.987859 -0.41171482 -2.7089677 -1.5876557 0.6399808 -1.2048644 0.512782 -1.5697819 0.0020916096 0.09067836 -0.38459194 -0.52367204 -0.3098696 -1.6312985 -0.4849487 -0.635811 -1.2494389 -1.1177008 -0.97446066 -2.4913507 1.7425653 -0.14839523 -0.4928703 -2.562267 -0.41674566 0.024835683 0.6122966 -2.419546 0.68358266 -0.8739226 -0.18229142 1.116466 -0.63393575 2.4106638 -0.09245904 1.0566788 -0.12320456 2.1133783 -1.1086149 -0.95902926 -0.60743433 -0.20159411 -0.82201385 -1.0367829 -0.565118 -0.024111226 0.24333152 0.78208256
左 -0.8770683 2.858938 0.7558545 -0.42368248 -1.3280734 -0.6432417 0.41783133 -1.0851191 0.7729033 0.83974564 0.4669312 -2.066606 -1.3191311 1.2532161 0.0023974662 0.65750784 -1.6888309 -1.3772743 -0.5813754 -0.065458484 0.32472727 1.203124 1.2215084 -0.10189646 -1.0008827 0.20158648 -0.21964549 -0.25053483 2.130537 0.014096956 0.17875867 -0.2879154 -0.41409436 0.98265785 1.1921363 -2.2529676 1.0341468 -0.7513373 0.9537867 -1.4555044 -1.1667658 -0.030570975 0.15116258 2.0251336 -0.46118104 0.267371 0.100786835 0.23623464 -1.0510849 -0.35373464 0.8076365 -0.33660868 -0.5397739 -1.0211767 -0.2752781 -0.120439924 0.5586102 0.1397863 0.64299095 0.5030374 -0.01822414 -0.17114438 -1.4073784 -0.6020408 1.3324987 0.38067687 -0.33098295 0.32083914 -1.577378 -0.950247 -1.598112 0.2025332 -0.6543365 0.8629837 -1.0764939 1.3148565 2.1669364 -1.6970309 1.2424076 0.40946427 0.43893552 0.1265502 -0.97655505 -0.25263909 -1.0770015 1.6106838 0.7941982 -0.6920067 0.17054608 -1.1295341 -0.4497474 1.1601045 -0.22001792 -1.0466316 1.0071815 0.820226 0.4837767 0.66569465 -1.1180698 1.0350595
二 0.48714498 0.33823678 0.56164527 0.4078268 -0.14134365 2.0605807 -1.4315642 0.5581554 0.65671664 2.7116876 -0.51325315 2.6603048 0.2812142 0.21902485 0.74451774 -0.016968952 -1.8159577 -0.40332046 1.244017 -0.6379122 1.3715947 3.0308118 0.105196804 0.8224923 -1.1923274 0.1400033 0.36604035 0.48934367 0.3613399 0.14456512 -0.011644365 0.0061950027 -1.215571 0.16504577 -0.20009698 -2.7710907 -0.7210321 -1.0774784 -1.1515448 0.8610641 -0.037462607 0.069590084 -0.19459423 0.116898894 0.09429209 2.5465763 -0.76862955 -0.29668462 3.855931 -0.0025772203 2.1668565 -2.4376507 -1.3048767 -1.6206567 0.4065223 2.075406 1.1454482 -1.0637408 -0.28826803 -0.93201226 2.6022213 1.2989597 2.7410069 0.11343003 -0.1916757 -0.83170074 0.45771143 -0.5979189 -1.9155719 2.8681774 2.6975546 -1.4162905 -1.8991984 1.5117642 0.48866773 -1.0232646 -1.9537584 1.3995278 -0.7069703 -0.60960734 -0.6957273 -0.9117288 0.521935 1.0038967 -0.8361369 1.5999122 0.143032 0.6229208 -0.58961344 1.9421197 -1.1820766 -1.8306849 -0.59618515 -2.117871 0.07717994 -1.434971 -1.6074914 1.7122703 -2.4017305 1.1909416
射 -1.5841173 -0.13152277 -2.341778 -1.097979 -1.1440246 0.81723285 -1.5638613 -1.5860388 -0.28812045 2.083753 -1.9980478 0.26960197 0.38154575 1.089499 1.0241196 0.043688674 -1.1992662 -0.22252074 1.1310388 0.13699694 1.2409029 0.75206685 -1.6293584 0.66965187 0.30835095 -1.4534725 -0.11386157 0.79254365 1.0491296 -2.4548821 -0.6687946 -0.49553666 -0.19342712 0.8727685 -0.12560125 -1.1070079 0.82822216 -0.2009521 -0.092899986 0.63304687 -0.46747845 0.06374079 -0.49317625 -0.54962724 1.1259677 0.4012814 1.4269205 2.0543885 1.0009311 0.08228976 -0.7965311 -2.2510707 -1.1619122 0.23672344 -1.1168612 -1.1384959 -2.6341834 -1.4524279 2.954638 0.21465398 -0.9415306 0.08720564 0.5020429 0.60686105 -3.301539 -0.9095442 0.05280974 -1.2546237 1.9932238 1.3971937 0.3615229 -0.37078038 -0.06431569 0.7663955 1.6839087 0.893169 -0.5352667 0.6238487 -2.322793 0.95388967 -0.8760645 0.19044945 2.1056366 0.32015628 2.6838398 -1.7014902 -1.17433 0.4299123 -2.5297947 -0.8339988 -0.34843758 -0.09328241 1.9018141 -0.21585402 1.451942 -0.21582583 -1.336609 -0.41329834 -1.8270928 -0.82537645
诉 -2.679238 -0.1701257 0.63594735 -0.2913517 -0.27982834 0.020578051 -0.5410872 1.4639323 -0.066184215 2.3020155 -0.13757674 1.3093187 -1.0954492 0.24850504 0.093851134 -0.073728934 0.4294561 -0.39079905 0.78178334 -1.1475061 -1.4328176 0.36001244 -0.78675866 0.9410813 -0.33180642 -0.7793004 0.54716873 0.09890172 -0.04011427 0.37155592 -1.1707103 0.17833742 -1.835506 0.37022883 1.5826293 -3.0508173 -0.12730561 -0.56213003 -0.9391333 2.2869892 -0.5286664 0.71025133 -0.42829555 0.45288828 -0.48876688 0.27814224 0.3379393 -0.12536514 -0.035205357 -0.6691331 0.4109862 -0.6385123 -1.0098418 -0.32482597 -1.6815231 -0.38870397 0.62351954 0.13944802 1.5990174 -0.74210465 0.29897916 -0.10486892 -1.1888113 -0.76458395 0.049857173 -0.9351365 0.18864703 -0.6183655 -0.88887733 0.82567865 0.3410722 -1.8083652 0.66893923 -0.53272617 -0.32017794 -1.3509635 0.007926344 0.4144472 -0.34048986 -0.6291303 -0.43416288 -1.1901731 0.26416445 -0.09536456 1.3102847 -0.02100246 0.74216527 0.12616232 -0.012858718 0.87680066 -0.74631196 -0.34245732 -1.7259684 -1.0946683 -0.6247909 -0.56564087 0.08304915 -0.46037772 -2.5135686 1.3605732
活 -1.3007264 0.5612352 -0.41199514 -1.1536841 0.62450564 0.1541344 -0.96602756 -2.0403914 1.303734 -0.86276215 0.82097197 1.7145957 -0.66907936 -0.06485412 -0.20497361 -1.7420975 0.4700666 -2.090047 -1.1205778 -1.4282355 -0.10256859 1.9485793 0.89758986 -1.8350999 -0.52786183 1.3964441 -1.0048777 -0.29370803 -0.92579174 -1.1619213 -0.06993548 -1.1671449 -0.8663773 -1.707891 0.8670796 -0.64439225 -0.59067476 -0.9199109 0.8512752 1.5307429 0.10612501 -1.0244946 1.4039006 0.00043017653 -2.3680491 0.67053324 0.09619077 0.026572097 0.1156669 -0.31347618 -1.9135149 -0.20913981 -1.7699528 -0.90626585 2.995062 0.65023625 -0.36214536 0.061927777 1.3592908 -0.20377459 -0.44773898 -1.4430256 -0.09767911 -0.5312972 1.2036574 0.70452195 0.20962109 1.5851954 -0.7095153 0.083615504 -2.6149735 -0.71425855 -1.6154689 1.7137822 -1.3516362 0.17682512 -0.17689286 -1.0320866 -0.7516172 -0.7697038 0.46665668 -1.0680346 -1.6552932 -0.30893588 1.9234301 0.62431204 1.613561 -1.5982506 -0.8493004 0.13861656 -0.7952059 -1.6013466 -2.2948692 -0.7276576 0.49178454 0.95550424 0.064230435 0.9289577 -0.47551057 0.71528584
次 -1.0329169 -0.9504228 1.7537624 1.1132407 0.05050844 1.8164666 -0.71515954 -1.53657 -0.62338305 -0.18774517 -0.13318881 -3.881498 0.4059782 -0.540666 1.4452701 0.42726463 0.45978692 0.9839674 -0.34782356 1.948473 0.7666168 -0.9282917 1.8841814 0.82127124 -0.9004901 -0.9045295 1.5408297 2.0345361 0.9107905 0.08279194 1.9250883 -0.6924714 1.4454504 -0.5969449 -0.24156511 1.2664466 0.60564685 -1.588038 -0.026540639 0.16368991 -0.49861932 0.83228815 0.3719154 -0.8636963 0.6930432 0.38993168 2.0052845 1.4645904 -0.65932685 -1.1590817 0.435086 -1.6621825 1.4811866 0.98577446 2.6781368 -0.33678526 -1.0573336 1.0545886 -0.06481633 -1.6432921 -0.6777887 0.3592102 -0.6155117 0.7916874 -0.3281531 2.8630471 0.88545877 -0.41112188 1.5251821 1.4144826 3.7804668 -1.3451835 -1.3283671 -0.31273252 0.8615931 -0.75708395 -0.6040956 2.0865068 -1.4921372 -1.0427412 -0.72870266 0.78609157 1.987983 -0.68458724 2.0525424 -0.44732967 -2.876083 1.0715235 0.7741783 -1.3984007 0.2471928 0.047132842 0.7444098 -0.082006045 -1.8887467 -0.48120508 -0.15132156 -2.0198958 0.12086161 0.68930125
呼 -0.4755746 -1.6765093 0.40500525 -0.6213442 -0.1944364 2.4954526 -1.8110675 0.9457345 0.005583975 -1.8237026 -0.7232611 0.05709213 -1.0723122 -2.8551342 0.39154854 -0.43318126 -0.12905012 -0.03310339 -0.33141026 0.9109912 1.7815142 -1.8324583 2.4844887 -0.19007345 1.20049 1.1568584 -0.45275542 -0.8439754 -0.53514713 -1.7668537 0.9016178 -2.48572 0.74846697 -0.57075405 0.5230998 3.2880273 -0.3257056 -0.23698325 0.2919863 -0.19692264 -1.3874284 0.3402165 -0.3744954 -2.5853624 0.27500728 -0.8968375 -0.7351872 -0.08398565 -0.32729197 0.9543342 0.8235668 -1.6432678 -1.7003343 -1.3028636 -0.36240172 0.5035269 1.5161283 -1.1756312 -1.0874722 -0.05744039 0.54926085 -0.9846358 -0.7437968 1.3557154 0.3242517 0.816953 0.45432064 0.31159437 -0.19488603 -0.5172078 0.6173097 0.5102676 -0.67769355 -0.24584778 1.8517622 1.4987965 0.13268925 -1.2326086 -2.4847782 0.9596462 1.2307893 0.45367426 0.9053081 0.99310696 -0.7025674 1.2216344 -2.4995582 -1.7303047 -1.0360442 1.4120464 -1.038291 0.71802515 -1.5672575 -2.1108177 -0.2558433 -2.2897968 -0.7600129 -0.09782661 -1.7569132 2.6774728
吸 -0.10983482 -0.74914616 -0.033656392 -0.7119234 -1.123096 2.5873773 -1.8802911 0.80183697 -0.94095117 -3.3183722 -1.0372485 1.0181535 -0.6199328 -2.2298565 -0.35224953 -0.6599276 -1.376709 -0.25432214 -1.6141402 1.3004063 1.1216465 -1.5824422 2.6257486 -0.57224673 1.6274115 1.1004598 -0.2537804 -0.8780684 -1.6901685 -1.8752797 0.75861055 -1.7822468 -0.21719985 -1.5676134 1.369402 3.038238 -0.66309285 0.85474074 -0.48351204 0.32113588 -1.560674 -0.17495625 -0.28262687 -2.4798832 0.7252077 -1.2280073 -1.8248191 -0.8108903 -0.49729046 0.1515563 1.1663436 -2.5521462 -1.6568183 -0.036969837 -0.019323822 1.3913189 1.1840867 -1.2913427 -0.73010534 -1.3918267 0.20683847 -1.0344732 0.22286077 1.5889096 -0.038209006 1.7684431 -0.38431418 -0.3402601 1.0702121 0.35331216 -0.5720714 0.42215356 -1.0115038 -0.24081677 2.1759126 0.8244858 -0.4836527 -1.682428 -2.787617 0.5379627 0.9562649 0.7979238 1.0553112 0.95825464 -0.7622913 0.40340897 -2.80593 -0.5705852 -0.6478394 1.0618393 0.28683195 1.0436691 -1.7268044 -2.456993 -0.071735725 -2.1028945 -0.51605535 -0.1017633 -0.9602081 2.5030797
平 0.8678283 0.60924596 -0.9215491 0.3775602 -1.3793625 1.9163034 0.90892845 0.24000192 -1.1910659 -2.0776975 -0.86193395 0.90997016 1.9920963 0.15469831 0.20510827 -0.57437354 0.20387796 0.049642302 0.7873377 -1.4463708 -0.6357666 0.07592651 -0.65617985 -0.28077653 0.6754341 0.84089804 -0.55809593 -1.3628987 -1.4644116 -0.023371013 2.2855027 -0.5024991 0.015234723 -0.39343598 0.33252245 -0.16490959 1.2469153 1.3780073 1.9382504 1.8473557 -0.72039866 0.5730483 0.94552475 -0.8571776 1.5232269 -1.7009352 -0.13827068 2.1139581 0.76536876 1.0024744 0.4077201 -1.203457 -0.78790367 2.5703974 -0.41145328 1.8535998 0.4899936 -0.20925601 0.2501037 -0.045405623 0.058447234 0.9358966 -0.63790256 -0.44655323 -1.5446889 -0.057876103 -0.14474161 0.38330337 -0.06915558 -1.7375418 -0.35685202 0.01334855 -0.6337249 0.5237511 1.665868 0.52745634 -0.84984875 0.03495203 -1.8337799 1.4615935 -0.6114614 -0.18810157 0.11837116 2.86539 -1.4938966 0.70294136 -0.7597473 -1.4475795 -0.59137434 -1.0179827 -0.44437698 0.9555178 2.7471128 -3.292692 -2.004587 -1.0069515 -1.086935 0.9329427 -0.15470691 0.5393672
块 -0.86688125 -0.6846044 -0.21883027 1.3731283 -2.064378 1.5842909 -0.36433968 1.6770664 -0.8379408 -2.5696752 -0.6431815 0.76487565 -1.0288815 -0.7951971 -1.2244025 -0.7975256 -1.6492606 0.7658539 -1.3881079 -0.37279904 0.972779 1.9936664 -1.844911 -0.64298356 0.35015205 1.270854 -0.73624825 -0.50733066 0.6911716 0.59376025 -2.1025078 0.1593815 1.1812809 -0.67548734 0.16137023 -1.0545467 0.5937103 -0.20621887 -1.4423895 -1.223742 -1.9277792 0.43139783 1.4120111 1.9839305 -0.8892819 -2.9161873 -1.1486878 0.9778105 -1.5529567 1.4243814 -0.73043376 -3.1643152 -0.9931817 2.284624 0.44329584 -0.39091623 -1.5343617 -0.24672577 -1.952876 -3.4087958 -0.16634282 -0.5865823 -1.1283425 2.061596 0.17217532 -1.4311242 -0.48523313 -1.497628 -1.149816 -1.2945886 -0.47310162 0.23967478 -2.1567461 2.8857217 0.617091 0.85528487 0.82477045 1.0787077 -0.56563735 0.122043066 -1.2913121 -1.2367619 -1.0277324 3.2483675 -2.2544713 -3.0821834 1.4247376 1.8724792 -1.232348 1.1345295 1.585723 -0.59156007 -1.8294207 -2.063702 -2.1092606 1.151435 -0.8685196 0.015596603 -0.123728395 -0.24655537
不 -1.4678178 -0.68960977 -0.34354207 0.16671953 -0.39115316 -0.68622756 -0.3675963 2.2604735 -0.24247226 1.3607445 0.95818675 0.8287899 -0.5121595 -0.47646293 0.5487432 -0.5076807 0.09909029 -0.9519011 0.36398074 -0.6150128 -0.08156609 -0.90061295 0.42151335 0.21108153 0.29014558 -0.14291804 1.2150462 -0.1382995 -0.3244304 2.068421 0.26440793 -0.8983304 0.37479866 0.3549936 1.4822774 -1.2506167 -0.6469471 0.57342446 -0.88243955 0.75711155 0.7596513 -0.23816852 -0.31229556 2.1210957 -0.41166633 1.1099266 0.4437655 0.27262166 0.9631215 -0.5403336 1.6962515 -1.9600276 -0.49554756 -0.33743054 -0.019962689 -1.7866819 0.09061981 0.4147281 -0.22437742 0.016193444 0.51867235 -0.57827777 -1.2114816 -0.49465305 1.544654 -0.42985645 1.2456204 -1.153325 -1.87442 -0.5364092 -0.57351005 -0.22935489 -0.23191941 0.16068974 0.9753686 -0.5746417 0.05722384 0.96324635 -0.10909336 -0.45998186 0.48722252 -1.3727216 0.06873658 0.3296777 -0.24520542 -0.45534238 1.6040043 1.2914596 0.7040465 -0.076908454 -1.5218744 -1.4761206 -2.1547003 -0.38638002 -1.3086821 -1.1445216 -0.71551585 -0.047399744 -1.9304242 -0.6733916
0 -1.6343257 0.7334791 2.3225057 -0.5250422 0.33716205 0.5995496 0.22484136 -3.0274913 0.06346411 -1.5360768 1.0149682 -1.6845207 -0.019849528 -1.2204304 -0.5505735 1.6221241 0.96634203 0.55923873 -0.2243499 2.2142026 0.62856257 -0.06456934 1.2349552 -0.13362062 -0.31352448 -1.5483202 1.9000696 1.2984008 0.8835554 -0.05055401 0.6592315 -0.16514692 0.0879423 -0.10391026 -0.7645773 0.93934757 0.788485 -1.9390311 -1.4039475 -0.84936607 -0.69069755 1.6684432 -0.08651065 -1.4289998 0.5265359 0.6864308 1.848445 -0.82420546 1.0047444 0.23212574 -0.645346 0.106647246 2.277633 -1.1675346 1.6486275 1.3025085 -1.4624077 0.47968832 -0.006252678 -1.2742003 -0.6334729 1.2583301 -0.34347627 0.5643874 -1.1342158 2.0858545 -0.15429349 -0.13675527 3.4532108 1.8749524 1.6575495 -0.97422326 0.3056499 0.10572591 1.0866957 -1.35891 -0.61461747 0.23384899 1.2483728 -0.0048176516 -1.1364932 0.61877215 1.6785798 -1.5286981 0.831247 1.2996969 -2.2918487 1.1385759 -0.62389636 -1.3952633 -1.2235427 0.24030843 1.4825453 1.9004214 0.37057948 0.90432817 1.4237664 -0.8916186 2.3772776 0.3339702
胸 -1.8309406 -0.31297335 -0.48306718 0.44212657 -0.63782835 0.26806155 -0.35675928 0.14055963 1.2011666 0.45569134 -1.2323624 -1.219527 -2.2803862 -2.3525853 0.5355599 -0.011533016 0.19957599 0.25586858 -0.4604735 0.67007273 -1.0954424 -1.0187124 1.0168644 -1.1491894 2.1601052 0.20282182 0.7761719 -0.44438863 0.7607013 0.077772886 0.75289124 0.49665463 -0.39355934 0.065280564 1.6688615 -0.4106513 1.6379436 -0.6196463 -0.2569944 0.6817817 -1.096226 0.44311947 0.07561208 0.504116 1.0025314 -0.22073674 -0.9389742 -1.6141554 -1.6729184 0.15227713 0.8359293 0.23318201 0.16659692 -1.8316689 -1.0880692 -1.8066633 0.8404071 -0.5512455 -0.96838355 -0.5242886 -0.2550093 -1.9596013 -1.6191308 0.1895762 0.20977966 -0.18756461 -0.09307489 0.6226475 -1.6380297 -0.3401342 -0.7117658 1.7579724 1.0021307 -0.23216045 1.44491 1.5201584 0.7039807 0.06319322 1.0922238 0.64151293 -0.28311577 0.20202295 -1.4127113 0.9077952 -1.0158322 0.12082872 -1.082448 -1.6323005 -1.8488132 0.3319392 -0.6655748 0.82311493 -0.35799846 -0.9949426 0.39101213 -1.4441284 0.9221308 1.1633421 -0.16431105 0.3307985
软 -0.7077662 0.6647818 -1.3776836 -0.5404901 -0.13342698 1.0979497 -0.26074955 -0.56464183 0.06684584 -1.9311484 -0.5214167 0.6427346 -0.13344663 -0.3651255 1.5357915 -0.85297865 -1.188427 -0.5450878 0.06451167 1.0379719 0.013993445 0.90107554 0.37183598 -0.2570748 0.92510074 0.041278943 1.1484007 -0.5135783 0.4236634 -0.7781908 0.49699786 1.2979677 -1.2601925 -1.0044994 0.5255321 -0.3927764 1.0599827 0.2200259 1.1034117 1.2550309 -0.38801432 0.42777723 0.39166006 0.079334065 0.08462872 -3.0208187 -0.88349366 0.22545554 -0.7605017 0.962735 -0.03477722 -1.5694522 0.15612644 1.1853627 0.45981857 1.1581498 -0.05247908 0.09963751 -0.4750819 0.14494082 0.103648186 -0.41310316 -0.54780424 0.27642763 -1.4175078 -1.2926954 -0.07806139 0.7013389 0.6547948 -2.1849017 -1.5860318 -0.03003593 0.17211352 0.930703 0.24422981 0.3807179 -0.31089947 -1.5981745 0.0007279588 0.49078098 -0.16401176 -0.69993234 0.5664936 1.4106797 -2.162664 0.5927309 0.063831545 -2.8365738 -0.87813276 1.1723965 0.04195667 1.3676325 1.2698568 -2.0052087 -0.8133124 0.54178596 1.0964829 1.0775398 0.29902488 -0.043554656
切 -1.7440683 0.7311139 1.0652002 0.11979469 -0.09476989 -0.7396056 1.0142962 -1.0122195 -2.0336545 1.1247414 -0.344717 -0.042964745 0.61246216 -0.9286239 1.087459 -1.4458945 0.17187156 -1.0090098 2.334993 -0.40472305 -2.688979 1.5621581 -1.1773074 0.39232954 -1.0840341 -0.26797524 -0.2848044 0.96185744 0.07565406 -1.7975619 -0.027754158 0.4129949 -2.4673169 -0.9511743 -1.0266432 -2.1564336 0.2758845 -1.3831537 -1.442006 0.7876211 0.40019375 -0.60750616 -0.18610919 -0.80899477 -0.62222046 -2.8034508 -1.2511969 -0.38204575 -3.0670247 -0.35170192 1.5093049 0.058193333 -0.28082567 0.45168954 -0.9294749 -0.8347682 -0.46260744 -0.11751174 0.33772227 -1.1823337 0.34570605 -0.6657852 0.10460387 0.24261515 0.18980172 -1.4698591 -0.1016491 0.35089347 -0.60381204 -0.17665459 1.0079594 -0.15958337 2.5688462 -1.5039992 1.4221516 -0.6864667 -0.8048526 -0.737038 1.0680434 1.0167499 -0.33705848 -0.28220692 -0.74556625 -0.5311842 0.1865187 -0.14273071 0.6702017 0.005568893 1.6526105 0.3372462 -0.56749696 0.7948447 1.137606 -0.6689531 0.60201424 -0.17372678 -0.5143765 0.22528057 1.5965713 -0.6768432
食 0.7047064 -0.45684293 0.09148186 0.24522185 -1.1869305 0.34530297 -0.18589117 0.9125744 -0.26812267 3.210021 0.8673817 2.917013 0.39291772 -0.24341208 1.7228361 1.0476809 -0.8839359 -1.842773 0.51332164 0.101782195 2.2045498 3.2870042 0.11757299 0.81416583 0.465668 -1.3032336 -0.3081651 -0.474604 -0.6350992 1.9885762 -1.103797 1.5789073 -1.6931237 -0.73171455 1.0896155 -2.124482 -0.5474812 1.4041593 -1.1872376 0.7121401 0.32862517 1.6054296 -1.8682746 -0.20708765 -0.35282293 2.903869 -0.98103267 0.6551822 3.0248284 0.08201764 1.3576227 -1.6055777 -0.09733926 -2.0282118 0.7797313 1.9685043 1.6536844 -1.2288173 -0.13626127 -1.8145684 2.7940352 0.49335656 2.3761806 -0.273903 -1.0465695 -1.1556016 0.0130123 -0.27885303 -0.080034405 0.5067832 0.30719158 -2.5937307 -2.2865472 -0.9964328 -2.1318579 -1.8894534 -1.8061432 0.9447854 -0.6188784 -0.9181453 -0.19550183 -1.4120765 0.4259409 1.0471147 -0.27039102 1.1500453 1.8035661 -0.3924295 -0.08297898 2.06709 -1.8453496 -3.03547 -1.5520619 -1.8240644 -0.6680851 1.2525759 0.5615776 -0.70120925 -0.9783287 0.55346996
饮 -1.3507876 -1.5403192 -1.0374144 0.7622259 1.0051857 1.273097 -1.2275513 0.35259616 0.06648695 1.7431898 1.0824363 2.1617029 0.80161756 -0.037017476 0.08806569 0.774219 -1.43842 -1.096102 1.6086498 -0.99944997 2.239911 1.0024605 1.4019305 0.8777913 -0.08442482 -0.5820242 -0.57579726 -0.4773418 -0.8311821 2.3330736 -0.3570397 0.16518451 -0.7228754 -1.2886046 2.1394162 -1.4486352 -0.8342009 0.7455992 -0.35284927 1.7782979 1.9129398 2.2708097 -1.9575521 0.550164 1.057085 0.52038157 -0.67491347 -0.0187685 1.9263344 0.8006182 1.17978 -1.6000583 -0.01719042 -1.306039 0.9552107 1.2525278 1.4388682 -1.389353 -0.48785108 -0.7668951 3.1971526 1.1153872 0.8941175 0.2407641 -1.2307712 -0.26037207 0.22596319 0.37654993 -0.8204588 -0.5278291 -0.5100654 -1.8869933 -1.2222973 -0.3799637 -1.043036 -0.35627496 -1.7626284 -0.016132455 -0.52734625 -1.9776303 0.54442763 -1.0951458 0.02055603 -1.0608393 -1.2321035 1.094606 0.9714528 0.9213073 0.5796044 0.7564321 -1.8603448 -3.188043 -0.45516843 -1.1415576 -0.13815878 0.8212337 1.3811945 1.5809236 -1.2193272 0.94877124
明 0.2562369 1.5434064 -0.49631584 -0.08958962 0.37145588 -2.0342774 -0.49769402 2.7480865 1.5181129 1.8256155 -1.0434958 0.41249043 -0.9445812 0.172421 -0.037005384 0.9081044 -1.3615907 0.15641633 -1.233044 -1.9636669 1.3219111 0.8945002 1.1164255 -1.0151048 0.57190996 1.144958 -0.17920102 -0.67297226 -1.4945488 1.4237362 2.1732705 -0.9448689 0.07401677 2.0471 1.5745662 -1.9327258 1.8693124 0.8800463 1.1263494 -1.9047639 -0.3306514 0.3480597 1.9485906 0.07269476 -0.15230651 -2.7439482 -2.0758984 -0.9411599 -0.3437988 -0.57433766 0.8450373 1.0978118 -2.625039 1.733832 -2.1832745 1.5399481 1.0945808 0.6415456 0.9987708 -0.6218428 1.4483331 2.4106314 -2.4323845 -1.579166 -0.96982086 -1.5865687 -0.14541 -1.8385772 -3.098665 0.05619478 -0.8096994 -0.24781932 -1.5879732 -0.9267257 0.4707918 2.6179717 2.98855 -1.83126 0.97736627 -0.6690113 0.5169874 1.2039618 1.0281919 -0.82274723 0.9138087 0.167189 1.2154396 0.37582242 -1.0966202 1.0566247 -0.538837 2.5484774 0.019841256 -3.062329 0.4310805 0.097062424 1.7095807 3.4593518 -4.2116947 -0.446019
显 0.6951269 1.2694383 -0.2804654 0.82648027 -0.72824836 -1.7589504 1.1229702 4.537578 0.6097797 1.2887504 -0.45749894 -0.46328595 0.056340795 -1.1213901 -0.45913026 -1.1021296 -1.0216213 -0.65091336 1.4965048 -1.4895905 0.6638495 0.102782644 -1.0122099 -0.87280875 -1.1959609 -0.43514487 -0.3809938 -0.22676867 1.6508306 0.6339077 0.4243436 -0.9949289 -1.0336285 -0.22436112 1.9567026 -0.7799128 0.36385536 -0.031609178 2.7204309 2.7442932 0.20011719 0.1101747 -0.96795547 2.2647047 1.7755706 2.296195 0.10263092 -1.0249943 -2.067682 1.1102395 1.164771 -1.6897839 -0.54946864 1.1876601 -0.9597236 -0.17554416 1.00774 0.17969167 0.73315966 1.7277684 1.3125914 -0.7329287 -1.1410329 -0.9195875 0.65681297 -1.9386126 1.9284968 0.08725624 -1.5828059 -1.3329282 -1.6706886 1.1281396 -1.366298 -1.6874479 -2.292218 0.58403707 3.2361965 0.62224513 0.7629078 -0.7635313 1.9837784 -0.9513637 -0.519166 2.3090763 0.2643527 1.1336397 -0.08885795 -1.7657968 -0.40293762 0.4826897 -1.5053825 2.0381515 -0.66680765 -3.0246773 -0.3235236 0.011135988 -1.2994115 0.4152819 -2.967825 -0.4426349
上 0.420808 -0.25861585 0.9576866 -0.785714 -0.016781162 -1.2439256 -0.66884905 -1.1072756 1.1512636 1.0265878 -0.13649023 -0.9803237 -1.9829309 0.40882453 -0.3434618 -0.01923758 -0.41632518 -0.07537591 -1.1663852 -1.1162114 0.9500221 0.16629843 -0.38465026 -0.70935917 0.14847136 0.7426354 -0.7173352 -0.110505946 0.20175351 0.71176904 -0.36138391 -0.5918992 0.87992054 -0.36946353 -1.2003897 -0.026721984 1.1173469 -1.6000174 0.45833653 0.16316527 -1.6795946 -0.39138284 -0.3785418 0.4707104 0.26527116 1.54058 0.65857965 -1.0544549 -2.7328324 -0.67403126 -0.18728986 1.4904737 -0.22617193 -0.7430061 0.25225708 -2.1834166 -0.45501515 -0.76658034 0.03525821 -1.7498537 -1.5050567 -0.58731234 -0.6270719 -0.2914189 -0.29255122 -0.37954646 -0.3742907 0.82133925 -0.7617749 -0.31718794 -2.2846043 0.9467481 -1.478985 -0.8808292 -0.29556978 -0.068603896 -0.123553924 -0.6499589 1.0671821 -0.20573972 -0.20245089 1.338913 -2.7881262 0.80915016 1.0973654 0.5232526 -0.29446742 -1.0666937 -2.0701308 -0.8744448 0.32051387 0.1235604 -2.1047974 0.19050649 0.7706955 -0.40732783 0.39666545 -0.265654 -1.589152 -1.1085378
红 -0.6543359 0.90022606 1.7545866 1.3997272 -0.32205337 -1.9828762 -0.57879794 -0.4533861 -0.30544505 -0.5218487 -1.9978228 -1.5089209 -0.082061924 -1.726731 -0.016656062 -2.1790981 -0.70963186 0.58677363 -1.0988258 1.4844201 -0.3089869 0.9175391 -0.27575746 -0.7766005 -0.80485386 -0.20693834 -1.8429806 0.15516503 1.1619723 -1.5287555 -1.8136982 1.345554 -0.56784236 0.48565066 -2.7634408 0.2533347 1.7315214 -1.4498137 -0.95784295 -0.5557214 -0.16159005 0.7440019 1.2593346 -1.6846753 0.17454998 -2.5956848 -1.7777706 -2.2115102 -2.2921498 1.2256582 0.5432296 0.29140013 -0.17973982 0.7203298 -0.25419495 -0.062162217 -1.8681648 -1.1359084 -1.869547 -1.3169556 0.3631344 0.493017 1.1271342 0.035747953 0.07743363 -1.097951 0.55634594 1.1878089 0.79202026 -2.6157484 0.011423853 0.6528785 -0.6508951 -1.7242278 0.411722 0.24893627 2.0308433 0.31826153 0.8528337 0.9517501 -1.908315 0.5914204 0.13146186 0.37495452 -1.5970312 0.1207825 0.3483143 -1.6430867 -2.124548 -0.032589782 1.2990949 0.88240534 0.5749284 -1.3958615 -0.058966026 0.5173987 1.9014931 0.17910625 1.0684315 -0.29453567
热 -0.93249404 0.6173076 0.51998025 3.0594144 0.7541903 -0.19584274 -1.8893088 0.9536791 1.0779092 2.8199828 -0.11675163 -0.33175114 -0.5503802 -1.6812372 -0.35225734 -0.0887047 0.74793077 1.212528 0.43145132 -1.4272904 -1.0194305 1.3611882 0.91594183 0.32753405 -1.1326753 -1.3312333 0.27267382 0.4161859 0.47394028 0.707597 0.0757974 1.489613 -2.7342935 0.13349861 1.5668061 -3.1980438 0.4878135 -0.68415505 -3.065998 2.1245077 0.77979964 3.0361423 -1.8732015 -0.2353342 -0.34023583 -0.58236426 0.5289151 -0.7557816 -0.36956507 -0.5729634 1.6481693 -0.43768415 0.0774469 -2.361119 -0.19800445 0.6233001 0.43462008 -2.9315114 -1.4284917 -2.4102626 1.271424 -0.4293541 -0.42899847 -1.8035663 -0.58638173 -0.18874046 0.22535612 0.71287566 -0.71044815 -2.447422 1.0402849 -3.504627 1.0967264 -0.77377474 -1.5499744 -3.475935 1.0113664 0.17351075 0.54419637 0.40673488 -0.46230778 1.1023946 1.3215411 0.83624053 -1.5849199 0.2676552 0.6633982 0.24462222 -1.2436986 -1.1603699 -1.6209655 -2.1062837 -1.6269256 -1.2910726 0.28018993 0.86600477 1.5789311 2.1807609 -0.097587846 -0.8929756
皮 -0.75926894 1.322961 -0.1628673 -1.439877 -1.7627362 -1.0576308 0.50162655 -0.7248064 0.87938434 -0.67816216 -1.3010525 -1.266994 -0.1639822 0.11792348 0.017010184 0.18221503 1.2884983 1.2072078 0.24041064 -2.1428304 -1.194871 0.16828427 -0.47109967 -1.3588561 -1.2461876 -0.16354115 -1.9087827 -1.6069849 0.15740703 -2.3217416 -1.7118171 0.38407946 -1.401603 0.39765656 -1.6854588 -0.9274696 -1.1163867 -1.6466252 0.1588584 -0.93671596 -1.2767121 1.2118766 0.90122694 1.0842397 0.18759596 -2.4279656 0.02967916 0.036401823 0.21631582 0.45820028 -1.0808618 0.3952076 1.0593675 0.26289 -1.1590859 0.20197365 -2.8664815 -1.7329547 -1.7341198 -1.6225963 1.4102236 1.7260461 0.2661265 0.73382473 1.0727844 0.07699039 0.016617017 0.37413502 1.6314114 -2.1761553 -1.6717459 -0.83993065 1.1314232 -1.6728406 -0.63118815 -0.111318156 1.7619002 0.5813436 0.38815275 -1.3926994 -0.7261275 0.47045687 -0.8853826 1.7236719 -0.4934658 0.68772453 -2.0678196 -1.3214254 -1.0515511 -0.958757 -1.8354582 0.68181056 0.08702922 -0.3810819 2.79278 0.51041365 1.1433814 0.8943423 0.87189645 0.14138597
畸 0.17563312 0.8217715 -0.1008211 -0.7355512 -0.8939569 -1.624892 -1.4419682 0.1407979 1.7927288 0.42419958 -2.8924904 -2.6058085 -0.4114568 -1.1182753 3.2778265 -1.700265 1.2147553 -2.0469673 0.49018827 0.5515135 -0.5077586 2.291434 2.0861497 -1.4676121 1.5504798 2.019336 -0.05361292 1.5061499 0.025223274 -2.835772 1.0737487 1.356455 -0.601484 -0.2828128 0.3647642 -2.1668062 1.4277277 -1.7654803 2.121485 0.0991848 -0.8209957 -1.9430219 2.068925 -0.7857546 -0.6561966 2.456129 1.0025369 -1.9770749 -0.6560072 1.0846941 1.1521285 -0.094513886 -2.33577 -0.72535175 2.5327084 -1.475063 1.0289899 -2.2151744 1.6965084 -0.24890673 -2.4079385 -1.9828879 -0.67742777 1.669592 1.7874514 1.1945411 1.1703635 -0.22522224 -0.44441494 0.68031555 0.5618127 1.3990493 0.7844869 1.6032009 0.07024961 0.9385436 -0.24094035 -0.34202766 1.23725 1.360512 -0.4605226 1.6842169 -1.2561554 -0.9111936 1.9274712 2.0081503 -0.6717071 -2.868658 -2.8295379 0.3600817 1.2672697 1.6101971 0.9994254 -1.4021715 1.5833714 0.91805345 -0.086909615 1.0962166 -0.40991122 0.107739575
各 -1.312612 -0.82662666 0.640141 -0.3028202 -0.3625462 1.2337383 0.3287607 0.39158052 0.7635043 -0.1531932 0.8222887 -0.78998697 0.85399544 -0.19727932 1.3514239 -1.6036049 -0.084258065 -0.6031381 -0.8312319 -1.31841 0.51755226 1.1775609 1.9347839 0.2525012 -1.598657 1.215369 -0.69498 -0.48750013 -2.637778 -0.52227765 1.6219233 -0.11813346 0.64100885 -0.24450599 -0.22250302 0.95177764 0.37160233 0.53456134 -0.24509273 2.2887995 -0.78310454 -1.2194806 0.18971235 0.08001831 0.60232186 0.83828515 0.949131 0.8843789 0.6014277 -1.3760698 -0.49978104 -1.2766477 -0.20335098 1.2412193 3.1991649 1.0136898 -0.8096501 0.33134332 -1.2109059 -0.81509507 1.0059011 -0.00054966845 -0.43880337 0.47540462 1.5350124 2.157137 0.9300296 0.687792 -0.31865016 1.9744223 0.8828948 0.8031058 -1.3670844 0.3848593 1.1744052 0.9363337 0.073920585 0.42504355 -0.6237247 -0.4840178 -0.047141165 1.3085313 0.77343124 0.1488627 0.57013917 0.049907472 0.23014303 -1.1819077 0.66509855 -0.7224324 0.9558163 -1.0608252 -0.17935121 0.3796797 -0.22221199 -0.17279193 0.02446472 0.9310358 0.8030297 0.8996472
疼 -3.2908764 0.90010613 -0.94063145 -1.4708512 -0.47867694 0.15375198 1.0634861 0.85670406 0.7320181 3.7717636 0.88059866 -1.1212776 -1.0687673 -0.7215438 -1.668308 -0.08342369 0.6230981 -0.106018655 0.20015156 -1.8747606 -1.6383901 2.0058959 0.5873645 -1.7232151 -0.21000327 0.8760993 0.16443008 -1.4941885 0.15588233 0.7965863 0.12706298 1.2582241 -2.258049 -0.8968193 1.4095584 -3.53575 0.8805404 0.65892166 -0.31277242 1.1022289 -1.2173101 0.41683766 -1.0251234 2.9351594 -1.0938497 1.0695603 0.03243809 -0.35496038 -3.1402884 -1.2800742 1.027632 0.7382288 -0.7267938 -0.3279547 -1.5011034 -0.7301456 -0.048404075 0.44450086 -0.6973197 -0.8403155 -0.48199508 -0.5652434 -1.755825 -1.2435285 0.53791237 -2.079706 0.7990742 1.0910556 -2.8119416 -0.20877418 -0.5636188 -2.8653257 1.0368534 -1.6622674 -1.3061286 -0.28425616 0.022899572 -0.9591993 0.69922 0.121591136 0.5869781 -0.7572906 -1.5230074 0.16297586 0.3901751 -0.024304496 -0.24563468 -0.6964851 -1.2781014 1.230297 -2.0706203 0.16508971 -1.3156569 -1.3634429 1.5734377 1.2771004 0.5099177 2.3866773 -3.359379 0.6495703
征 0.26647297 -0.02606304 -2.2049181 -1.0030148 -0.66063136 2.6927826 0.0034886615 0.69636416 -0.19700953 -0.17063625 -0.45756808 0.7517383 1.7148291 -0.17025562 -0.33061337 -0.9209211 1.3962789 -0.0054896097 0.810182 -0.38160542 0.12923558 -0.08586439 -0.54564315 0.95612895 0.83905596 0.95944226 -1.2547326 -0.022811206 -1.1758329 0.35715747 0.9074893 -0.08339578 1.096668 -0.15546395 0.67205024 0.25243172 0.28841227 1.3957745 2.3159986 1.4872206 0.6296232 -0.93107706 0.17479926 -0.796348 1.0210677 -0.26554173 2.3861086 2.206428 1.9346719 1.0178417 0.074588284 -1.1156616 -0.8615977 1.581183 0.42575985 1.3947266 0.8372703 0.6454397 1.1011875 1.18738 -0.56157446 1.0291764 1.0695422 -1.1851742 -1.5959265 -0.2917915 -0.8403852 -0.7331448 -0.42721683 0.29989272 0.5159959 -0.64669895 -0.71163195 1.0866876 1.1595414 0.6352451 -0.43294266 0.41313267 -1.8803499 2.8582523 -0.58920413 -1.4238282 1.3459599 0.5748359 1.1130958 -0.50494087 -2.031645 -0.11271844 0.1631155 -1.540871 -0.09415278 0.44626936 2.5966437 0.0017309556 -1.3013494 -0.7402163 -0.9243962 0.13638674 -1.4773632 1.7061762
管 1.5673475 0.67185134 2.8463273 -0.36091378 -0.61480236 0.12769468 -1.3740307 1.435527 0.019702645 -0.05917933 -0.005308102 -0.7370182 -0.796474 0.67852294 -0.40360922 -1.253108 -1.7330071 -0.22717363 -1.2298148 1.4056771 -0.5548831 0.839618 0.066916496 -1.5923156 1.3601762 0.9020995 1.6134143 1.5811791 0.5822014 2.5634797 0.20204769 1.0439818 0.48855773 -1.1148362 -0.00792477 -0.710911 1.756333 -0.15142247 0.33962664 -1.5422156 -2.0896294 -0.13753311 -0.009217682 -0.90686786 1.5433089 0.5694705 0.21437247 -1.8036392 -1.6408215 1.7111073 0.23780453 0.2618336 0.9073375 -0.49963278 0.69057816 -1.2946624 -0.6547377 -1.8277117 -1.4959188 -1.2528138 -0.8936671 -2.0214176 -1.5363607 -0.40658486 -1.1398832 -2.2620606 0.48603252 -1.125818 -0.18079825 1.9931252 -1.2464216 1.8189155 -0.39588428 3.2095628 -0.93628174 -0.3106956 -1.5132638 -0.86952394 2.5383117 -0.42958042 -0.97230965 0.8668688 -1.5521711 1.4655567 -0.64644384 0.278415 1.1111437 1.437238 -0.55528456 1.3480017 2.7655687 0.8329171 -1.3588728 -0.21968524 -0.6432527 0.4883564 0.38464084 0.7971338 0.90655977 -1.7329353
已 -1.746735 2.0545611 1.2699755 0.8170969 0.7750887 -0.40960503 -0.88896817 0.5138944 0.26740044 1.5957541 -0.34588543 -1.9675782 -0.9259575 -0.039570455 0.50946873 0.01952008 -0.34688362 -0.9716089 1.3218086 -0.80792826 -0.9104799 0.655246 0.17655158 -0.53044456 -0.7582349 -2.204775 -1.1040576 1.1545546 -0.13109477 -0.80845964 -0.9169117 1.4841152 -1.0122738 -0.014222791 -0.099673524 0.31492016 0.7671171 -1.554926 -0.8601903 -0.5140629 -0.69399226 0.6408177 1.0800692 -0.118137166 0.9938557 -1.9700636 0.07932741 -1.8737983 -1.4636158 -0.47559223 0.83324647 -0.013281735 1.5964555 -0.594713 -0.5081085 0.22295901 -1.5271746 -3.3429499 0.11920048 0.989055 0.04739056 0.9060184 -0.064635925 -3.1203096 0.4467367 -1.1251695 0.28158098 0.25339773 -0.40359107 -0.80320454 -1.0851226 -0.7739291 0.79849136 -0.6180621 -2.126079 1.0690471 1.7753142 -0.11323733 0.81802344 0.25225446 -0.32369193 0.27175704 1.1227963 1.703919 1.1319883 1.3710755 -0.6868719 0.08257548 0.1707824 -0.3179749 -0.33865744 0.6748386 -1.2983791 -0.5912868 0.53028435 0.5671687 0.7027353 1.8084886 -1.4236836 0.12083034
膜 -0.68420905 0.33541203 1.0325873 0.15298441 -1.1040229 -0.50289506 -0.619916 2.670307 -0.6448483 -0.64226204 -0.7520636 -2.1971664 -0.18779801 -1.2948104 -1.0290769 -0.5602368 1.202291 0.42253023 -1.8020413 -2.200907 1.0352803 -1.7855835 0.78540975 -0.73990625 0.3783938 1.2981981 -2.7315962 -1.8099812 -2.416375 -1.3324674 -0.55203027 -1.0324332 0.65018773 0.43999937 0.72566164 1.8216543 0.91748613 -0.02645083 0.10849908 1.0593493 0.3567755 0.66412807 0.45398694 -1.092373 1.8941121 -0.13310978 1.9708494 1.868597 0.1471793 1.1807563 -0.31309065 0.122288994 1.5069851 1.485959 -0.4541008 -1.579243 -0.88115823 -1.210892 -3.2056317 0.45322585 -0.1638775 1.7047642 -0.32579073 1.2142148 2.320191 0.20093817 0.690161 -0.3294124 1.2795252 -2.0979955 -0.3037146 1.2615757 -0.22008696 -0.8941237 0.9648398 1.8898683 1.4032544 -1.1148313 -1.6417027 -0.9077854 -1.624875 1.096511 -0.53886604 0.25347805 -1.2460413 0.4806803 1.3808408 -0.82146984 -0.03084277 -1.8331614 2.4453208 -1.341529 0.38367447 0.059215024 -1.3690786 -1.6283938 2.075679 -0.050392624 0.33366546 -0.120754376
浊 -0.10445369 -1.9859641 -1.7345814 0.89105433 -0.588839 1.7527364 0.83665466 -4.8275423 0.37108168 -2.054059 -0.015569358 0.62025654 0.7293309 0.021206643 -1.2949257 -1.5343738 0.81940883 0.4458565 1.2556825 0.13761526 0.043876104 -0.2113336 -1.0398711 -0.9192536 0.89846396 2.1608932 -0.33228794 0.53228396 0.29272667 -0.58083224 -1.5672294 -2.749874 0.23920676 -2.711367 -1.6938819 0.70572 -2.1301453 1.4655731 0.74201155 0.7871053 -0.6318876 -0.3726361 -0.38943955 -0.84338033 -3.8433793 -3.4141123 -1.1978426 1.699347 -1.1897529 -0.55369467 -1.3393211 -1.1868261 -2.5378628 2.8156872 2.7650647 1.1378715 -1.229525 -0.2446043 -0.3004301 -2.2717729 -2.089369 -3.404505 1.4108512 1.0693625 -0.1535795 1.492889 -2.3690362 1.5862038 -2.2116444 -0.5019307 -1.0183604 -1.1762179 -0.43622953 -0.63285697 -0.5804011 -2.1003869 0.060740586 -0.34075272 -1.767212 1.3012086 1.4258721 -1.0999728 -0.2552073 0.7961128 0.25209776 -1.2988153 -1.5832189 1.2417136 -0.877901 -0.921257 0.02189613 -0.6934843 0.7557202 2.4577508 0.0722708 1.6536912 -0.9876037 0.5916882 1.9253112 2.5709972
血 1.5198236 1.5419286 0.086045064 0.20587112 0.44786468 -2.1307619 -1.04149 1.2680672 0.0012317236 -0.106639445 -1.1198463 0.8710804 0.62725 -0.39931273 -0.22229196 -0.29192063 -1.3745246 -0.5353585 1.2288436 0.27904356 0.56711257 1.9887102 0.09626593 0.2705354 -0.48868418 0.39500257 -0.73654777 0.26850325 0.17340124 0.54058486 -2.1935344 0.06004712 -0.16255432 0.0028506103 -1.1381689 0.04950933 0.031013407 0.3683336 -0.67431945 -1.2031659 1.8305762 0.12583724 0.5822673 -0.6954052 -0.4554107 0.98482084 -0.7442424 -1.1405232 1.1263357 1.8954195 0.2681361 -0.3061182 0.06706742 0.097221285 -0.8456346 0.57837003 0.5492002 -1.1784694 0.3091229 0.6366268 0.7752695 1.5664823 1.4615061 0.3792396 -0.05401995 -1.1047858 -0.3436101 -0.97744733 0.78586304 -0.72724485 0.095995486 0.97910744 -0.94299006 -0.07384485 -1.3144598 -0.15855113 1.7085485 0.5427212 1.4297991 0.2983409 0.5134528 -0.32772112 0.72093105 -0.48410463 -0.042603962 1.7473451 0.19290663 0.76870865 -0.69944805 1.0142016 0.28123078 0.15439938 1.6407808 0.24303354 1.2102731 0.35755408 0.65951324 0.52013236 0.09448666 0.22461177
骨 0.20335491 -1.1980629 0.91918343 -2.4282873 -0.7852325 -1.566344 0.8900305 -1.3832021 -0.14229752 1.1396831 1.647559 -1.3712611 -1.3818749 1.2280307 -1.233989 -0.25631106 -0.6140467 -0.39665994 -1.8781377 0.760105 1.4384282 -1.7027706 0.60356545 -0.33404744 1.9526327 0.56347555 -0.6900535 0.60104513 1.1977657 2.2813246 -0.45191252 1.0164876 1.2288917 0.5992263 -1.7028869 0.26585895 2.6389055 -1.682965 1.7988195 -1.0315467 -3.1378298 -1.4422286 0.05849695 0.19909492 2.097966 0.5203538 0.746858 0.51647526 -2.1827135 -0.6139924 -0.033252493 2.3905997 0.6683465 -0.439393 -0.5278316 -1.7032955 -1.4709139 0.42610696 -0.87475926 -0.7078293 -0.92528355 -1.716741 -0.9107062 0.49395174 -1.3660779 -1.0766182 0.63857 1.2244773 -0.7704665 0.6153346 -2.3628354 2.7762141 -2.1447299 -0.392397 -0.54349667 0.6981934 -0.09319058 -2.3750951 1.6849524 -1.3376545 -1.4363283 1.4878528 -2.8921664 1.3209344 0.97419965 -1.6156971 0.38887012 -1.5576367 -1.5222794 -1.019752 0.66180736 -0.4384532 -1.5372715 2.1468933 0.7991905 0.8763032 2.099398 0.100271605 -0.4311086 -2.3294494
包 -1.4196054 -0.3534219 -1.4137686 0.40005785 -3.0536344 0.7920471 0.18273649 -0.07534675 -0.98855776 -1.5896606 0.36653873 -0.16116737 -2.495515 -0.57466596 -0.5253342 -0.05942302 -0.7804952 2.6310015 1.0727208 -0.7276249 -1.2713631 0.47559947 -2.9710102 -1.8110204 -0.9093008 0.8852325 0.4734622 -0.36410195 -0.94045764 0.43839535 -1.2850202 -1.8833109 1.3050216 -0.63825077 -0.8862291 -1.8881345 -0.23305644 1.0520707 -0.18099326 -1.5036802 -1.802013 0.9944388 1.3007901 1.9178778 -0.84137005 -1.6225631 -1.2055717 1.7235222 -1.9046537 0.7005452 -0.34819058 -2.2196352 0.052461173 3.7755122 -0.7205368 -0.6484774 -0.38608813 0.4994465 -1.7447411 -2.7118404 0.8267731 -1.280437 -0.9228671 2.5893357 1.7641351 -1.3914485 0.943225 -1.1969975 -1.2022544 -1.8387907 0.11639517 1.5081542 0.1253062 1.8340498 0.033120345 1.351523 -0.13502091 1.6030653 -0.39635074 -0.42828712 0.11779919 -1.3004593 -1.6375861 4.3346677 -2.433807 -1.4633417 0.89298916 1.4174178 -0.24338819 0.74883455 0.8589273 0.6322901 -0.57009846 -1.016806 -0.13510919 -0.048673254 -0.45204616 -0.16732626 -0.013729164 -0.8072018
鸣 0.23192929 -0.75993866 -0.43625253 0.9967318 -0.70417535 0.94713753 -0.17041853 -3.6717904 0.49334455 0.41506407 0.067758955 0.64501387 2.1545255 2.8682249 -0.5602436 -1.6016557 0.32654092 0.5533528 2.0061343 1.1034148 -0.8254919 1.5530018 0.4629506 -1.5394651 -0.1950661 1.2239969 0.53692967 -0.2565471 -1.752034 1.4592534 0.07220988 -1.5205301 -0.3599113 -2.7371604 -1.6498504 -0.6784574 -1.4391946 0.9212264 1.2925606 3.048521 -0.881026 -0.45836377 -1.451069 -3.1308844 -1.9967176 -0.5636958 -1.1248118 1.884272 1.7705107 -1.126682 -0.54096645 -1.8081421 -2.2351086 3.1240234 4.0938473 1.802597 -2.02625 -1.7076508 0.6722189 -2.1907218 -0.12532099 -2.2921536 3.6001122 0.8069123 -0.98935825 1.8469456 -0.513885 1.4123098 -0.44250405 0.96046984 0.44891018 -2.3387516 -0.94846874 -1.005324 -0.56415087 -2.2171686 -1.647045 0.18953827 -2.1818807 0.67832136 0.5353453 -0.76031643 -0.18207213 0.75504816 -0.5211808 0.7698452 -1.0362918 -0.07322808 0.9251314 -0.030853432 0.760396 0.09470341 0.8778084 1.4144655 -2.790044 -0.99401915 -1.7517066 -0.032120515 2.0437229 1.7369201
