743 100
， 0.3255042 0.37543902 0.23159213 0.40628242 0.10817884 0.754961 -0.23981552 0.8467644 0.33444685 -0.39485204 0.07736372 -0.0727461 0.30391303 0.009469983 -0.41669294 0.037819 -0.06498807 0.33251604 0.30688506 -0.5908372 0.20631939 -0.017041102 0.21570402 -1.2633255 0.68605536 0.13051592 1.4074583 0.03932517 0.34543148 0.74534416 1.2324563 -0.5241963 -0.42967227 0.049458634 0.39572743 1.3114415 -1.0298079 0.40417898 -0.5139315 0.38817024 0.35097137 -0.2152756 0.24065968 0.4330374 -0.08394389 0.08206917 -0.44875404 0.19018495 0.4642215 -0.42717943 -0.89004445 -0.4835545 -0.33453447 -0.12632413 0.7106573 0.103253 -0.037015993 -0.21000285 0.44565475 0.11319911 -0.15649472 0.10846787 -0.9362815 -0.23591933 0.8236367 -0.54801804 -0.3916848 0.5661042 -0.23027624 -0.6987057 1.1757666 0.9279743 1.0302135 0.013584132 0.4095129 -0.49570233 0.6310026 -0.3034825 -0.66885483 0.9008674 0.904261 -0.13855612 -0.2007295 -0.61530316 0.6597898 0.20219763 0.19545577 0.08787146 -0.12953559 -0.9556323 0.1422851 0.68921816 -0.7660095 0.66037816 0.52748376 0.70836335 -1.0765094 -0.781302 -0.83517975 0.31829447
。 0.38135013 0.8720098 1.121687 0.5442252 0.7001028 0.47757193 -0.3491668 1.0046282 0.061407603 0.1744096 -0.43070868 -0.37964657 0.53693914 0.5051278 -1.0724564 0.08667004 -0.025788661 0.455318 0.7014499 -0.5090505 0.643045 -0.06741009 -0.48854393 -1.1958662 -0.1924411 -0.18356949 0.43750858 -0.41633025 0.67400074 0.66147643 1.5755787 -1.3974421 -0.0846067 -0.4149141 0.14987132 0.5166797 -0.64737576 -0.61981887 -0.4726136 1.3180196 0.89871 -0.6996761 0.0058844807 0.030773155 -0.4700059 -0.025231035 -0.02104755 -0.37852955 0.10744885 -0.979354 -0.31752935 -1.397618 -0.15551765 0.7637976 0.6058549 0.12222328 0.34990498 -0.09963348 0.04872899 0.2981012 0.052936338 0.105262145 -0.41640154 0.0008181233 0.15113723 0.1069849 -0.7092613 0.7312819 -0.94152963 -0.5348958 0.7957736 0.33467436 -0.29730773 -0.14484462 0.79218024 -0.6980328 0.2679035 -0.87560195 -1.2923882 -0.03444478 1.5087985 0.20689216 -0.36405653 -0.55667126 0.26593617 1.236252 0.19570902 0.54646015 -0.08180183 -0.7147691 -0.3030725 0.98039615 0.15867744 0.7937297 0.028244028 0.9477166 -1.0703424 -0.827759 -0.2904733 1.1647928
无 -1.1328472 0.95944846 1.2395339 -0.2769231 -1.0420796 2.2665985 -1.6757249 -0.24599108 0.059038978 1.3614299 0.7231626 0.3456995 1.4234294 -0.42968816 0.319256 -0.5583753 -0.36745903 0.018522907 0.9541503 0.12001104 0.13215747 0.35079658 0.048776746 -0.28540152 0.4887726 -0.842901 1.5798211 0.5119206 0.29890278 0.5678372 0.91293055 0.31387845 -0.35496798 0.020734927 -0.09132721 -0.051746782 -0.8677644 -0.19842845 -0.21824233 0.52378416 0.12949948 0.3121109 -0.8348538 -0.5212131 0.9976802 0.92129487 0.36767405 1.0564514 0.033419713 -0.661627 -1.2752221 0.106540136 0.6086219 -0.35214275 -0.8249147 1.137993 0.64407253 -0.036255967 0.61925375 -0.49257287 -0.62225634 1.8292105 0.2913356 0.54138404 0.9360807 -0.6466523 -0.2377832 -0.3863814 -0.9569108 -0.12483127 1.2271491 -0.2569977 0.1070891 -1.4331112 -0.20419213 -0.19613087 0.056629498 -0.5443873 -1.0582631 1.0527325 0.5989668 1.0435545 -0.8932228 -0.16422983 0.8218112 0.8393933 -0.06636803 0.5093561 -0.15568995 -1.303347 -0.49536636 0.30051956 -1.2977606 1.0672534 0.093981385 -0.4612243 0.39626452 -1.055878 1.5805718 1.0720826
及 0.062742956 0.4729154 1.777222 -1.0428224 0.49833485 1.4622451 0.41570008 0.3511517 0.8150282 0.6192485 -0.7261066 -0.60323757 1.10959 -1.208183 -0.9636067 -0.10206231 -0.3605618 -1.0717617 1.4252354 -0.51151645 1.0875883 0.91618687 1.7653967 -1.5889021 -0.07577983 -0.95737463 0.106715016 0.85109174 0.544569 0.18663508 1.7444434 0.6465052 -0.5039109 0.2615145 -0.48928434 1.1220175 -1.2993604 0.23296332 -0.29835275 1.9787481 1.3730938 -0.6598105 -1.5366529 0.20372173 -0.13216732 -1.0436853 0.41770062 1.5331913 1.1349748 -0.3373893 -0.4256194 0.703328 -0.64658195 -0.43408015 0.3384477 -1.3413887 0.12589613 -1.3785704 1.2141659 0.3916655 0.025326228 0.59262586 -1.086642 -0.40310705 -0.18591645 -0.20692176 0.8142115 -1.0702136 -2.0143683 -1.0031182 0.5729774 0.2706522 0.68872964 0.9795909 0.72306186 0.32297435 0.9422265 0.54974455 -0.6802324 0.23905009 1.2599335 0.5811623 -0.08770111 0.01416483 1.1931125 -0.39435858 -0.18443581 -0.28817108 -0.7662017 -0.12695485 0.5070412 0.8683861 0.9047271 2.0160801 0.3407594 -0.7586372 -1.5755769 -0.82737386 1.1413047 -0.32631955
痛 -0.43565837 0.2986661 1.766817 0.30446765 -1.6946816 1.4955137 -1.6006557 -0.26266032 0.29492027 0.498937 0.16855125 -0.6771545 0.91416043 0.1167252 -0.9338445 0.6988649 0.87261766 -0.7575139 1.0931271 -0.36329618 1.183115 1.1788274 0.17432883 -0.20009422 -0.571145 0.3723549 1.5063936 -0.26797804 -0.8260314 0.032196134 1.7768224 1.0303118 -0.3801372 -0.17257488 0.1760818 0.2422753 0.07516905 -0.7304407 -2.2191155 1.0431384 0.11162964 1.2523394 0.044951648 0.6214349 1.8105695 0.4955756 1.1167128 0.6154907 1.4018905 0.48063508 0.31793615 0.49627674 0.92557645 -1.0132082 -1.4541196 0.7534027 1.9051424 -0.59498686 0.97194326 1.2389933 -1.3465668 1.4761423 0.6884949 -0.90678316 -1.042935 -1.1184756 0.16434884 -0.3500229 0.107929796 -2.107803 1.3825272 -0.9940954 2.3619223 0.58808744 0.9805613 0.2764964 0.44449812 -0.8257122 -1.0432019 1.5046049 1.2404548 0.65500593 -0.46969095 0.73247796 0.7115438 0.019444296 1.4046097 1.937153 1.1150204 -0.1579407 -0.1805109 -0.48226234 -0.53720874 -0.36391166 1.2330291 -1.2690201 -1.0557301 -1.021743 0.42723447 0.025643453
未 -1.212762 0.8936809 3.1800857 0.74425817 1.1872884 0.52982277 -1.0297966 -1.4454386 0.6489617 1.2684401 -1.2427754 0.72326654 1.9584014 -0.51121706 1.2573838 -0.6514242 0.07853166 -2.175538 0.99631715 -0.22442998 -1.6928571 -0.52358127 1.0637897 -0.71225446 -0.62294465 -0.26463225 -0.6183166 0.7286885 2.245274 -0.7885081 1.8101187 -1.6946415 -0.5314573 1.3181728 -1.1987449 0.07855622 -0.36202404 0.8494902 -0.86892295 0.64594775 0.32842937 -0.76862174 -0.8506963 -0.95662814 -0.07404892 -1.1757407 -0.7108182 0.50113183 0.5881596 -0.15215535 -0.61317724 -1.9193171 1.8281782 1.3832039 1.3394264 0.34185323 0.23883757 -0.66207486 1.5385226 0.49206 -0.929002 1.3358186 -0.38468298 -0.15177321 0.7197989 -0.72870475 0.30666503 0.794649 -0.16265057 -0.7026359 1.5179075 -0.4652946 0.3223506 0.4341793 -0.5554965 0.19205612 0.74201506 -0.09565035 -0.97679687 -2.6402874 1.4452261 -0.20331289 -0.46864444 0.03715471 -0.6340648 -0.06190204 2.4376757 0.116864696 -0.44107434 0.2764235 1.0511756 0.45243126 -0.06434051 0.9618042 -0.025786884 0.34575194 -0.62332654 -0.36914018 0.53269076 -0.98100156
腹 -1.1755396 0.0985693 2.6893072 -0.48820174 0.53568715 1.3996568 -1.6532301 -1.1282071 -0.8085341 -0.063230895 -0.798985 0.26493463 1.7570547 -1.207208 -0.56225204 -0.65743214 -0.41028818 -2.578658 -0.49942973 -0.5506911 0.22158442 0.9957746 -0.30190733 -1.3202474 -0.18360619 -0.47344318 1.2354254 1.0265493 0.23106238 0.20161092 1.1824223 -1.2302582 0.6035286 -0.5812697 -0.30556238 1.2118165 -0.11022379 -0.7287296 -1.8028861 1.0693864 1.1486216 0.09461153 -0.097239904 -0.18018752 -1.6320659 -0.021377165 -0.8009021 1.2209361 0.21241185 -0.63890606 -1.6102699 -0.24483228 0.25087288 -0.18306008 0.49251556 -0.22726256 -0.2850662 0.3070945 1.79307 0.32784984 -0.5071413 1.2081717 -0.42241845 0.067265354 -0.4504137 -1.1203847 -1.268635 -0.4954777 -1.4975393 -2.052463 1.3019214 -0.7372512 -0.16553721 0.21019839 1.6415854 0.734517 0.16061583 -0.37482667 -0.8224641 -0.69554365 3.4499173 0.15345031 0.0010377445 0.2096834 -0.039031748 0.48886946 0.9284242 0.38810724 -1.3876046 -0.71345013 0.21425655 -0.41304603 0.06506974 0.65810996 -0.7580536 -0.923745 1.1406639 -0.3550771 -0.12221154 0.0899926
常 -0.7118503 -1.7871287 -0.28405857 0.5228478 1.1925696 -0.37901533 -1.2936283 -1.5063226 -0.3494361 0.34228268 -0.9813988 -0.76321524 -0.059642524 -0.3549498 -0.25711855 -0.31864282 0.04295553 -0.2824452 2.197861 0.010612908 -0.09311758 0.06112729 -0.28344876 -0.8745859 -1.226135 -1.2286847 -0.72532487 -0.52429104 -0.3654286 0.2814327 0.2864987 0.2411544 -0.25754127 -1.3739982 -0.6673286 0.8998276 -1.5959234 -0.028619027 -0.9769854 3.1936364 0.82169074 -2.1084664 0.19293559 -0.32241923 -1.7277492 0.08135634 -0.35302025 -0.11162513 1.1374136 -0.33062303 0.18580107 -0.5806291 -0.87348276 -1.3883244 0.84147984 -0.581696 1.2203528 0.11792998 0.2271983 1.7778275 1.2604638 -0.8236468 0.06721003 -0.764895 -0.1905023 0.43911058 -0.7255509 1.2922788 -0.67447364 -0.9904407 0.83032763 -2.0131147 0.3715955 0.39316165 0.5179214 -0.28008237 -0.23689759 -0.35766372 -1.6544641 -0.9119976 -0.6465865 -0.075820796 0.2709901 -1.0878061 -0.46684167 0.7608145 0.5663306 1.2137104 -1.5785093 -0.049954146 -0.9799313 1.0134056 0.11457641 -0.14855619 -0.592456 1.4682294 -0.13013332 -0.20345093 -1.741935 0.8873857
音 -0.039762057 -0.9436308 2.114936 0.14695321 1.2668809 0.18261717 -0.18470386 0.26196462 0.8539117 0.10277559 0.08286629 1.7130656 -0.44881037 -1.9368207 0.36984268 0.7168301 -0.81979376 -0.4975738 1.640407 0.32043892 0.8426915 0.3158561 1.4586853 -1.1185682 1.044277 0.6027328 -0.9012917 1.8704017 1.1372011 1.3458241 0.87809575 -0.66520363 -0.40147918 0.45677504 -0.32741445 -0.66020334 0.13037862 0.96588594 -0.12537992 0.022939777 0.9201535 -1.1806676 -0.92319506 0.8093146 -1.6467319 -0.97978836 -1.2281337 -0.10254053 0.45081034 -0.8120146 -1.521872 0.24835178 1.1110101 0.8051943 -1.2669802 -1.5504718 1.077732 0.73414046 1.788635 2.3472443 0.11212994 -0.27756536 -0.044177532 -0.15645234 -1.1605004 -0.987478 -0.9107542 1.464982 -1.4318607 -1.6460612 0.035224892 0.8498856 1.5797554 1.2884992 -0.53617555 -0.58055484 0.7602685 -0.41914606 -0.71876764 -0.06088571 1.6650542 -1.2715108 -1.5539818 -1.1783239 -1.5328982 -1.4737645 3.1751645 -1.4533702 -1.3590028 -1.1079975 0.537492 1.7226444 1.0757413 0.98376733 -0.12311344 0.4010812 -0.5352653 -0.4092553 0.1784123 1.0568922
双 -0.89190227 -0.7152042 1.501255 0.15513283 1.0130284 -1.2684922 -0.8789089 -0.27885 1.3824371 0.4405853 0.3431472 -0.6805579 1.3974936 0.16391893 0.01826041 -0.37085253 0.486044 -1.0280193 0.53296477 -0.54744637 0.25200453 -0.54384255 0.4177268 -0.45124677 1.0636033 0.7766137 -0.7816406 -0.7403212 -0.5453624 1.3321176 -0.31244752 -0.4540712 -0.6414361 0.7976348 -2.5355294 -1.0603716 -1.4262987 0.08887205 -0.116957806 1.0433059 -0.5574823 -1.3472874 -0.48628408 -0.68330586 0.23045495 1.0080478 -0.3675203 -0.30887753 0.39072627 -0.8496894 -0.5528162 0.22879235 -0.019509789 1.7379626 0.21148108 -0.19827552 -1.9156355 -0.77889925 1.0822188 0.93082285 0.7046026 0.3252535 -0.7721546 0.63032395 -0.654282 -0.47612777 0.85850227 1.9075195 -1.5832673 0.96724606 0.34457225 0.55607605 0.7967829 -1.0971677 1.0190341 -0.3593092 0.34929502 0.011359359 -1.2872996 0.2650985 -1.4566736 0.4118108 1.2120403 -0.64498883 0.24888791 1.1173037 -0.27285615 -0.77937436 0.527004 0.057049513 1.6499555 0.0893631 0.49745357 1.1382571 -0.032783493 0.13347931 -0.25353688 -0.6318018 1.5026039 -0.084771045
部 0.05197531 -0.5315591 1.3505442 0.060889095 -0.65365446 1.6377348 0.60429084 -0.24646762 -0.8547162 0.7943182 0.5055632 -1.1012233 1.0599501 1.2122458 -1.4650636 0.971233 0.6466613 0.10978079 0.639711 -0.83309424 -0.44200632 0.4579186 1.0778831 0.39015117 0.35146245 -0.70181775 1.4606456 -1.1238972 -0.14663364 -0.4953354 1.0760024 -0.9563213 0.88332665 -0.7770672 0.5161116 0.48934436 -1.4165428 -0.21722066 -1.9858317 0.62504536 -0.023574239 -0.3004327 0.17824829 1.0331252 0.47465402 0.115660734 1.6733536 0.35143703 1.7797039 -0.09669513 -0.35561877 -0.18195243 -0.11351304 -0.6273322 0.18459056 0.7901921 1.210384 -0.88238275 2.1942978 -1.082776 -2.2241318 1.7908902 0.674761 0.08015879 0.21632108 -0.23222509 2.1261194 -0.5662167 -1.1384256 -1.9914145 1.2708919 -0.19434766 0.42053255 0.39083433 -0.6086255 0.77901715 -0.5529066 -0.0512074 0.51855385 -0.65277 1.1677157 0.013729109 0.025230968 0.8020747 -0.30655646 -0.13302682 0.8305499 2.120001 -0.80199224 0.38891017 0.8583249 0.7131731 -2.0636697 -0.6437911 0.9558124 -2.0678997 -0.54805815 -0.5504495 0.9046504 -0.51411194
正 -0.22028886 0.21351464 0.26869705 -0.5899431 1.7449033 -1.0989978 -1.4623947 0.62474275 0.72600394 0.042796038 -0.8265451 1.8544374 1.2864176 0.3977631 -0.54714495 1.1456363 0.7449169 -0.97489893 -2.4342752 1.8689382 0.47391886 -0.10556321 0.45928273 -1.3205228 -2.2106395 1.692204 0.26407763 0.4998482 0.09839243 0.047892313 0.6210725 -0.6939684 -0.5797899 -0.20412816 -1.6447911 0.07151581 -0.7062224 1.0512158 -0.06541528 1.4443084 -0.5958351 -1.903864 1.553137 -1.0979086 0.42819923 0.7858795 -1.8640962 1.1850854 -0.52417445 0.6145553 0.15090515 0.24539962 -1.456487 -0.37873378 -0.052543566 0.71634924 0.61675715 0.300938 -0.5626005 1.6618716 -0.33802184 0.4356741 -1.1523665 -0.38635543 -0.112094685 1.1398984 0.6076801 0.44295886 -0.2977448 -0.015032249 -0.51049364 -0.74134815 -0.61640584 1.4868441 -0.5844164 -1.2230471 -0.7493996 -0.98281586 -1.939935 -0.41492438 0.41057777 1.0794073 1.7418908 0.06783867 -0.40462303 -0.47331557 -2.1816776 1.1342782 0.07908104 0.88967305 -1.0245979 0.4147392 -0.15799052 0.2533474 1.4438782 1.2699666 0.24237134 0.0010947223 -1.0899075 0.030472025
肿 -0.70891327 0.039646823 0.71006745 0.17524512 -0.8076629 1.0370544 -1.2240423 0.2011546 -0.032419022 2.683414 0.5378123 -1.4471365 0.12224779 -0.21532875 -0.8489879 -0.52220094 0.12613934 -0.25892445 -0.39514256 0.41331095 1.9943837 0.6211584 -1.2896361 0.20846415 0.25999275 -0.45372173 0.89824873 0.1122198 -0.6590946 2.4035106 -0.2337605 0.7474539 -0.026147235 -0.22751932 0.08985478 -0.09691936 0.3589743 0.9133212 0.44241467 0.5772276 -0.121157266 0.27469167 -0.6348079 1.4410398 0.8389779 0.9829619 -0.0098847635 -0.03960006 0.19622144 0.6568889 -1.9903746 -1.027322 -0.44175023 -0.23091035 1.2301219 2.7235465 0.09373627 0.38800275 1.6797584 -0.6253911 -2.0746913 2.1195433 0.99222046 -0.62625384 -0.089698695 -1.7980144 -1.7442741 -0.30707133 -3.422227 -1.8274448 0.7102527 0.38885495 0.22697683 0.33854637 1.7930936 0.65273553 -0.77161795 -0.19989198 -0.5116684 0.51970774 1.599591 1.2029381 1.1892675 0.42389795 1.1237516 1.9080966 1.0319254 0.39498076 1.0778595 -0.5933369 0.78164387 0.43191814 -2.2397778 -1.4136605 -0.33984554 -1.6177546 -0.6621329 0.6940125 1.5244799 -0.36331335
动 -0.98207235 1.248736 1.6192873 -0.24590294 0.34065187 -1.0771021 -0.6299628 -0.10402678 -0.5686963 -0.18136823 1.2153003 0.40910104 0.5144018 -0.43722188 -0.0034544799 0.26097968 1.3960228 1.3750929 1.2922114 0.9155327 0.39619544 1.2905415 1.716723 -0.04747975 1.7522905 0.3743419 1.0038863 -1.3980865 0.54005337 1.4847624 2.0214722 -0.29066315 -1.2817999 0.021074193 0.60438627 -0.7563141 -1.7443104 -0.14447816 0.60615385 -1.0687464 -0.778082 0.58947146 0.26744384 0.6584335 1.1287395 -1.1299906 0.9566212 -0.30170918 0.7233277 0.11789364 0.98254496 -1.5908916 -0.1696228 -0.9681243 0.03155125 0.35302952 0.5624951 0.44770128 0.8505645 1.7029448 -1.5010976 -0.98453224 0.0857647 -0.41514984 0.5567041 0.48454344 -0.13581075 0.44879 -0.5590268 0.45831436 -0.7688614 1.5956975 0.8696963 1.1279374 0.018669022 -1.7507275 0.61869156 -0.7110792 0.89901793 0.2870303 -0.32886863 -0.01510166 -0.8689382 -1.502345 0.2074474 2.1112807 1.9785503 -0.45131156 -0.3568726 -0.055512495 -1.3042144 0.26387286 1.0191355 0.44746938 0.25553024 -1.2441317 0.7158326 -0.64891595 2.8433833 -1.5901158
可 -0.9105384 -0.89909136 0.8967243 1.04303 0.8098792 -0.24733518 -1.1630849 0.0831806 -0.07774398 0.017609376 -1.90291 0.2828086 0.6985008 -0.84044313 -1.5658269 0.10678488 0.041778088 -0.9485318 0.4989357 1.1411793 1.2342918 0.42708528 0.76227367 -0.8678903 -1.8782464 -1.0746925 0.08698148 0.070694886 -0.11030037 -0.7863617 0.011278272 -0.22390974 -0.2245357 0.57196975 -0.5247616 0.5188769 -0.68319696 -0.5125947 -1.0948173 0.69130605 0.53686297 -0.5947817 -0.49690676 -0.30296114 -1.3177372 0.23232731 -0.85850525 0.14116123 0.19854853 -0.63429093 0.1525568 -0.9946281 -0.50539845 -0.6741302 0.27931336 1.5817487 0.9610082 0.5884613 0.90595496 0.4809508 0.38650104 -0.07182163 -1.2784431 0.13574241 1.3627234 -0.94123775 -0.74335146 0.75097424 0.4286337 -1.2407824 -0.021528088 0.814166 -0.5487365 1.0152891 0.12535028 -1.1194499 1.0880171 -1.053619 -1.3084182 -0.28778523 -0.096770495 0.5232429 -0.7693532 0.38482004 -0.44555742 1.1361852 0.3284417 1.3254489 -0.8720492 -0.11179321 0.32456842 0.4714439 -0.52168196 -0.56471944 1.0413225 -1.8025528 -0.33229238 -0.007358937 -0.6769022 -0.8057666
性 -0.7131662 0.31123924 2.0717936 0.7544034 -0.20219275 0.2463987 1.5667852 1.127283 0.45877397 0.457326 -0.17012379 0.31527588 -0.4177033 -0.51868564 0.24824636 1.2826242 -0.84799963 -0.5015056 1.4833972 -1.1111468 0.41205493 -0.325594 0.6663997 -1.7048607 1.6655809 0.31861958 -0.82267153 1.6023248 0.61489046 0.99019045 0.68381286 -0.28071383 -0.3521466 0.026424542 0.028916791 0.6897088 -0.5576261 -0.4277518 0.7213025 0.40573317 -0.06659437 0.49507874 0.8400439 0.080583565 0.24522364 -0.9443806 0.20627631 1.2363411 0.7456275 -0.7844155 -0.48862404 1.0835309 0.33036578 -0.39822042 -0.24278855 -1.0144095 2.011185 0.83683366 1.2887299 2.3571506 0.6414919 1.4206402 -0.20137794 -1.0087543 -1.427943 -1.4194255 -1.0611706 2.060845 -1.3249098 -0.48345923 -0.19894835 1.0358489 0.8992378 0.9112986 -0.94468975 0.69689715 -0.223814 0.9531718 0.13982892 -0.91578186 1.2702667 -0.9151129 -0.74629396 -0.7517038 -1.0383439 -1.1094633 1.7199302 -0.40210378 -1.1718742 0.62660974 -0.49861246 0.9118606 1.2175566 0.934193 0.8263139 -0.43640542 -0.20856427 -0.42429185 0.7787363 1.0055662
压 -0.55560637 -0.50497824 2.108312 -0.48784015 0.70378786 0.6190813 -0.70599985 -0.253385 0.5356634 0.46004188 1.0789059 -0.33588898 0.5558368 -1.3994365 -0.093923524 0.5407679 -0.77903163 -1.3988549 0.89144504 -1.2905902 0.7983812 2.0118935 0.016843267 0.051597957 1.2605355 -0.61323684 1.4105023 0.9642229 0.019937655 1.3538797 -0.061891105 -0.23887004 -0.7023677 -1.4324386 -0.21962218 1.1082577 -0.79792875 -0.19650136 -1.1981199 0.37715116 0.8167284 0.645378 0.23914705 1.4110742 -0.23357268 0.045807477 0.53525406 -1.2072273 0.8810272 0.24826178 -0.9326305 0.09495746 -1.8788625 -0.3615116 -0.37840012 0.28053385 -0.060033448 1.4560834 0.4348523 0.5905245 -0.92459136 1.9199374 -0.4009636 -1.0051385 -0.6158893 -0.5187357 -1.3080807 -0.9343481 -1.600453 -1.0893531 1.8338523 -0.2511042 -0.09477961 -0.58784884 0.63571477 0.19771142 0.05894531 -0.7592483 1.1864374 0.20733753 0.7791028 0.44671184 -1.0293188 0.76381284 0.44380975 -0.3691293 0.06469267 1.0658971 -0.92432797 0.14370927 -0.11551251 -0.9781655 -0.98525244 -0.03170352 0.26968 -1.2576766 1.6889149 -2.4076965 0.24240027 -1.0731581
侧 0.63831705 -1.0649586 -0.033111654 0.9214045 0.13990076 0.42347774 0.8953195 -0.120882325 0.61446494 0.19928455 -0.16477548 1.1390395 0.9218461 -0.27449644 -0.4023893 -1.0135512 -0.51822305 1.2918885 0.45693815 -0.24961653 0.065973304 1.500392 -0.5168295 0.854939 -0.8711075 -0.2780267 -0.51898396 -0.040913887 -0.21639664 1.1152271 1.0774957 0.27426687 0.12565282 -0.45734376 1.1509143 0.2954979 0.20622914 1.3163006 0.9097159 0.88805187 -1.2876756 -0.5226489 0.8671041 -0.28898138 0.1839175 0.95469886 -0.14696169 -0.24037565 -0.5461038 0.5259763 -1.0414933 0.32863227 -1.2319393 0.29702067 -0.03837917 0.8863384 1.2966183 -0.32953045 -0.04745281 0.97429264 -1.437222 1.2491592 0.11268144 -0.30933815 0.24427702 0.6508869 -0.22755736 0.40376356 -1.214129 -0.9840407 0.67379516 -0.38823378 -0.13924427 -0.4085495 -0.2771322 0.1748604 -0.7047379 1.1397656 -0.033703502 -0.29880813 0.090455405 0.3035823 -0.1270531 0.32850683 0.48322135 0.83545476 1.6779431 1.5913932 0.09448807 -0.45855087 0.7727034 0.77043664 -2.0788589 -1.2426372 0.7666216 -0.1661533 -1.2886914 -0.12716468 0.21154653 0.5052812
触 -0.2479176 -0.37999582 1.3120967 0.94536585 0.670732 2.074418 -0.7644939 -1.0974438 1.5175533 -0.024369674 0.613264 -1.6074152 0.5081183 -1.8855114 -0.45112932 -0.6010203 -0.5216585 -1.148193 1.4820511 0.75784016 1.3458227 -1.7917773 -0.71217215 0.6726616 1.166635 -0.25269258 0.33746687 2.2505562 0.35882708 1.4879497 1.5464056 -0.71760935 0.106790215 -0.83138275 -1.5638112 1.5846213 -0.7450567 -0.21483056 0.8496818 0.8487478 1.1587664 0.119720645 -1.0714988 1.1207547 0.944865 0.15425836 1.3868477 0.49401137 2.463005 0.6128436 -0.46737614 0.98548394 -0.571752 1.1823328 -1.0647926 0.37216622 0.010167082 0.43693793 1.3319561 0.43806335 -1.066671 3.0214634 0.08518328 -0.36803532 -1.0948257 0.47932482 0.7094946 -0.64642924 -1.8043188 -1.972732 1.581799 1.1424862 0.98255056 -0.10773332 0.73712736 0.28973678 -0.85191154 -0.76358676 0.4117953 -0.054208647 1.1325663 0.956159 -0.10529477 0.3063287 0.8493879 -0.7139784 -0.084320225 0.38358662 -0.2925277 -0.11356171 1.0139457 0.2557331 -1.2024968 -1.0499452 -1.3043661 0.5444318 0.19698265 -0.13178988 1.0952913 0.008770546
体 -0.65909874 -0.16673142 -1.2676792 0.18012024 0.3541357 -0.4237142 0.02873405 0.11063335 0.11202968 0.29139495 -2.5292869 0.4174901 0.52405494 -0.084543854 1.3309036 -1.1136819 0.87370354 -0.57901037 -0.40904316 0.9755099 -0.6586526 0.052364178 -0.5019796 -1.6122899 -2.1018698 -0.9007008 -1.0497661 -2.0079172 -0.24747348 -0.2558182 -0.20596889 0.23585767 0.03626883 -0.27039802 -2.0022883 -1.0074847 -2.2856348 -1.1884012 -1.3760333 1.0755727 1.2005194 -1.4026276 -1.4400396 -0.29316178 -2.3026865 0.48791397 -3.5621154 -0.024032963 -0.0725405 0.20945567 -0.770982 -0.95941156 -1.1672329 0.64080673 0.42396855 1.0504134 -0.39400598 -0.39385152 1.5341092 1.630131 1.6488119 -1.4036857 -0.41373497 1.7975576 0.48965105 1.420404 -0.24082586 0.95513064 -0.23493943 -1.0670514 -0.2715331 -0.6464354 0.50711423 0.7104768 -0.826329 0.56100184 -1.0835195 0.68100804 -1.4656705 0.3751156 0.4503869 0.8015637 0.54885674 -0.37840235 0.22603631 1.2396944 -1.6053706 1.079772 -1.73132 0.34736368 -0.67680717 1.8062383 0.19831201 0.60663587 1.0561533 0.92855734 -0.2992492 0.697471 -1.533976 1.093696
神 0.33937597 -1.1821564 -0.635919 1.3949233 1.404376 0.17079669 -0.87995 0.16805568 1.0269539 -1.1121855 -0.008662512 0.26717517 0.6221306 -1.5559024 1.1334527 -2.1654985 0.99175066 -1.4614334 -1.7005987 2.563317 0.10011933 -0.49698493 0.83563304 -0.40139174 -1.4714997 -0.7397305 0.17588656 -1.3210809 1.4613963 -0.93944377 0.08730557 0.19915448 -0.14805587 0.28355908 -1.3073007 -0.6382582 -1.0229255 -0.6478946 -0.40953964 -1.221162 1.5736514 -0.73606986 -1.9276168 -0.9415705 -1.556976 0.40580046 -1.69866 1.0726728 -0.6959974 -1.1433889 0.17336346 0.084411755 -0.06461186 -0.05662672 -0.350424 0.73095363 -0.9743969 -0.7450137 1.7120996 0.3027652 0.5333382 -0.8143695 -0.37566963 0.8905757 -0.077781655 -0.9536909 0.16886285 0.7308557 1.8807136 -0.78627217 0.0179618 1.6195399 1.7241403 0.7018843 0.20797037 0.5906796 0.7923411 -0.15363975 -1.2051078 1.3148742 -0.47873884 -0.6512173 -1.0068029 -0.8670288 -0.20696525 0.7428207 -1.7403032 0.25334236 -0.75129414 -0.11953085 1.1669478 1.3748485 -0.27767503 0.21977502 -0.40145183 0.31505337 0.113796584 0.85896957 -1.915896 -0.70688146
查 -0.4117325 -1.9478192 -0.5568981 1.3363123 1.6616005 -0.27728057 -0.31972352 -0.54295623 1.3831005 0.016988093 -1.2533556 0.6716677 -0.46052366 0.8233037 0.78260773 -2.4613278 0.67143357 0.6563577 -0.2615438 0.48448896 -0.10653033 -2.0582378 -0.72277254 -0.36986768 -3.168963 -2.2083287 -0.14642458 -2.1100218 -0.06336472 -1.1585389 -0.20912425 -0.73118097 0.81443495 -0.48153645 -0.93593144 -0.48739168 -1.4779283 -0.32718083 -1.2110615 1.0236262 -0.31148848 -2.6056604 -1.1275682 0.49452683 -2.7047918 -0.15067483 -1.4626626 -0.8464872 -1.9638014 0.12093607 0.5637699 -0.19164537 -0.76178366 -0.510254 -0.24985173 -1.5515655 0.20633212 -0.74511456 1.421505 0.14763913 1.4126533 -0.39804253 -0.7762412 1.4364201 0.04702576 0.8190789 -0.008903284 1.0764549 0.52436346 -1.6067299 0.20926814 -0.6262417 -0.52329844 0.59423864 -1.4637207 0.5058259 -0.57919765 0.06443001 -1.8304063 0.34788558 0.9863008 1.6520854 -0.36935917 -1.203712 -1.8300501 0.2876532 -1.281318 0.3118704 -1.3796244 0.02780446 -0.034132734 1.1035165 -0.405878 0.72204053 -0.61621004 1.9534582 -0.7635663 0.7487024 -1.2834918 0.95925134
见 -2.3211482 -0.4220067 0.6166395 -1.742117 -0.17757827 2.3265023 1.0143899 -0.76848614 -1.1046538 -0.7790862 0.11030436 0.30186298 1.2035428 -0.29086533 -0.9285077 -0.41745704 0.10896551 0.3981593 -0.038320046 1.6420625 1.8722403 0.07913406 -0.56362325 -0.5308273 -0.45141867 -1.3671051 0.8388226 -1.1398926 0.17928538 -1.618841 0.78235286 -1.5859962 1.9199278 0.41963327 -0.35753468 -0.56120956 -0.5261165 -0.20385905 -1.4962512 -0.21652865 0.7925013 -1.6826928 -2.2407634 -0.7074532 -2.0474088 -1.2447679 -1.3196902 -0.45425004 0.65277827 0.48236775 -2.1560464 0.876248 -0.3521772 -0.79343325 -0.30746192 -1.3590813 0.58735865 0.0026646242 2.246602 0.4911073 -1.0541457 0.9515321 -0.6183514 1.342046 -0.01930189 1.0791665 1.036845 1.7255795 -1.7147915 -2.0991123 0.07989972 -0.07770738 1.3905762 1.0503038 -0.29618266 1.5587282 0.070384495 -0.18215734 -0.53727853 0.021538114 1.9733113 1.1235074 -0.0038848221 -0.10391769 -1.3610438 0.046064626 -1.2679754 -0.73208237 -1.2932403 -0.67236584 0.28008986 -0.3398741 0.38617653 0.066244446 -1.6583248 1.4819707 0.58533347 2.1127384 -0.2051441 0.90854657
患 0.96262246 -0.03646815 -0.80939865 0.90229905 0.09766374 -0.41658607 -0.610804 0.3649275 0.4980884 -1.3444194 -0.701898 1.1462337 -1.62493 0.27732977 1.1343052 0.30215448 1.467711 -0.7864753 -0.5583821 0.7706662 1.2807949 -0.10111817 1.3895998 0.0931723 -0.30778587 -0.92662716 0.7909432 -1.1292579 1.0445801 -1.5090911 -0.4193471 -0.02200033 -0.5253996 0.61439514 -0.36347866 1.0033878 1.1346793 -0.62785065 -0.014031883 -1.7204481 1.7234962 -0.17269616 0.36495692 -0.5146992 -1.2684349 0.15433092 0.36667588 -0.5066655 -0.45005396 -0.96575314 0.3883586 0.8939299 -0.4801708 -0.6306091 -0.08254264 0.20496264 -1.652474 0.44876194 -1.0321596 -2.554417 0.22659339 -0.80897766 -0.058817502 -0.1946663 -1.2142967 -0.047751464 0.8326747 0.28894374 2.622571 -0.24452427 -0.9651587 3.282313 1.2497613 0.7438182 -0.19750455 0.9157783 0.6426913 -0.45552024 1.5498794 0.24617352 -1.1898468 -0.68756604 -1.1672415 0.60636795 -0.25596294 1.0658417 0.06596937 -0.24007784 -0.4332147 0.6690715 0.75038695 0.31946692 1.1686101 -0.4602568 0.59856087 2.0361722 1.2272924 0.29942513 -2.3475535 0.61396843
者 0.28023985 -0.3857916 -1.1845809 1.3928303 1.7656131 -0.06299089 -0.48284084 0.8141582 -0.69796306 -0.67486537 1.3845059 -0.62514293 -0.6219375 -1.030286 1.0925151 -0.7038758 1.3983765 -1.0941516 -1.4308057 0.28472143 0.7112219 0.18347138 1.1292535 -0.40553248 -0.6974409 -1.4095372 0.9969159 -0.007946082 0.6254571 -0.88291776 -2.0385933 -0.29374668 -0.67805165 -0.2912363 1.334696 0.9118393 1.2815815 1.4514173 0.56144637 -1.2588141 0.72035444 -1.3493316 -0.24235928 -0.49679348 -0.8690087 0.8592848 -0.3599239 0.010489207 0.29087156 0.04719395 -0.027336638 0.24707662 -0.242679 -1.2730011 0.7198938 1.0608498 -0.69160837 -0.17340691 0.47890636 -0.8376733 0.8240259 1.0542177 1.3978274 0.13697688 -0.3940588 0.28075597 1.1606224 -0.43070924 2.8387523 0.7693764 -0.53740865 2.8514962 1.5054247 0.9530485 -0.6289216 0.83725 0.84556484 -0.25575045 1.4332685 -0.043021087 -1.0596992 -1.9690795 -1.2743675 -0.13094781 -0.14544877 1.3383121 -0.7266714 0.009335743 -1.917308 -0.20018801 0.9408323 0.94243544 0.4186829 -0.43202105 -0.05293987 0.46838847 0.46733215 -1.3417608 -2.9532347 0.7087288
心 -0.7198756 -1.3042762 1.6816498 0.09149658 0.97674626 0.34363523 -1.2092568 -2.0135043 -0.39037284 0.1881034 -0.7495587 0.8794145 -1.3151476 0.4044176 0.18979248 0.10037212 -0.017891342 -2.1600668 0.0689244 -1.4261531 -1.6525122 -1.114383 -1.322291 -0.2105387 -0.9993701 -0.7362607 0.52839357 -1.1144441 0.5725231 -1.0214436 0.33027202 -1.5665042 0.93267184 -0.5749925 -0.33795258 0.46448967 0.36451766 -0.36064824 -0.38395363 0.6662839 0.71393293 -1.185187 -0.567979 0.079035245 -2.3513696 1.3662177 -1.1777422 1.2087553 1.4491857 0.7369659 -1.4719191 0.4097763 -0.2853691 1.0257066 0.9729625 -0.081303015 -0.48437777 0.65601164 1.8395582 1.0158938 -1.0896631 -0.1424834 -0.5118848 1.6697259 0.06681746 -0.73987085 0.080794945 0.7716062 -0.5951505 -1.0072522 1.4611996 0.69970053 -0.20046629 0.9683018 0.98081684 1.2069719 -0.3826898 -0.6290094 -0.66422164 -0.5804817 0.6951173 -0.56090504 2.0545805 -0.3074785 -0.8444555 -0.31490302 0.7434626 -1.6024559 -1.7976505 0.05473818 0.1418704 0.004211529 -0.29140043 0.78285074 -1.4373891 -0.17349613 0.1765429 -1.177617 0.47495797 0.33035803
、 1.5063206 -0.32786646 1.019706 -0.121193275 0.094291955 -0.31246623 -0.16074283 0.24184199 1.2184488 -0.54976034 0.50931877 -0.14250337 0.7170062 0.1348349 0.064250045 -0.38931796 -0.05513824 0.777336 0.6811083 -1.2549942 -0.64298046 1.1780372 0.16280083 -0.80254775 -0.56731707 -0.16965915 0.47578126 0.1310489 -0.045664243 -0.5962694 0.8437803 -0.47563243 -0.5328467 0.36624324 0.8922722 0.5882642 -1.3495102 -0.47869882 -1.4351983 1.7424177 0.09446152 -0.1584153 -0.2067147 0.36663884 0.75609213 0.528631 -0.5351617 -0.20354564 -0.008621872 0.39201018 -0.5974121 -0.43194774 -0.6923231 0.7706827 0.8774737 0.34717017 -0.4839979 -1.0049129 0.58305454 1.2179939 0.3202343 0.10527878 -0.35711566 -0.22120835 1.7701197 0.22530828 -0.29018164 -0.14512628 -0.15389955 -1.1790116 0.7402041 -0.8515425 -0.07486616 0.14999036 0.14873153 0.27583438 0.05630149 -1.2825872 -0.90934813 0.52858156 -0.34953615 0.693437 -0.28869316 1.0548095 0.7896233 -0.5444011 -0.70135653 0.4147736 -0.9929587 0.586481 -0.751306 0.600945 -0.3472145 0.052322987 1.0178535 -0.8468668 -0.049060035 -0.48903236 -0.57775825 -0.78290206
： -0.120949276 -0.938428 -1.2541162 0.11218986 1.1271551 -1.9287018 -0.3985641 0.6251937 -0.30664086 -0.7059382 -0.6805251 2.4486315 0.036870666 0.7503934 0.4958069 0.20328966 -0.770066 -0.37730432 -1.1704932 0.79005027 -0.38498238 -1.6141801 0.8375789 0.07241453 -1.7594078 -0.7538105 0.08913143 -0.72715914 -0.03738018 -1.2180411 0.5650373 -0.7285233 -0.3247521 0.16849788 -0.52646863 -0.24632274 -0.5217033 0.5790621 -0.34093103 1.4144615 -0.59836197 -1.3238376 -0.7171893 -0.8388004 -1.8501915 1.1670574 -2.3076925 -0.85669357 -1.7259508 0.75620556 -0.5091825 -0.6578662 -0.5191382 0.6528253 0.57122123 0.1627858 0.03618005 0.3118197 -0.28539163 0.30105692 1.1349812 -1.7817936 -0.112558514 1.1580533 1.1590846 0.7903157 -0.111419246 0.7553729 1.2101935 -0.59289336 -0.2172207 -1.350914 -0.083907485 0.48276645 -0.64347273 -0.31930944 0.12794255 -0.5312996 -1.690477 -0.7783244 0.88493407 0.42445397 0.21353239 -0.93450695 -1.7977073 1.1043051 -0.6323625 -0.63064677 -1.8575563 0.7459254 0.36969817 0.055620246 -0.21890335 0.42530158 0.57522213 0.31222382 0.09068046 1.324856 -1.5112808 0.45895067
肺 0.2525774 -1.1095035 0.75555706 1.3984082 0.33125636 0.7920007 0.4415481 0.8611067 0.42457044 0.8949598 -2.0582178 1.2895535 1.0883322 -1.037034 0.054778595 -1.6076549 0.124604695 -0.72925484 1.8575629 0.75182843 -0.62225914 0.2425512 0.0920954 0.38340336 -0.699938 0.10500512 -1.6658424 -0.41417462 1.4512156 -0.005858915 0.9276923 -1.524085 0.5842495 1.424963 0.17412126 -1.0742716 -1.3217031 1.1312371 1.2440562 0.07087719 2.1134553 -1.1896652 -1.9308407 -0.47095454 -2.0205615 0.9386093 -2.2213356 0.78770435 -0.30198815 0.4313635 -0.99345094 0.0072269673 0.6422748 1.4808317 0.5390161 -0.4067849 -0.39050823 -0.5204307 2.3906295 1.6750169 -0.6838279 0.053961277 0.6902197 1.8177056 -0.23563185 0.65331084 -0.793332 1.8720683 0.28663388 -1.7797861 0.04871121 -0.05313077 0.5738892 0.80909896 -1.479166 1.9242599 -0.31286666 0.72492695 -1.9480591 0.179331 0.69990504 -0.2521069 -2.2580492 -1.7982209 -2.7319264 -0.51710165 1.669304 -0.85422164 -1.1933964 1.2135844 -0.10018165 1.2363191 -0.8202459 0.95711005 -1.3696586 0.4612958 -1.3019246 0.47912195 -0.17756939 0.7927374
区 0.15085393 1.4307407 2.2486968 0.04887691 -0.69595385 1.0788922 -0.8155686 -1.6080576 -0.042001367 0.30910882 -1.2592943 -0.113922544 1.3002906 -1.6054485 -0.83344203 -0.7002284 0.5652129 0.3850216 -0.4768558 -0.7411224 -0.026359746 -1.0230162 -0.78098136 -0.23473528 -0.630295 0.86722934 0.13443889 1.7741878 -0.08220344 0.6566062 2.3444717 -0.6264998 0.5456102 -0.9075732 0.6226656 1.2178283 0.033115923 -0.093062356 0.13308884 -0.020669207 -1.0098736 0.90455866 1.4258981 -0.4263077 -0.8572903 0.89289325 1.7519908 2.1183112 0.7597425 -0.15065975 0.4177973 0.030279085 1.551029 0.50139093 -1.5178676 -1.3740453 -0.62868583 1.0450747 1.2486473 1.5684626 0.060297843 2.3224409 -0.8392046 0.265419 -2.6722653 -0.5833778 -1.0601655 -1.0539352 -0.82906806 -1.5246409 0.32712838 1.7306005 0.64014554 0.45548356 1.6964688 0.0030193555 0.16334815 0.96946514 -1.0400246 0.038603853 1.9330735 0.14694475 0.6583453 -2.2485847 0.47227874 -0.075868376 1.629816 2.2202797 -0.76761585 0.35251895 1.3368552 0.9651649 -0.4007381 -0.11059696 0.06778 -0.28045017 -0.37880844 -0.9511763 1.0143079 0.97108644
反 -0.14989437 -0.35317263 2.704295 -0.19047104 -0.23416457 2.3532948 -1.0744945 -0.77263033 1.2016546 -1.6614162 0.18991603 -0.040760156 0.00690245 0.05725024 -1.3592457 -0.5636709 -0.7766682 0.24039543 -0.089327104 1.3800014 -0.07466797 0.7230807 -0.73642266 0.09826774 -0.36362582 1.2215269 -0.15890954 2.1624293 0.13540405 1.6384586 -0.33488 0.19524613 -0.6853194 -1.8439164 -1.4088901 1.313485 -1.3083582 -0.8995601 -0.85832584 0.34975255 -0.18907279 1.3159637 2.1520376 -1.2261505 1.1250478 -0.1256674 0.16435093 1.5756754 -0.45016614 -0.13662717 -2.0798714 -0.736443 -0.8859474 -0.37377855 0.69499546 0.11460609 1.0290395 -1.672629 -0.72000355 0.64226204 -0.2966028 2.2413328 0.96431804 -1.0243498 0.73666257 0.43374208 0.5190652 0.098631606 -0.97510755 -3.1335595 1.7298223 -0.57587415 -0.665296 0.9906111 1.8278441 -0.796732 0.2571309 -1.3458587 -0.2339153 0.24289715 0.6757434 -0.78988993 0.17022124 1.4094688 2.9562242 -1.679294 -0.4445855 -0.3894108 -0.47532782 -0.5770853 -0.6253792 0.14199933 0.76498365 -1.3765196 0.08353436 0.98151547 -1.6165909 -1.6202576 0.5197926 -0.17886022
尿 -2.4371436 2.0904677 -1.6261245 -0.7814206 0.4501324 1.7588934 -1.8630166 0.04375905 0.025695542 1.5920525 0.46263996 0.42537084 -1.375054 -0.52383834 1.0368129 0.8057616 -0.28823107 -0.62651986 0.52467823 2.0674372 -1.0254983 -0.7387401 -1.2938466 0.7773562 -1.004091 -0.9242893 1.326203 1.5453112 -1.5295194 0.6106608 0.2696389 1.3501115 -0.81419754 -1.5615882 -1.5355388 -0.6736492 -0.8773054 1.0238358 -0.92158085 -0.6837884 0.18027933 0.15049808 0.55637 -0.42422903 0.43779936 0.14285885 0.80114394 -0.67522573 -1.2760079 0.67237645 -0.73805183 1.284135 -0.3028999 0.6293052 0.32737973 -1.065262 0.86307496 -0.08669793 0.7467933 -2.1793706 0.86189634 0.51007295 -0.3046067 2.5598578 0.6255503 0.44747856 -2.1376708 -1.4100895 0.62440443 -0.24246372 1.9582237 -1.0967706 -1.1438457 -0.24577294 0.9785128 -0.38032627 0.90658283 0.06781833 -1.9669176 1.1013702 0.27671438 0.48852327 0.27211276 -0.71782136 1.6079376 0.6564977 -0.58938795 1.2056485 1.0566212 0.099070184 -0.9285416 0.8094225 -1.6242394 0.01221096 1.5689071 -0.82796705 0.2200035 -0.13124466 -0.044982955 -1.3913556
清 1.0749758 -1.5597222 0.057305694 0.9549774 0.9716529 -0.7973196 -2.1616008 -0.26091093 1.0975823 0.43667552 -2.9405832 1.2300059 -0.06901162 0.48292565 0.73377454 -1.0462073 0.06530853 0.19184667 -0.1159446 1.3945991 0.34176534 0.16698688 0.55391824 -0.53304994 -1.1226037 1.1577722 0.33242956 -0.51098317 -0.14616866 0.11736518 0.044763796 -0.6968276 -1.0373751 0.85156745 -0.21105368 0.17471534 1.2106764 -0.3995593 2.3882957 0.29888383 2.2317 1.2937825 -1.9423704 -0.64569736 -2.9350605 1.3268706 -1.9823054 1.4138758 -0.38587642 0.25263956 -0.18940337 -0.6482001 -0.22907093 0.6186857 -0.18019086 0.21483181 -1.6473143 -0.82408106 2.760726 0.75914943 -0.9904667 0.2096701 1.2943257 2.1703959 0.073627464 -1.1485821 -1.0114764 0.9276833 0.1703168 -0.67239374 0.30856705 1.9974223 0.48797655 1.6129535 0.10592832 1.45902 -0.6518299 -0.327925 -1.7998767 1.1813761 -0.5151461 -0.08021359 -0.8395818 -1.0555007 -1.5715647 -0.06831272 -0.76942515 -2.1950316 -0.94940794 -0.87015563 -0.033212397 1.0118293 1.2166978 1.6204934 -1.3527845 0.23910487 -0.9315678 -1.3781914 -0.016887497 0.8666335
分 -1.2727691 0.21850447 -0.034302752 -1.662548 0.4943724 -0.31095675 0.33902732 -1.7253878 0.06591606 -0.6481234 0.48960283 0.009333785 0.6106127 -0.88343066 -0.031563718 -0.63504416 -0.64005864 1.0323504 -1.0431631 1.5216516 0.43506253 -0.6105572 -1.7718896 1.2160215 0.03711186 0.26447296 -1.1775702 -0.39264968 0.6634884 0.57456756 -0.749767 -0.7152355 -0.42855942 0.19953537 0.94833404 -0.7380344 1.3559334 1.3984587 -0.22052754 -1.5494232 -0.7185196 -0.7746026 0.8343246 -1.8136114 -2.2110975 -0.6370845 -0.52116066 -1.9943018 0.80695564 1.4505751 -1.9445655 0.042689368 0.78096086 1.209708 -1.1204168 -1.5790193 0.5130172 -0.51670104 -0.90365434 2.8030398 -1.133173 -0.9578007 -1.4811757 -0.5280924 0.44188374 1.908137 -0.9059267 0.80765605 -1.7232691 0.032868035 0.58984035 0.22672528 0.3769337 -0.61234885 0.5687021 -0.6352599 -0.5269822 -0.48721358 -1.2804475 0.020836806 -1.4968952 0.8589602 0.018583566 0.12856217 -0.32914287 -0.8274697 0.100052804 -0.46165833 2.129053 -1.0116659 0.86050254 0.007939554 0.89808846 -0.95309526 -1.9303102 0.699748 0.71034724 0.034896415 0.15466775 2.6464956
异 -1.7103664 -0.46580637 2.8948028 -0.49741164 -1.0432602 1.537596 0.71735424 -0.2714801 -1.3345895 0.46864027 -0.98796624 0.9657713 0.5329737 -0.28853905 -2.6239705 0.30095372 -0.30967563 -2.319196 -1.1951138 -0.21591575 -0.2871842 0.21014935 -0.13418663 -1.0182278 -1.3678786 -2.0035071 0.80774957 -0.8230722 0.6178523 -0.2642056 0.73576593 -2.2459345 1.3896283 -0.27105832 -1.3951147 -1.0118177 -1.1597108 0.98290056 -1.3237922 0.0978765 -0.5978734 -3.6425376 0.6016679 -1.3586944 -1.6629151 0.46271324 -0.8588958 0.42350277 0.55415 -0.48225877 -1.2772833 -0.01683979 0.9932926 0.89156276 -0.9416311 -0.5156454 1.1201049 0.567814 2.056106 -0.77857345 -1.996166 1.2031704 -0.94110703 1.3472152 0.7240745 1.2368984 0.61698186 2.0631433 -1.5140946 -3.249198 -0.873891 -0.3018937 0.058331866 1.2073286 -0.5999485 -0.9693683 0.27579868 0.7837933 -2.0531049 -0.22743936 3.732771 0.39443293 0.25403586 0.18496773 -0.9681161 0.71192336 2.428227 0.36617032 -1.3793038 -0.23840179 1.4783177 1.1133077 0.8046651 0.15973812 -0.44459438 -0.44913027 -1.2768333 0.091873445 0.5751773 0.8257442
肢 0.9639669 -1.8445143 1.0158793 0.14627388 -0.098002955 -1.3899797 0.66860867 -0.89404863 -0.05404744 -0.16931991 1.478983 0.3436148 2.3915894 -1.3273355 -2.6802087 -0.06563174 0.07658554 1.7093451 1.2811085 -0.46945995 2.128564 2.11353 0.49794105 1.1334325 -0.33511624 1.9768331 1.7874423 0.23861474 0.9481757 2.0442653 0.11127146 -1.276069 -1.7388417 -1.071062 0.61068946 -0.6337759 -1.1332119 2.8065248 2.3996205 0.09505243 -0.5772833 -1.7180178 1.4497509 -1.0051832 1.3247596 -0.6749913 0.35765538 -0.8849113 -0.07541862 -0.1709741 -0.064166754 0.19966619 0.03111256 -1.0513701 -2.6308002 0.47400552 1.2276453 0.20779434 -0.8827401 1.1030254 -1.8302503 0.7686209 1.513837 -1.8071586 -0.39813253 0.17829615 -0.065481916 0.93327427 -2.410364 -0.74297905 0.25739828 0.09567608 -0.81118745 0.16219915 1.1694993 -2.2951577 -1.2996688 -0.21497975 -0.16224958 0.69769806 -1.1469947 1.3221337 -1.1373483 0.14070286 -0.23696019 1.1274765 1.0217918 2.2340608 -0.9739309 -0.6800869 0.33129245 0.0503919 0.22794712 0.27774885 -0.31297863 0.25881895 -0.53669816 -0.42341676 1.1787921 -0.9832264
便 -0.9078578 -1.4191185 0.09035681 0.69020575 2.3857954 -0.40357023 -2.216902 -0.8261762 0.77053374 -1.2069883 0.42641515 1.4643377 0.25717953 0.67785907 1.243673 -2.0206609 0.42846313 0.09537955 -1.638498 1.5948211 -0.6514747 -0.47390684 -0.5731993 -1.5315945 -3.3746054 -0.14603265 -0.031104777 0.10562761 -2.0377302 0.8799932 0.6901278 -0.04096713 -0.95381504 -2.0770664 -1.982406 -0.2248419 -1.6805464 -0.79902554 0.058750432 1.2042193 -0.17294042 -1.893613 -1.029864 -0.9670722 -1.6079818 0.62885433 -3.1092882 0.15778612 -2.209803 0.3785706 -0.11747557 0.46487358 -2.5826166 0.12235221 -0.019314777 0.1480052 0.5087494 0.41195977 0.050397377 1.1170627 1.3698004 0.29213044 -0.18032679 1.4017454 0.25169948 1.7143755 -0.716689 0.7364625 0.8767339 -0.68107975 -0.35156938 -1.5326709 -1.4506738 1.0346057 1.3782511 -0.15317303 -0.48645714 -0.83990926 -2.8532546 -0.8973397 0.64460844 0.6512908 0.8572423 0.2851567 -0.06430491 1.4025667 -2.3663154 1.3526363 -2.1767957 0.119497724 -1.3057228 1.6623236 -0.4872842 -0.1871076 1.7371602 0.5881738 -0.29271358 1.3448572 -2.7902043 -1.936192
胀 -0.61072844 0.4356853 1.9912308 1.4485452 -0.91678977 2.2181637 0.6848079 -1.4706484 0.51664525 0.7924818 -0.34692502 -0.7860607 -0.2352931 -0.12801687 -0.9913812 0.35735396 -0.8438263 0.4610138 1.1619624 0.39352113 -1.0649499 -0.6861533 -0.45873803 1.1228136 -0.7382328 -0.16713952 1.205855 -0.66839963 -0.65273285 -0.15410346 0.15402178 -0.09841293 0.18200059 -0.87288505 -1.0104263 -0.863241 -1.4407486 -0.3168264 -1.6011808 -1.9722114 0.3544125 0.99577314 -0.50268924 -0.3907074 0.4184974 0.518166 1.1872631 -0.9657931 -0.40945598 0.3379148 -0.041255694 -0.7456426 -1.1446819 0.3376732 -0.7024378 0.7678489 1.7257339 -0.3253984 0.5911916 -1.0264813 0.1636464 1.185587 -1.0374861 1.04911 -0.089812905 -0.86283344 -0.80894107 -2.3799753 1.0760216 -1.9993249 2.8787 -0.003924649 -0.5497426 -0.83927435 0.9182948 -0.605786 0.5496505 -0.15091534 -1.0094984 1.2962999 -0.583539 0.1691896 -1.3246355 -1.0006498 0.86285484 0.1332629 -0.5614447 2.4156358 -0.4094481 1.5441809 0.096523635 -0.50751007 -0.8623153 -1.7068408 1.8188742 -1.0408894 -0.94561183 -2.4962435 0.50571245 -1.7529576
口 -1.5132219 1.1723834 -0.3036607 -1.5207986 0.0050383313 -0.46459132 -0.35743997 -0.86407673 -0.89339566 0.14834894 -0.2587135 -1.2618134 -0.28236547 1.3370124 0.3059026 1.0838856 0.005213828 1.6106514 -0.5038493 -0.042569514 1.3035102 1.4160775 -0.33371282 -0.24080339 1.9606235 0.77899414 2.201413 -0.10233343 0.14524738 -0.51364154 -1.0669466 -1.000999 0.7003713 -1.6867468 -2.0600715 0.57261103 -0.47102162 -1.2016177 -1.4358668 -2.1642911 0.9388773 -0.22280437 1.5597912 0.014721049 0.3106039 -0.34150964 -0.25342318 -1.0087824 0.09402558 -1.0434147 -0.62403566 -1.4365124 1.2552053 -2.584628 -0.20538811 1.1614938 0.5190743 -2.575128 1.1007202 0.03756847 0.47988144 -0.49923596 -0.2083302 0.93416095 1.7400777 -2.2980053 0.45252433 -0.23502022 -1.9401569 -0.97048676 0.7454462 1.2599945 0.063819185 0.65320975 -0.091797054 -0.063383445 -0.7481938 -0.22417971 0.4958119 0.2635967 0.9197149 -2.204881 -0.7441035 0.54301196 0.223559 1.1541692 0.014205111 1.6261903 0.4613449 -0.664897 0.21480286 0.33644596 0.8409877 -0.377973 0.23123313 1.6707785 0.41207653 0.6061714 1.5177443 2.8433201
肌 0.5406284 0.3312365 3.25173 -0.09894411 0.61515784 0.21671064 -1.7203355 -1.4012765 0.23869522 -0.43360916 1.5941329 -0.4130182 0.034452196 -0.07779207 -0.52445555 -0.115052745 0.1411838 -0.4562458 1.0317038 -0.33547032 -0.66716456 -0.19434439 0.22379442 -0.043891583 -0.28308293 1.2496513 0.5106969 1.7339796 -0.25865632 1.9621366 0.4823714 -0.65743536 -1.4540795 -2.0828416 -0.83072114 0.6020103 -0.95416147 -0.55863434 -0.90435964 1.6067252 -0.24602096 -0.021568473 1.5626993 -0.5245198 1.4503914 -0.1570762 0.19333562 1.708787 1.9862463 0.7374688 -1.5274578 0.07784018 -0.7432143 -0.95280606 -0.865641 -0.00459206 1.3371776 0.30992767 -1.3340809 2.1751595 -1.2269552 1.0046545 1.2125795 -1.225199 0.41502815 0.5862188 1.1100943 0.27323803 -1.1405916 -1.8456664 0.5231402 -1.7350644 -0.6108078 0.75123554 0.8799754 -0.808432 -0.8428627 -2.2809944 -1.5244217 0.34975836 0.1870643 0.4008238 0.36014906 1.0495803 1.6916662 -1.5262419 -0.19937797 0.8766096 -0.8989888 -0.9779791 -1.6683913 0.14619303 1.7086943 0.3270297 0.90248424 0.53244114 -0.9592492 -1.892444 1.1593636 -0.07447209
右 -0.8642223 0.2663676 2.1996756 0.31344178 -0.67059904 -0.9164128 0.46318397 -1.172561 -0.33797917 -0.05691766 2.0340543 -2.1555247 0.7505808 1.3415 -0.51123047 0.08992853 1.1822234 -0.228734 0.9157922 0.41442892 0.87735367 0.79218674 -0.15125702 0.60219157 0.633192 -0.3183036 0.7025871 -0.74661493 0.084478185 -1.4127698 -0.3738919 -0.47718704 0.71398294 -0.40206394 -2.3416412 0.02020196 -0.7682503 -1.0511938 -2.123626 0.7303902 -1.1832378 -0.48051673 0.5309656 0.07999649 1.8540448 -0.06562015 0.961946 0.24961591 1.1352564 0.41341224 -0.06385105 0.55308485 -0.30298027 0.95749265 0.8682325 1.6992818 -1.0907819 -1.1662478 0.16416703 0.017301248 0.6536877 0.75078076 -1.3864645 -0.2569778 -0.15888491 -1.9169074 1.4832206 1.3776585 -1.3855407 -0.73069227 0.6021115 0.36367393 0.65480596 -0.898921 0.6494761 0.25428554 -0.27353945 -0.25247204 0.079988256 -0.6658043 -0.9320771 0.6265274 1.011377 0.9970144 0.84134424 1.3037962 -0.31711695 0.6514787 0.7039643 -0.30227345 1.7515568 -0.93510157 -0.15022467 -0.6067523 0.99340975 -1.2366182 0.068567306 0.4017256 1.6165818 -0.6626407
阴 -2.3667245 1.3176221 1.5340273 -0.06879585 0.100889646 0.5387883 0.02222539 0.5859986 0.98233885 0.41537115 0.4829888 0.636168 0.3785016 -0.7453606 0.3770788 2.026427 -0.42065373 1.1187057 1.9780679 0.968343 0.31930304 0.14403754 0.52324295 -1.063602 0.29364043 1.0051632 -2.253316 1.7010986 0.5298255 1.6898983 1.3864752 0.27756888 0.42283845 -0.121171795 -0.4184638 1.1164757 -1.2980974 0.53059703 0.14360869 0.43420938 -0.32786915 -0.5268235 1.8454967 -0.6787989 1.0001482 -0.4458218 -0.22414175 0.27571365 0.8380736 0.64648336 -0.6005969 0.5359778 -0.35458016 -0.93211114 0.26411998 -0.57117313 1.4710776 0.09848021 0.3076604 1.8448044 0.63204336 0.6288338 -0.18437414 -0.4469896 -1.1393696 -1.2956935 -1.0811609 1.4305589 -2.7254355 -0.049952835 1.4279547 0.71871156 0.48504663 0.7274855 -0.4559341 0.7954347 0.1983368 1.1832627 -0.014082227 -0.3701626 -0.78267825 -1.1530578 0.5321488 -0.57551533 0.969324 -0.4367811 2.0597923 0.68241054 -0.35208824 -1.0496945 0.3264766 0.38338286 -0.7714187 0.13028972 -0.014215035 0.59013414 -0.55758315 -0.8220684 1.9033893 1.0317373
叩 -0.10044332 1.2023576 2.042578 1.6139424 0.37655732 1.538418 -1.620756 -0.889732 0.9850136 0.67342424 -0.6320446 -0.057051633 1.8678192 -2.8442576 -0.161807 -0.37824637 0.1344365 -2.2508576 0.88683635 1.1648493 0.5106654 -1.2411624 -0.061890833 -0.68582344 0.35131583 0.8993526 -1.1015325 2.4910083 0.9634282 -0.2505774 1.824232 -0.5778787 0.06338059 -0.19732064 0.19873285 1.1110849 0.20663899 1.6380522 0.84552485 0.8605294 0.3035076 0.41027007 -0.4695512 -0.51393044 1.177031 0.4445712 0.79833865 2.1482441 2.7571392 -0.6223822 -0.24663831 0.26543915 1.6351053 0.9545783 -1.0569272 -1.8781404 -0.6533603 0.055641785 2.2841241 0.53202766 -1.7191736 1.8400034 0.5913934 0.48353022 -1.8961929 -0.60848826 0.59523493 0.21671376 -2.4511025 -1.714224 1.6136372 2.1486018 1.2219255 -0.19075802 1.178173 0.6401758 0.328913 -0.018080553 -0.87543017 1.0763277 1.0756974 -0.11242362 1.5438827 -0.5323677 1.1390076 -0.7154379 1.9448774 0.41301805 -0.5308587 -1.3101577 2.500155 0.66852576 -0.57819355 -0.0035294627 -0.6486717 -1.5047766 -0.40927687 -0.7408291 2.2230468 0.58944154
头 0.8108338 -1.4093405 1.0470276 0.019834654 -0.29513514 0.9256767 -1.8941786 -1.4758279 -0.07603979 -1.332485 1.8993356 0.88856053 0.6272981 0.6116657 0.024416052 -0.638291 0.7841791 0.20169415 -1.314493 1.8132849 -1.521831 2.746997 -0.2035534 -0.5834667 -1.3223481 -1.4304312 0.809526 0.453423 1.0491906 -1.408911 -0.3891541 -0.017657377 0.20217444 -2.2823694 -0.92341286 -0.7300172 -0.6851137 0.14491436 -1.9834547 -0.47751278 -0.42540926 -1.5854465 0.75750166 -1.7617191 0.12379021 1.4123663 -1.0762728 -1.4222422 -1.0083647 0.077226646 -2.0156114 -0.12277079 -2.4152763 0.09102486 0.18848176 1.1489558 -1.1771564 -0.5766718 0.9829108 0.7567821 -0.13608758 0.7001879 0.32117224 0.8254583 0.95279586 1.0464615 -0.17276254 -0.45770055 0.26757652 -2.1119428 1.5441725 -1.6060089 -0.50214076 -1.6680667 1.086246 0.7956449 -0.5585441 -0.48201615 -1.2574879 1.517288 -0.56963354 -0.49614727 -0.08308504 0.95664674 1.5950875 0.605791 -1.1406288 0.6406539 -1.3589646 -0.32519802 -0.80691946 0.88056344 -1.5327094 -1.1137503 0.7166435 0.5609821 0.020886704 -1.5354985 -1.836506 0.45039064
肠 -1.6241902 -0.32291436 2.4664917 -0.24863404 1.8319925 0.48360184 -0.5770119 0.9632677 -0.7887691 -0.8744943 -0.6300428 0.16349253 -0.31582722 -1.6777743 -0.36767042 1.137339 -0.48097974 -1.7875865 -0.5069746 -0.22852455 -0.30243352 -1.4940878 1.5660435 -1.5527182 0.96490705 -0.16347234 -0.5548408 0.42455515 0.72931784 2.542187 -0.030129155 -0.020020347 -0.35786286 -0.853479 -1.8041476 1.7478209 -2.5088341 -0.60263014 -1.1494687 0.12351769 -0.28984275 -0.31009454 1.3151243 -0.77558655 -1.3297296 -1.6331961 -0.93725073 0.6450141 1.747189 -1.0307006 -0.5151153 0.21566841 0.037614595 -1.2938294 0.69207925 -0.36544615 1.7076815 1.6507218 -0.49232438 1.7259754 -0.6670493 -0.6172185 0.08347424 -2.046156 0.26656115 0.25040174 -1.5740851 1.145939 -2.0152848 -0.19263098 -0.68074 1.2597926 1.9841642 2.296662 -0.12434618 -0.9201194 1.9298335 0.8085036 1.2087512 -0.69372296 0.66640085 -1.1625308 -0.46208194 -1.6780915 -0.27991393 -0.32733148 2.1114466 -1.4244562 -1.1702038 -1.0664062 -1.003256 -0.37192333 1.4104663 1.9298167 -1.2785503 0.14771491 -0.45963636 -0.36658892 0.7107151 0.4163316
/ -1.1876397 -1.4769264 -1.1099603 -1.790567 0.18559602 -2.1161973 1.5176028 0.2024911 -0.31046826 0.5005769 1.2258407 0.20512266 -0.044453107 -0.40512145 -0.34966686 -0.26180422 -1.4354378 0.88416076 -1.1988407 0.7699495 0.027304644 -1.6151098 -0.07826512 1.0657067 0.6185686 0.22095606 -1.256498 0.108594045 0.27031803 1.2266417 -1.6748906 -0.105334885 -0.06666293 1.2525156 2.3970773 -0.8288113 1.5043067 0.6708604 0.33902222 0.27537057 -0.552524 -0.6031426 0.8133398 -1.2054156 -3.7863839 0.6470107 0.070714444 -0.59021044 1.4170426 0.13454397 -1.620301 1.1611474 1.660909 0.75263035 -0.46239913 -2.0445845 0.8962038 -1.1891378 -0.7095442 2.3587022 -1.0043085 -2.1458085 -1.5363952 -0.29942593 0.99544823 1.2111453 -0.56911176 1.3008848 -0.93377423 0.9200912 -0.4689969 -1.1212848 -0.581158 -0.37246 -0.91030353 -0.032865066 -0.97476006 -1.428694 -2.4596593 -1.0507483 -0.87675256 0.9709643 -0.38326734 0.39810324 -1.0965148 -2.676673 0.5671346 -1.8528407 2.0762377 -0.12769169 0.76000476 0.7295197 1.2853423 -1.2027292 -1.744573 0.02820585 1.6273172 0.47739312 0.29803005 2.6494932
出 0.19251916 0.13537757 -0.1517663 -0.39382878 0.6082405 0.06460008 0.0011757354 -0.232843 0.5094272 1.6651461 0.40604255 -0.35447386 -1.6044974 0.75218046 0.24518614 0.760272 1.071661 -1.1294892 0.19808385 -0.24940425 1.0166028 0.622446 -0.9954384 0.40296292 -0.5273182 0.056966625 -0.13132024 0.88946927 -0.432676 -0.39591372 -0.08672531 0.42494535 -0.13841075 -0.25982368 -1.1587963 1.2599643 0.9189347 -0.38693762 0.29022446 -1.7491304 0.34006447 -0.7024096 1.2719524 1.2582198 -0.08869728 0.08286009 1.1819739 -0.26064152 0.10480339 0.26399055 -1.1462483 -0.12500302 0.27214992 -0.3822539 0.5329063 0.073844105 0.14638002 -0.6063311 -0.75498074 -2.5666068 0.6949409 1.7197461 0.61589843 -0.14523098 -0.61339 -1.8273054 -0.078744404 -0.063108146 -1.0314385 -1.789076 -0.12885246 0.7455639 -0.3008408 0.19985397 -1.3514231 -1.2449685 0.051589906 1.4501935 0.70446354 0.124623455 0.14562675 0.078292765 -0.42196092 -0.8407345 -0.5855591 2.45277 1.6125834 -0.39771184 -1.1699294 0.23251697 0.7959889 0.68406004 0.7684802 0.0153549 -0.08388075 1.4309894 0.4615681 -0.7674428 -0.67018807 2.41117
闻 0.012448133 -0.21523231 1.1683396 1.1564865 1.5802578 2.1366506 -0.72158796 0.4856008 0.9098745 0.536599 -1.3828579 -0.24736372 -0.030896476 -0.89364636 0.9227453 -0.64863306 0.81460446 -0.063759066 0.8573181 0.9329893 -0.9632659 -1.8738441 0.7670695 -1.121666 1.2861687 1.5395033 -2.5960202 0.6320258 0.13519476 0.8053167 1.2985016 -0.91527754 -0.5337244 1.133514 -0.4551364 -0.64984757 0.46869588 -0.25154534 0.40038332 -0.4835599 1.6585915 2.1517322 -2.8245516 1.0582631 -2.4736807 -0.20204982 -1.8041509 1.184068 2.8633215 -0.3859724 -2.1689441 0.5382551 0.4287657 1.9083579 -0.013514285 -2.2170444 -0.81669915 0.59066486 2.608983 1.5727965 -2.428718 0.22043227 1.6554877 0.291414 -2.7489269 -0.55604106 -1.2131438 0.91216373 -0.38048136 -1.6777861 0.10321065 2.0558982 1.8631313 0.6740775 -0.45453468 2.127454 -0.47911942 -0.27511635 2.0799603 -0.18162714 2.924299 0.9001047 -0.30822796 -2.1524014 -1.2081989 -1.5974672 1.7787333 -3.531897 -2.3484948 -1.3942926 -0.7868061 0.9618448 0.5962349 1.3617889 -2.1299894 0.20679039 0.8126495 -0.028118024 0.50896335 1.2937454
下 0.9089547 -0.48713374 1.2344732 0.48188 0.097702816 -0.012290976 0.14288709 0.5539957 0.6309149 0.24743682 0.0773955 -1.5510234 0.8502124 -2.0224357 -1.3759506 -0.45903 0.13005644 1.1563116 1.6408539 -0.064629465 0.8742526 0.8706352 1.1271422 -0.016073557 -0.57314646 0.451591 0.1708537 1.1347665 -0.3606117 1.4355567 0.28808716 -0.8415809 -0.03745413 0.009658824 -0.5064441 -0.70413107 -0.8260004 2.3953571 2.035097 0.9729811 1.2811457 -0.89404374 -2.1093302 -0.084804796 1.1793061 -0.67402035 0.28034127 0.69686544 1.7552598 1.7807062 -0.6402968 -0.59777695 1.521583 -0.50180817 -0.5176353 1.6283125 0.878088 0.6542001 -0.60986954 0.1131308 -1.9164943 0.58299005 1.1808467 -1.2236481 0.12032917 -0.1359414 0.043194026 1.538707 -1.211257 -1.4743276 -0.15254551 1.6013463 0.4388399 0.9510136 0.5691191 -0.5967772 -0.25434476 0.92504966 -0.8349716 0.8290663 -0.6031948 0.48756728 -0.23833136 -0.52271724 0.66662645 0.3285604 0.2804442 1.779692 -1.103021 -0.03243957 0.5584208 1.7377796 -1.2670511 -0.84120196 -0.84323186 0.029093824 -0.80860615 -0.46342638 1.1786933 0.27708313
对 -1.3680124 -1.5721835 -1.0035998 1.5397671 -0.41874015 0.5061839 0.29503906 0.755888 1.2150356 -0.102940336 -0.4525695 1.2119174 0.12397577 -0.21005501 1.3847625 -0.17571384 -0.9728035 0.43129554 0.04925246 -1.0662717 -1.8176155 2.4668117 -0.95817137 0.27355596 2.024671 -0.7232137 -1.0724564 -0.3891421 0.16545834 1.6002054 -0.52758396 1.236541 0.88750404 -0.28055567 -0.6247093 0.4640197 -0.8212823 0.32165456 1.2424057 0.23461281 -0.743094 -1.2743083 0.7102346 -1.2000229 1.3697752 1.1368403 1.2179329 0.14121892 -1.3108757 -0.85730666 0.0065227826 0.32966283 0.3236715 3.1985552 -0.22803617 0.10641182 -1.2479728 -0.99320203 0.20849417 0.94900435 -0.2843961 2.3690708 -0.6138829 0.09182013 0.37126935 0.020105999 0.4060901 2.3039107 -1.6321244 -0.35333544 1.3632313 -0.5777598 0.77728885 -1.256926 -1.206386 1.3641307 -0.17392944 1.9620062 -0.08322303 1.8300514 -0.8489331 -1.0216792 0.1411488 -0.5203801 0.6734715 -0.584233 1.8876057 -1.7967893 1.6242439 0.09129433 0.21636216 0.7635157 -1.4162688 0.24651976 -0.63900095 0.79467064 -0.80679697 -0.3889024 0.4903472 0.5760407
好 0.3987199 0.41689682 -1.4120827 1.4374131 1.2356166 -0.47093472 -1.0743303 0.36785746 0.1055129 0.7872143 -1.1574541 1.4492618 -1.3789836 0.24514282 -0.027060084 0.84982085 0.012298546 -1.0740786 1.0640848 1.1940408 0.18166125 1.818843 0.73829573 -1.0201072 -0.604924 -0.1338942 0.9628275 0.7707934 0.6695025 -1.6255243 -0.4710574 0.7502726 -0.57433134 -1.348886 -1.2684274 0.97292256 -0.09052543 0.043189775 0.98188585 -0.7238087 0.43686897 -0.47875142 -0.044946086 -0.94721544 0.95643556 0.5612463 0.61706305 0.15058643 -1.2897297 0.57360727 1.6156433 -1.1447124 0.886209 -0.15347552 -0.4721757 1.4650716 0.3063617 -0.27395982 0.5745796 -1.7016426 1.600147 -0.2764181 1.0161619 -0.40613434 0.5793894 -1.0343499 0.49388063 -1.6395886 0.93543583 -1.3638511 -0.57636195 1.4727952 -1.1925851 -0.27524763 -0.9260142 -1.1258645 -0.53257906 -0.2910912 -0.18902527 0.49394485 0.00467683 -2.1414895 -0.3197871 -0.3043355 -0.6004504 2.684541 0.54805934 0.61070925 -1.2524256 -0.20282069 0.038344603 0.81593215 1.4155673 0.46414012 1.4117203 0.017114954 0.36899915 -0.09614503 -0.52527905 0.93168515
大 -1.0422766 -1.7609243 -0.649257 0.49212846 -0.7791252 1.368826 0.6303388 -1.1901745 0.5335465 -1.916223 -0.7938179 0.40548074 -0.48124883 -0.1339065 -1.0393003 -0.6325599 -0.64433986 1.0844915 0.8432365 1.1766816 -0.7399873 -1.6327494 -0.39155564 1.0117197 -1.2561897 0.24186476 0.43119287 0.07681676 -1.0750805 1.0435138 1.7986336 1.4180409 0.41233364 -0.9499004 -2.3990552 -0.12979503 -1.1653248 -1.6005291 -0.012847402 0.37096164 -0.041468594 -0.760302 -1.0619674 -1.946001 -0.44628644 0.541706 -0.02632218 -0.94069284 -0.17802058 0.8756764 0.7187459 -0.17471923 -0.7025831 0.31963181 -1.2753379 -0.09579762 1.0463316 -0.7722479 0.71625876 1.366877 0.0037803724 1.0559238 -0.99443454 0.62486094 0.9844008 1.621202 -0.7219592 -0.37967783 1.7067229 -2.2746067 1.3178337 -1.0726225 -0.06852984 -0.45886317 1.1738029 -0.6378191 0.41379866 -0.28919238 -1.560982 0.574095 -0.1927757 -0.30604628 -1.1310369 -1.0550139 0.81933194 -0.031904876 -0.74625057 -0.43403465 0.66899174 -0.26549044 0.7831352 -1.4577584 -0.1766535 -1.1018046 0.5926959 2.1036987 -1.7782018 0.16863717 -0.96436125 -0.17676836
形 -0.7490146 -1.2291907 -1.0949554 -1.053875 -0.7012606 1.0624051 0.5978026 0.37746695 -1.1219962 0.6457685 0.18586504 0.4276429 2.1410425 -0.69812334 -0.687205 -0.19543388 -0.6110369 3.207617 -0.3597368 -0.021900443 1.6107064 2.8873267 -0.6255555 -0.2859737 0.8759414 1.0470934 0.1723997 -1.7011346 0.07654418 1.1122518 -2.0627108 0.2044483 -1.6242014 -0.5446414 -0.3986533 -0.65294635 -2.0284789 1.1760252 -0.15084264 -0.8558005 -2.2761724 -1.1450955 1.0458524 -0.5001528 0.7132689 0.73223346 0.50780046 -3.7105525 -0.9847618 0.021103717 -0.6764325 -1.5442176 -0.7507979 -0.3190982 -0.15697548 -0.008073412 -0.7975722 -0.72695464 1.6821115 0.5040833 -1.044018 0.79203755 0.32744184 -0.30897987 1.9570565 1.2000192 -0.2271014 -0.17025135 -2.39278 -0.79525733 0.2469204 -1.2366884 0.53854215 -0.9020962 -0.4478438 -0.87762517 0.705231 -0.10777874 -1.0851777 1.4538836 -0.842214 0.16150634 -0.49250945 0.43660867 1.2042063 1.2138577 0.38941178 2.7719226 0.8084594 -0.9219326 -0.0033573513 -0.7161882 -2.377824 -0.6788826 0.5628515 -1.4583584 1.0702175 -0.06865631 0.5976444 0.6203003
张 0.07602662 0.6354149 2.917332 0.20296884 1.1352466 1.3035972 -1.4521189 -1.244972 0.24147366 -0.071024105 0.05902547 -0.36564776 -0.42353386 -1.0274886 0.3886988 -1.369218 0.22088932 -1.2193938 1.4196763 0.95342207 -0.5601924 0.058897134 0.7814907 -0.38961646 -0.42635256 0.14241539 0.58480865 2.3042424 -0.80158204 2.598935 1.5350101 -1.1558666 -1.1732707 -1.3553804 -1.5297652 0.86778516 -1.8277409 0.59252757 -0.9252631 2.1400783 0.5208697 -1.4753687 -0.49595335 -0.30669492 0.6169875 -1.5504682 0.4164071 1.649653 1.8224291 0.9975527 -1.2042255 -0.118500136 0.55865514 -0.41628593 -0.9914133 -0.26024422 2.1245816 -0.65258586 -0.3521375 2.0455203 -0.9468398 0.8107938 1.5274522 -0.97560006 0.36158955 2.1997395 0.16576383 -0.7303775 -0.4617647 -1.8837457 1.0160949 -0.9033107 0.28805038 1.3221234 0.44450003 0.4654552 -0.39800805 -1.6272957 -1.6388263 -0.5118665 1.227989 0.65076435 0.32654256 0.26200548 1.3449029 -1.0650326 0.64783525 -0.26635328 -1.2910609 -1.4030226 -0.046324007 0.52156454 1.9376894 0.05444211 0.4716456 1.5936441 -0.71164876 -1.1780399 0.6732974 -0.24078803
精 -0.27365017 -0.9389217 -1.0742246 1.4348087 0.36734882 -0.53160316 -2.3114402 -1.1977583 0.4479644 -1.4437531 -0.62649333 0.02733337 -0.21275641 -0.93039596 1.9362769 -2.2611566 1.1537533 -0.5944285 -0.7897935 2.4896164 0.11218315 0.3393953 1.2841935 0.45388305 -0.5281524 -0.43616515 2.4825442 -1.0222188 2.0042331 -1.0691382 -0.87177217 -0.039717603 -0.74860203 0.7850177 -0.48309153 1.1586951 -0.2772056 1.0107715 1.5167704 -0.9454581 2.4361248 -0.6138799 -1.3908178 -0.52943015 -1.4383646 1.3197577 -2.066897 0.15046866 -0.058963038 -0.30452064 -0.46320847 1.4260529 -2.0772974 -1.2869147 0.22509916 1.1124672 -0.9720906 0.4815656 1.4627551 -0.4341569 -0.49302435 -0.42532778 0.1332118 0.97719866 -0.043847114 -0.48349416 0.43136254 -0.22669935 1.5092936 -0.766464 0.068294205 2.6350741 1.7178617 2.1401224 0.7937584 0.81311506 0.19697538 -0.73508686 -0.052564878 2.3366241 -1.7000113 0.09928805 -2.4984708 -0.47463128 -1.1824764 1.1948903 -1.7010907 -0.1830721 -0.46998522 0.5604099 -0.63388264 -0.33285117 -0.7753027 -0.34831598 -0.96703947 -0.15500095 -0.13485168 0.21712711 -1.0300545 -0.72955304
发 -1.5011779 0.23871481 1.3908731 -0.22716017 -0.058617253 0.16243793 -1.7476188 -0.90566885 1.2048093 -0.37706348 1.706374 0.32149786 -2.0120788 0.75145173 -0.6370093 0.7487706 -0.431403 0.13521628 -0.7135478 1.3423581 0.26823953 1.6402385 -0.12880848 -2.4683602 -0.36494744 -1.7849741 3.9322605 1.1458665 -0.5168625 -1.1430401 0.525143 -0.73183054 0.017543018 -0.730322 -0.21086931 0.692574 -0.7145765 -0.6391762 1.2692101 -0.7298514 -0.34618014 -0.21289411 0.47769096 -1.5417515 0.51918614 0.9995169 0.75445604 0.7454731 -0.5688876 -0.2520258 -0.3478562 2.1316245 0.9274038 -0.8774859 -1.1043237 1.0462406 0.60564995 0.62306327 3.3709779 -0.0829088 0.07932039 0.49201855 -0.30488428 1.2207195 2.1219594 -2.630115 -2.5970192 -0.025283812 0.1329085 -1.3289292 0.98396236 2.1946182 1.1496634 0.5311304 1.3532706 0.10865797 0.14863427 -0.54581565 -2.1625419 2.050513 -0.25601986 -1.3248825 -0.28646785 0.13072817 0.119652554 1.0020782 -1.1401808 -0.75731313 0.30148113 0.88068944 -2.076147 1.8037465 0.42582935 0.28544882 0.55629057 -1.14048 -0.20848335 -0.9575992 0.608328 -0.21598585
左 -0.69403017 -0.8233787 2.201622 -0.47373742 -0.17599948 -0.5087827 -0.2770831 -0.5917293 -0.33475727 -0.26650003 0.6691201 -1.159363 1.8900936 1.2557538 -0.45930418 -0.12118181 1.0426456 -0.32860428 0.6552781 0.00040495503 1.3031349 0.72573906 0.4848343 1.3104624 -0.49321225 0.0962753 0.22314475 -1.3759476 0.31188932 -0.6977976 -0.90347034 -0.70162183 0.474712 0.22098792 -1.0690824 -0.7139437 -0.49236867 -0.9781289 -2.4432771 -0.5648858 -1.6751658 -0.32231754 -0.39725602 1.050413 0.66380036 0.6639155 0.9967077 -2.13443 0.7586608 -0.22594276 -0.98164123 -0.037243932 -0.47102383 0.5387722 1.1084261 1.3126856 -1.2782212 -0.031055659 1.1105076 -0.7565254 0.05156429 1.0619661 -0.9299864 0.27548015 -1.2519754 -2.0512202 0.785802 1.341885 -1.6279118 -0.35597536 0.3820168 -0.14643475 0.42554477 -1.0800005 1.7454597 0.40337878 1.5604259 -0.11615175 -0.22018945 0.21442316 -0.61963534 1.6194723 -0.26463947 0.3583901 0.4868143 1.6197333 -0.3761373 0.85325545 0.25236073 0.12055362 2.3127506 -1.5110476 -1.3604895 -1.3501998 1.4524249 -2.6062882 1.320356 0.27884552 1.0333892 -0.6151585
二 -1.0682981 -0.32792023 -0.15659118 -0.027050424 0.6788868 -0.92781657 -2.5757833 -0.7143897 -0.1848629 -1.4359134 1.0273322 0.5180849 0.2112209 0.8530608 0.38263768 -0.05809057 1.4250544 0.6472912 -0.22447133 3.067773 -2.068239 -1.6459893 1.3679826 -0.23198117 -2.8956861 0.22209783 1.2441168 0.010082418 -0.7244652 0.6257687 2.5252304 0.32495472 -0.8794353 -2.0602186 -3.0713134 -2.0798838 -2.169067 -0.5236711 -0.42969877 0.4791685 0.035668913 -2.004987 -0.62993526 -1.6565869 0.09331584 1.609693 -3.3691502 -0.46643445 -0.7981473 0.32754132 0.475528 -0.46915105 -1.244509 -0.40944567 -1.6738695 0.24573572 0.4941934 0.63633263 1.319665 2.950952 1.882529 -0.96095216 -0.091871634 1.3716769 0.23753051 1.302375 -1.5815141 1.5170082 1.8826494 -1.0210586 0.064382195 -1.80766 -0.5358954 0.057057783 0.8562899 -0.7477559 -0.8711029 -2.2267084 -3.6797569 0.8127973 -0.41817597 0.64381635 0.47770256 -2.045819 -0.41454262 0.8208999 -2.6283412 0.8224171 -1.7148175 -0.17308447 -1.2479825 1.6276838 -0.17079435 -0.18109514 1.1692319 1.5413066 -0.66735077 0.8864298 -1.7696259 -0.7101443
射 0.36163163 -1.2108033 -0.47414896 -1.0775477 -0.71757627 0.7016583 -0.012759089 0.27634165 1.4894505 -0.95556885 1.489881 0.1336361 -0.7054585 1.0837879 -0.82177824 1.1022606 0.4834641 0.69787616 -0.6847683 1.0530709 -0.79488117 0.36026883 0.50413245 0.36056206 -0.9663775 0.94671094 -2.5348105 1.1702363 -1.5514346 0.09719282 0.3424188 0.855051 -0.026777375 -1.0044857 -0.7480045 0.10432182 0.98051393 -1.4486833 -1.7092373 2.1002345 -0.65478444 -0.041017592 1.7069988 -3.10016 0.3966986 -0.22987036 -0.83526295 0.8556 -0.5509735 -0.0317351 -2.0389102 1.2155012 -1.4433591 0.9306128 -0.6741455 -0.88370323 1.740246 -2.710913 -1.9900388 0.99673665 -0.93264776 1.7602786 2.118505 -0.24067695 1.0631391 1.0958828 -0.7378583 1.2730479 -0.16199747 -2.4154575 0.7491497 -1.5523592 -1.3294334 0.22710478 -0.0065944185 -0.32064998 0.057520445 -0.016336631 0.8362812 -0.41031423 0.06456653 -0.10727733 1.1991837 1.7875314 2.088953 -1.2021226 0.11332862 -2.2823336 -1.3869522 -0.5359904 0.052207667 0.6838751 1.0667883 -1.1882992 0.3974274 1.5548047 -1.547263 -0.41648537 1.1574421 1.6267015
诉 -0.34351826 -0.5926584 -0.19676681 0.6686645 -0.41086632 0.9383946 -1.018872 -0.7407069 -0.03232435 -1.4526958 2.058381 -0.8047543 -1.1622735 1.1374698 -1.0347388 -0.3154324 1.7815351 0.95152354 0.24941862 2.2389777 0.7322946 1.9373127 0.91453207 -0.15035841 -0.5710203 -1.8097516 1.6829503 -0.49657696 -0.19855821 -1.3727657 0.2802538 -0.027662065 0.9982138 -1.1523193 -0.18618013 -0.06014783 0.1837824 -0.69900244 -0.73082364 -1.4168044 1.6072558 -1.6120975 -0.0731377 -0.5718273 -0.11119546 1.2706692 0.04613128 0.09911914 0.8680787 -0.6603363 -0.67614526 2.2033129 -1.744355 -1.0731583 -0.82957375 0.44381982 0.5012841 -0.478768 0.9267552 -0.18115178 -0.33685526 0.40135047 -0.19821581 1.888339 -0.139591 0.110097714 0.81362003 0.33866292 1.5923208 -1.5526199 -0.3665308 1.2431873 0.36004227 -0.14628801 0.37114465 1.393504 -1.1004475 -1.4625392 -0.7203274 1.2377647 -0.20504002 0.43559337 -1.0975099 0.9602526 0.20708114 -0.03312355 -1.5547485 0.19544654 -0.6022493 -1.2880341 -0.8894406 1.4784993 -0.10604625 -0.9087071 0.5305238 0.042049177 -0.4710233 -0.34439796 -0.72017354 0.44666538
活 -0.012218156 0.5092811 0.6885826 -0.32819706 0.45057023 -0.177237 1.2839414 1.0072662 0.43878517 -0.6297338 0.58743495 -1.0184542 2.132712 -1.0410548 -0.04017213 -0.98540336 0.4007544 2.1363769 0.5994386 0.64825076 1.4842694 1.1714808 3.0710127 -0.5026234 -0.6410339 0.38996547 0.318743 -0.20839316 1.143759 1.1368693 -0.21090734 0.4919044 -2.5314724 -0.6778455 0.17156407 0.32049593 -1.0600758 0.54420507 -0.08719535 -1.9874023 -2.0487247 0.1292563 0.2557322 -1.8564124 0.45512727 -0.73005295 -0.9373355 -0.7442785 0.651922 -0.1689548 1.2324785 0.8761373 -0.88910156 -3.0605323 -1.4182584 -0.21969408 -0.42369288 2.3303933 0.3805599 1.2424304 0.0069863424 0.4325447 0.39757124 -1.1884302 -0.8244162 0.12994963 -0.040830046 0.14438096 -1.3352357 0.46848926 -1.1496887 1.3466963 0.9303332 0.9593494 0.8945785 0.5342417 0.29219407 -0.22124918 0.3997873 0.6996814 -1.6720172 1.0613097 -0.93944633 -0.1815142 1.6389142 0.5382235 -1.5349433 3.8535702 -1.2364023 -3.0249283 0.19352128 -0.23382002 0.096793406 1.4314827 2.3608224 -1.8769696 -0.122488074 0.761608 1.2968647 -1.3141307
次 -0.710883 -1.3026012 -1.0338783 -2.3711305 0.026780093 -2.038178 1.0628074 -0.35010138 -0.08316942 0.34885758 0.36545494 0.29972208 -0.7027451 0.6804248 0.07152767 -0.039294783 -1.6517622 0.12340741 -0.9045272 0.33590463 -0.53936106 -1.7068357 -0.7946002 0.23616305 0.69366163 0.62936467 -0.9171425 -0.443642 0.4323776 1.2772204 -1.190338 -0.45480826 -0.8903716 1.4525205 2.423953 -0.6816858 0.78968304 0.13056763 -0.17494814 -0.3394335 -0.42977154 -1.5159372 1.9326105 -1.593377 -3.6273832 0.72024214 -0.9291602 -0.70371866 0.8128888 -0.73631 -1.8765861 1.1660159 2.0103078 1.1378936 -0.9181795 -2.7774673 0.299512 -2.0449612 -0.2262873 2.221478 -0.88242227 -2.065694 -1.1305128 0.94966394 0.6551766 1.782685 -0.30342233 1.1502604 -1.497391 0.8505014 -0.51458764 -1.8650941 -1.4653454 -0.30200046 -0.15044928 0.5784673 -1.7686834 -1.6043468 -2.278917 -1.0293331 -1.1037548 0.20869586 -0.16946833 0.43200088 -0.98041725 -3.101561 -0.22873661 -1.7861899 2.727561 0.9214156 0.033090033 1.139302 1.9220603 -0.27645466 -1.4026005 -0.50032 1.2944583 0.21461748 -0.4447696 2.6021547
呼 0.68741715 -2.3536737 -0.45460883 0.419629 1.6406312 -0.06693851 -0.45074975 0.7199323 1.3467584 -0.67216724 -3.5613642 0.9977347 0.85511243 -1.1790861 0.5405763 -0.39387098 -1.6942369 0.46026102 -0.52472717 0.04333757 -0.74525416 0.9091721 1.5338225 -0.6559065 0.4182538 1.7540513 -1.0561948 0.47592777 -0.9203983 0.44690487 1.3159515 0.64072454 -1.5753181 1.2309347 -1.5566347 -0.09219597 0.38168222 0.81165105 1.8255694 0.69870096 0.06549641 1.007582 -2.5291555 -0.20837724 -2.6572704 1.0537099 -1.2922102 -0.6393571 0.35956717 -0.82050276 -1.0484693 0.14506494 0.95946914 2.3048549 -1.2544241 -1.265567 -2.6766305 -1.0249876 3.7313428 1.0502856 -0.418296 0.803357 -0.0807681 1.7399156 0.22613335 -1.0833201 -1.5995032 1.513792 -0.93727636 -1.2842884 1.1002884 0.3830909 0.66225356 -1.0351375 -0.37682423 1.4914589 -0.39548844 0.4220396 -0.57661486 0.77592534 -0.33580697 0.42181334 1.304214 -2.1450036 -0.52183884 -1.1970185 0.57698697 -2.0956342 -1.1428703 -1.020037 0.9858131 1.313008 -1.3576605 0.7944201 0.38754666 -0.4887394 -0.43754038 -0.82955825 -1.2645091 1.1438267
吸 0.24727671 -2.272574 -0.07587796 1.8737643 1.9686555 1.7531866 -0.24410743 2.2987797 0.8831 1.1139244 -3.8508823 0.99996233 0.90890044 0.17320068 0.013652364 0.16323234 -1.0316645 0.81785846 0.32468176 1.1616558 -0.23435618 -0.09693443 1.7621459 -1.012084 0.30579215 2.9144328 -2.1450999 0.18199351 -1.4479895 1.3281478 0.10146757 -0.5270427 -1.7899195 1.1039566 -1.0497118 0.677577 0.08883438 1.2400377 1.6733804 -0.6652736 0.22559561 1.0589594 -2.6399283 -0.8925198 -2.7854095 2.0263247 -2.2673464 -0.22058804 0.3420423 -1.2178425 -0.7267705 -1.2390589 0.9337238 2.861855 -0.32116732 -1.469692 -1.246677 0.079566434 4.407364 0.45182595 -0.648235 0.8247187 1.4630786 1.0880718 -0.93933904 -0.713676 -1.6000721 2.201125 -0.9681814 -1.0799274 0.7676446 1.240676 1.0112491 1.0568006 0.87784904 2.097754 0.018687433 -0.6897415 -0.5521554 1.3913221 1.2473663 0.08879056 -0.3040517 -2.0069883 -1.4279393 -1.7362202 -0.6306457 -1.1008853 -1.4607899 -0.31822023 1.8984853 1.1406742 -0.51785165 0.9453799 -0.652114 -1.629665 -0.0066386005 -0.7926568 -0.57830864 0.040593043
平 -1.4337711 -0.4864612 2.1549964 -0.4955151 0.519138 1.7877022 0.13202836 -0.5584195 0.36386952 0.6408974 -2.6313293 0.89136416 1.0606757 -1.2905517 0.61679006 -0.35579395 0.46815643 -1.1326541 -1.0059484 0.81666756 -0.11273433 0.0046179756 -0.9087871 -1.3951188 -1.5311028 -0.9506225 -0.925916 -0.6087407 0.06342663 -0.33242497 0.87190133 -1.071057 -0.056333438 0.37850624 -0.54084855 -0.28985998 -2.2577403 -0.66156614 -2.6933732 1.6447458 0.97915727 0.42459175 0.7676479 0.17582779 -2.9010751 -2.092975 -1.8358189 1.0055101 -0.67379826 -0.36373287 -2.0705934 -1.153739 -0.046786558 -0.27765077 0.44630376 -1.1719649 0.5979185 -0.42857683 1.5962979 1.0030787 -0.5862175 0.48551258 1.2040187 0.61897326 0.28479615 0.40708652 -1.721582 0.9194761 -1.2124639 -2.4727292 1.460178 0.50597113 0.68444926 1.2370008 -0.5048852 0.6037413 0.26633376 0.03626008 0.63594186 -0.34640542 2.4096675 0.84292793 0.35699528 -1.0698429 -0.6731928 -0.7781865 1.0513823 -0.8493216 -1.7769814 0.32690516 -0.34419796 -0.03044867 0.8514886 1.027152 -1.9065388 1.1979264 0.22519538 -1.552377 0.16876185 0.11155569
块 -0.74898213 0.83034945 1.9955486 0.031943403 1.5582691 3.4646375 -0.9109691 -1.4954095 0.36471528 0.37924677 -0.6415423 -1.6258885 0.72623116 -1.7899445 -1.260725 -0.09767488 0.04562455 -1.9767755 2.1112978 2.6890166 -0.5420495 -1.6602054 1.4606745 0.9316531 0.42716727 0.26427034 0.3124842 3.5155718 0.2033994 1.0729668 2.9488754 -2.184429 0.467278 -1.1222255 -1.9297255 1.587073 -0.53288126 0.4401687 0.4530496 0.5022997 2.152204 -1.8137753 -2.1822112 -0.5440509 -0.2470737 -1.5211617 3.325673 0.2103466 3.9406466 1.2208782 0.8320696 1.2291824 1.3221995 0.9736835 -1.5738587 -2.3562758 2.4490507 -0.28204337 2.128554 0.085379824 -1.9465984 2.4337685 -0.22474481 -0.2505479 -1.0325046 1.6084155 0.39090088 -1.5109566 -0.25196153 -1.4281076 2.007779 1.5141581 0.03817282 0.4683812 0.22345898 0.71367973 1.4146034 -1.2397976 -2.4634082 -0.19238321 -0.16270629 0.7361038 0.43168733 -0.92095 0.77602977 -0.6071747 0.93160105 0.21828179 -0.40552613 -1.0126566 2.1434321 0.18400484 -0.27342647 -0.9582397 0.07047695 0.3915106 -0.6624068 0.43137947 1.6012675 -0.17364006
不 0.313001 0.87040216 0.8122917 0.59024507 0.35936037 -0.34936428 0.12865183 -1.0570974 0.98268306 -0.35947767 1.0729954 -1.5810512 -0.45401484 -0.28979453 0.4802396 -0.9588191 1.154935 -1.5929295 0.4113218 0.7778519 0.30470136 0.8527097 0.675797 -1.5278352 -0.84567124 -1.849844 0.35033166 0.27305228 1.5268537 -2.1279838 1.5311694 0.34852594 -0.25198734 -0.484318 0.72492 0.58599013 -0.25213125 -1.0792835 -0.571354 -0.28509593 0.40365088 -1.929529 -1.0112684 0.103335164 -1.2937175 1.125567 0.45574936 0.4820527 0.8319517 -0.9358716 1.1917453 2.226552 -1.1482867 0.18347242 -0.22777967 0.44010398 -1.7843198 -0.4927572 0.8440267 0.30195612 0.3619104 -0.34811684 -0.57785136 0.13714491 -1.2554737 0.3211532 0.69193804 -1.5903487 1.9971616 -0.67296255 -0.35414264 0.63438755 -0.0101876175 -1.4506636 -0.29168436 1.6623433 -0.88709635 -1.320928 -0.19423631 -0.06714058 0.35722154 0.83843374 0.06980719 0.36211288 1.0551616 1.0936391 0.1857278 1.7041143 0.03345339 1.019297 -0.10872528 1.9750618 -0.10101006 -0.12970303 2.1281514 -0.576304 -0.18271816 -0.2681954 -1.3943211 0.68120134
0 -0.84159684 -1.1512338 -2.2227404 -1.0648218 0.5640092 -1.9971876 0.6285851 1.0470515 -1.1886632 -0.17195304 0.8035562 0.8541669 -0.48217633 0.356445 -0.86445135 1.9554359 -0.8990974 1.0384535 1.0690348 -0.23621176 1.0903577 -2.489553 -0.8508349 1.7417537 0.38648707 0.8407516 -0.350137 1.2031556 -0.7391081 0.64671355 -2.5018125 0.41759065 0.29551226 0.9620527 1.8539717 -0.69271386 0.95211226 -0.42603242 0.84018594 -0.011921385 -0.5372174 0.51116073 0.034034465 -0.8226731 -1.2658793 -0.7987303 -1.0908415 -1.0226921 0.8915493 1.9484255 -0.70596987 0.31714737 0.47899535 -0.28263834 0.10150764 -0.8186912 0.26844996 -0.91579777 -0.68786764 1.713525 -1.3401959 -2.768124 -1.2434186 0.6008698 1.3794377 0.041249584 -0.38599807 0.5957481 -0.8868376 0.7033879 0.3829488 -0.6215597 -2.4144962 0.83827394 0.5910907 -0.020085568 -0.24064133 -0.89264643 -1.914483 -0.4270591 -0.66505855 -0.3878823 -0.3768169 1.6048186 -1.1205055 -3.4104414 -0.2541737 -2.0679684 2.4919047 0.4855419 -0.94368124 -0.47506338 0.47184104 -1.3623265 -0.9680104 -1.9976809 1.3140827 1.8719324 0.23852006 1.3438916
胸 -1.00156 -0.9428154 1.6540289 0.662657 -1.0172496 2.296216 -0.49713552 0.106078945 -0.78737414 -0.2875029 -0.41897658 1.4426941 1.489531 -0.28910428 0.49153915 -0.03463859 -0.7112337 1.4169493 0.5943232 -0.3069474 -0.59839875 2.872914 -0.21987982 -0.4428825 1.1784775 0.7304465 0.55904615 0.5952919 -0.048513517 -1.0662129 -0.027792964 0.18738046 1.1710117 -0.42390713 0.526909 0.31452557 -0.72311366 0.48010546 -1.1725647 -0.33508062 0.017750766 0.56845677 -0.42070496 -0.024254235 1.7998607 0.59534764 0.7078838 -1.9962583 -0.08628679 0.15534723 0.6061592 -0.51132506 0.9392726 1.8301456 -0.23590484 0.44966933 -1.6495346 0.15881263 1.8596412 0.6037518 -0.76577586 0.5755209 0.63572073 0.039723996 -0.23401187 -0.15566601 -0.34345436 -1.973626 -1.1690364 -1.2159626 0.52280563 -0.10621252 0.7619401 -2.2204187 1.3335197 2.6988466 -0.5581743 -1.098051 -0.03607923 0.90635073 0.35468933 -1.1024333 0.19708715 -0.5111415 0.43334255 -0.3697179 0.99617356 0.05796884 0.46845758 0.5113918 0.07184403 -0.86898494 -1.6485587 -0.6405556 0.69803685 -1.7836232 0.69665974 -1.8484313 -0.09276035 -0.31398427
软 -1.4880131 -0.37939796 1.8007225 -1.1351125 0.007824317 1.9997805 -0.64034295 0.4073256 0.07490641 -0.83931714 -2.2169514 -0.09801529 1.5367824 -1.1777223 -0.14229932 0.29638645 -1.0302526 -0.72283465 -0.29025936 -0.5963206 -0.6391336 0.7476929 1.4828722 0.29756355 -0.07687669 0.05152698 0.079099365 -0.44575465 1.0934165 0.68897516 -0.4888317 0.3267978 0.6780174 -0.45702836 -0.65208983 0.54864335 -2.1887407 -0.9888196 -1.4348795 -0.8869607 0.59002143 0.25203642 -1.0826616 0.343609 -0.33538154 -0.85308236 0.4102803 0.063963555 0.44943526 -1.3877329 -0.3768938 -1.7017802 0.68760294 -1.8292102 0.50515157 -0.12599313 1.3859493 -1.4475371 1.9136319 -0.11209015 -1.0744904 1.3048352 0.9425829 -0.52986264 1.1225677 -1.1596503 -0.14787738 0.26789662 -1.7104242 -1.8119414 1.641036 -1.2474649 1.0978361 1.8275908 -0.680594 0.24329531 2.1065733 0.46531326 -0.10748092 1.0565258 0.9452727 -0.0920618 -1.0498959 -0.27513438 0.5829015 -1.4178122 0.6251784 -0.17960235 -1.2906766 0.22915716 -0.60859764 -0.3374747 -0.5094073 0.5194202 -0.87102437 -0.50522435 -0.2087122 -0.047083683 0.9509162 0.51358354
切 -1.650722 -0.8834882 1.1152673 1.1213204 0.7533263 2.1547737 -1.1294204 1.0162066 -1.9938483 0.5165236 0.074231245 0.81398445 -0.6891184 1.418975 0.26197714 0.3305647 0.27146116 0.24042241 0.38012454 1.8518815 0.26360846 2.6192465 0.2040358 -1.2618964 1.0869197 -0.47447166 1.9672533 -0.6579717 -0.50807214 0.42012936 -1.4984744 0.22240156 0.3670089 -1.1801803 -0.11848649 -0.0935491 -1.6740153 -0.6834866 -0.86152154 -1.233721 0.30167964 -0.4302548 -0.2192534 0.1623093 2.1091998 -1.2537482 0.8872913 0.47995386 -0.8866551 0.32185075 -0.7499466 -0.84176517 0.049055062 0.18849716 -2.0402532 1.0750833 1.8556714 -0.32991403 -0.47801927 -1.5842398 0.9882298 0.5874143 1.0001842 -0.59163904 0.8950632 0.053976465 0.65019214 0.31664842 -1.5265238 0.0072008627 0.017033087 2.3814926 0.62418026 -0.025679892 -0.40776685 -0.60358965 0.24074176 0.06578329 0.9270455 0.4066585 -0.38002992 -3.0460865 0.7384207 0.5911948 -0.4960301 0.21865878 -0.029318022 -0.50115234 0.82262737 0.30272937 -0.12786695 2.1909974 0.6869978 -0.83079654 -1.2116436 0.56558156 0.7575804 -0.5585913 -1.0157058 1.8847667
食 -1.2219259 -0.01358382 -0.13369657 1.360007 1.4437618 -0.8837708 -3.5128157 -1.5097634 0.22451006 -1.5003434 0.2018295 0.39618912 0.28622133 -0.65405756 1.1137968 -1.8586645 2.2083185 0.033298384 -1.5943096 2.5822666 -1.541647 -1.9228705 -0.10758605 -0.063968174 -2.9136727 0.92499095 2.2821934 -0.001041327 -1.36747 0.73351127 0.3886081 0.67178607 -0.648365 -1.898099 -1.3624904 1.4671844 -0.9901194 -1.9537928 0.15865296 -1.4304175 0.91317314 -0.39108303 -0.30132276 -0.08628425 -0.6560059 0.98758906 -1.7971395 1.7845486 0.5293447 -0.8361144 0.43574375 0.7474966 -2.557054 -1.4016201 0.12462527 1.2376908 -0.22103874 0.29503885 0.2551 0.8399127 1.5110035 -0.4205128 -2.05514 1.2246652 0.6679038 -0.80251133 0.42972773 0.28454918 2.6149743 -0.18982802 -0.62906694 -0.20508134 -1.7882649 0.948809 1.3562765 -1.8036262 -0.7297654 -2.8567264 -3.2675865 2.1339724 -0.5269528 1.6190646 -0.4680296 -1.1584154 0.047138385 0.5779796 -3.0909925 1.9647143 -0.19896801 0.19292018 -2.1158876 0.85868245 0.026031673 -0.2964987 0.6656076 0.42018837 -0.5341255 0.7365875 -2.2161171 -2.0197227
饮 -0.9024009 -0.72535807 0.32192326 1.0093061 -0.39194408 -0.9147772 -3.3016744 -1.4186304 0.6434739 -0.19716139 -0.3991665 -1.5375185 -0.1567088 -0.15896653 0.041060396 -1.1816013 1.5406369 0.4594579 -1.0310888 2.0674837 0.123183884 -1.5462432 -0.47199073 -1.4848412 -2.4071703 -1.0119573 1.3720405 0.019636236 -0.3855595 0.9896825 0.039540116 0.7005003 -1.4218425 -0.3166364 -0.4081033 -0.7387958 -2.317754 -1.3580402 -0.004308677 -0.9258901 1.4337254 -0.17170854 -1.3430593 -1.009664 -0.44367138 1.9405023 -2.3036563 2.5215702 -0.34197035 -0.19826162 1.4327228 -0.994893 -0.79894537 -1.7527575 -0.19396478 2.5300736 0.03153266 1.1990265 -0.5265725 0.46508276 -0.39565527 0.45007622 -0.067369476 0.12343631 0.41323864 -0.39816126 -1.7362467 -1.4198679 2.3295195 -1.8828651 -0.6233507 0.63878787 0.11614424 1.2194799 1.1114172 0.008951779 0.36383998 -2.3979669 -2.949435 0.72179335 -1.498625 1.0466584 -1.1052811 0.3858651 0.78695786 1.5992565 -2.711078 0.2368952 -0.8733278 0.019769117 -2.3093166 0.91971076 -0.4590135 0.19288313 0.40195596 -1.2308677 -0.64603376 1.247061 -1.1032847 -1.7995286
上 -0.5076454 0.6804883 0.9389307 0.16520129 -2.1129818 0.14524573 0.9252931 -0.05911237 0.23528327 0.286824 0.5247689 -1.4853312 0.254215 -0.17912006 -0.54099363 -0.732941 -1.0909884 2.5994647 1.4573637 -1.1883852 0.89062375 0.69662505 -1.2179521 0.45916522 0.09969739 1.0777051 0.68862534 -0.15382886 -1.5033726 1.0039839 -0.4623111 0.73972553 -0.2273488 -0.36580727 0.2777703 -1.0578946 0.60537696 1.1970994 0.20964259 0.6793839 -0.9065446 1.8196862 -0.26958865 0.21708319 1.747328 1.1454585 1.0894666 -0.07916295 0.9025311 0.7552589 -0.9048861 1.3334923 1.4514852 1.0092609 -2.3789146 0.6327128 -0.39700916 0.5416886 -0.58520764 0.86424536 -0.49100965 1.1889132 -0.41970608 -0.6240396 -1.2090815 0.21898575 -0.7565306 0.1347748 -0.18509072 -0.07248624 0.20764033 1.1513633 0.6062981 -1.5461698 1.4512972 0.499549 -1.4881546 0.84855986 1.0399134 -0.24764761 0.09188614 0.5377908 -0.0025068854 0.36900038 2.1426013 -0.2095981 -0.090147115 3.0618274 0.94941044 0.12452791 1.1402377 0.8390756 -0.84056455 -1.7524444 1.0098581 -1.1909388 0.36293316 -2.492771 1.1802181 -0.18058723
红 -0.8223894 0.21512167 0.4642652 0.9932954 0.26129088 2.9071212 0.044343036 -2.1436436 -1.7427431 0.061507553 0.28575775 0.4327078 1.1969056 -0.990641 -0.06544707 0.088192545 -1.5260583 0.7589676 1.297705 -0.71420443 -0.5183482 -1.3580697 -0.97035 1.9835795 2.6085086 0.90324974 0.75097334 1.1720614 1.019308 1.4309367 -0.67709464 1.1262951 1.0224905 -0.9702353 -2.05882 -0.48131958 -0.34760705 -0.9053707 0.9868238 -2.7131405 1.1992147 1.787384 -0.5484589 -0.7606205 -0.147293 -1.8383296 0.9301182 -1.2668564 1.0327759 0.7776633 -1.5257659 -2.3431227 0.2783257 0.7779146 -1.5774302 0.51895404 0.9086094 0.17589475 0.96225053 -0.3060212 -1.180765 0.83018965 -1.2892638 -0.33641952 0.028358217 -1.4852715 0.41092286 -0.103517 -2.4583588 -1.2361708 1.6906277 1.4391581 -0.9490797 -0.6214136 0.29577583 -2.4806726 0.99239683 1.2238758 0.13158658 1.3050417 -0.1709429 -2.6925251 -0.7054369 -0.82295454 -0.5052523 0.4406092 1.8399736 0.7060887 1.5033749 -0.25383794 0.72016346 -1.0254039 -1.1714479 -0.9804549 -1.8905405 1.1586924 0.17014796 -0.8018275 0.26141986 1.647065
明 0.94144404 -0.55676293 2.610989 3.1460352 -2.084281 0.15737331 0.7500738 -1.000881 -1.5487081 0.5170654 -0.7951144 -0.90182334 -1.1640259 1.038067 -0.88086617 0.63422054 0.18896301 -0.60581136 -0.6437636 0.69922054 -0.76646334 1.4690694 0.09563257 0.9413476 -2.2762682 -2.531347 1.9033898 -2.7077122 -0.48410937 -0.6053898 0.5626 0.45347008 0.56275386 -0.8652266 -0.9803643 0.652307 1.363784 0.7313901 -3.2131784 0.32979044 -0.050068323 -0.47391358 -0.7429377 -0.0272212 0.05795164 2.1176329 1.3940269 0.7466222 0.21067077 -0.43406546 -0.58578736 -1.3120399 -2.1856527 1.5299345 0.3876591 2.6564739 0.1848757 0.60910213 0.55282575 -3.5474539 -0.87086254 0.6528586 -0.52664715 1.5356562 -1.887406 -1.0297081 0.5064853 0.35997298 -0.46464568 -4.2914743 2.3647451 -0.97841215 2.083601 -1.9293839 0.08049041 -0.46672034 -2.0492287 0.6929008 -2.3327425 0.82344383 1.1654816 2.0524802 -0.1637109 -2.451362 1.2760173 1.9789915 2.1068606 1.8844668 -1.292068 -1.3122739 2.0215983 -0.48836043 -0.024833033 0.049258556 -1.1101496 -1.4711734 -1.4623108 -1.1925436 -0.63258046 0.6746954
显 -1.3724134 0.72918475 0.27646905 1.5744109 -1.5447025 3.6239016 0.5668391 -1.6564857 1.7248461 1.537514 -1.005764 0.08184453 1.3996259 0.19295986 -1.279998 -2.1341052 2.5511694 -2.16823 1.2748517 0.08924387 0.33983895 0.3084014 -0.9491839 -0.33786535 -0.6094219 0.1204063 -0.15680854 -2.4235299 0.631288 -0.88992906 1.5205715 -0.48164243 0.14962043 0.31543216 -2.0025578 -1.1633656 -0.5675372 0.85212904 -0.8095383 -1.8525734 -0.67639524 -0.69194037 -0.30692473 -0.11211767 -1.0065279 0.98059064 -1.574251 0.35166025 -0.64156455 0.85442215 -1.4780481 -0.59222895 0.07436208 0.27848953 0.30898482 3.2726026 0.41354248 0.11917903 0.6502721 0.6373553 -0.3761528 2.877995 0.94706744 -0.13562733 0.00035076996 -2.3282962 2.0238926 -1.1390668 0.27551565 -2.7129478 1.2749307 -0.649567 -1.9818989 -1.6557137 1.3775421 3.1204808 -0.78678846 0.6820396 0.18556413 1.7504843 2.2735734 1.8847214 0.15645374 0.4402184 -0.22209467 1.8808562 -0.9084023 3.7049906 -1.1266373 0.8216782 0.7353284 1.236886 -0.492802 -0.61949736 2.919203 0.6079178 -0.26652488 -1.984588 0.5356336 -0.6539743
皮 0.33471006 -1.0705683 0.36519197 1.30566 -0.6403549 0.6589495 0.87395877 0.28931168 -2.5814714 -0.3141472 1.7576535 -1.491136 1.5643035 0.08014842 -2.0894158 0.38900462 0.03002704 -0.33761805 1.4614997 -0.71413845 0.8608219 -0.68927854 0.11444497 1.1645948 0.9700854 1.3014215 0.94488055 2.7037401 1.3144374 -0.58568376 -1.641908 0.72334486 1.3512552 -0.88781357 -1.999395 -1.0821829 -0.3267186 -0.71670794 0.23078977 2.4174275 1.5457407 0.5352621 -0.3651911 -0.8110807 1.6983924 -2.8493202 -0.94863105 0.13873582 1.5791031 -0.20989412 -1.3816545 -0.57416934 1.2758155 0.48828685 -0.18258056 1.7674476 -1.4288282 0.33752424 1.6947575 -0.11403655 -1.5137626 -0.7089781 0.45646286 -0.25295657 0.35253185 -2.0879965 0.49275106 0.8685893 -2.7741072 -0.96254474 -0.5944695 0.8440614 -2.6405907 -0.19427162 1.1755122 -1.6887324 -0.08283678 -0.27031034 -0.6489833 0.53290564 0.090906665 -2.1190822 0.67918825 -0.31985593 0.006093938 1.0201013 1.0635957 -0.20022896 0.20565031 0.05294557 -0.14275676 -1.1882225 -0.7862746 -0.4103383 -0.6308476 -1.1904238 -1.3641083 -0.6031743 2.040338 -0.15867229
热 -1.7329782 0.17875953 0.8968777 0.4644384 -0.58325243 0.7121634 -3.3543494 -1.0035785 -0.8661037 0.5175629 2.1969543 -0.2525264 -0.62469023 -0.7671725 0.27995852 1.384038 1.454065 -0.8177177 1.1870525 0.8623133 0.32579586 0.350406 -0.14517677 0.44896832 -0.53675973 0.090863116 2.688815 1.4646517 -0.24699396 -1.0085888 -0.5462364 1.8219877 -0.53689986 -2.1489882 0.111759335 -0.73465335 -0.84469634 -0.6111437 -1.3306078 -2.4967046 3.0099382 -0.69358987 0.8522652 -0.8988202 0.8977141 2.612775 -2.0671859 0.9989295 -0.1741253 -0.13408278 -0.3943704 0.044260573 -0.99604475 -2.1774411 -0.91102993 1.4834309 -1.2194211 -0.6210246 1.0502949 -0.048952598 1.7766389 -0.21215747 -1.3679754 3.2784219 1.065273 -1.7398456 -0.527782 -0.18808083 0.6493697 -1.7141837 0.354184 1.3960162 -0.73656297 0.08593662 1.1868944 0.034059323 -0.7936409 -2.9687643 -3.034481 2.644091 -2.333488 -2.4273024 -0.8740664 0.4694423 -1.2704453 -0.40742838 0.64220035 1.9402425 0.16913944 1.3656958 -0.77501035 0.8208596 -2.132958 -0.95120496 0.6621697 -1.4060702 -1.1968483 -1.5545805 -0.5891504 1.0453849
畸 -0.7008965 -1.411841 -1.4112793 -3.574342 -0.13848424 0.31916004 0.0070388014 1.0944093 0.011928854 1.7417917 -0.22369656 1.189704 2.6654491 0.21612166 0.5380364 1.8422397 -0.5659688 1.5748628 0.4725133 -0.040612202 0.38860574 4.6195846 -0.5687002 0.28094125 -0.69781274 -1.117428 -0.5086228 -1.9271822 -0.31795713 1.0058676 -1.9587883 0.2662947 -1.6585882 -1.732579 -0.84100765 -3.1165237 -0.32575843 1.6999407 -1.8455174 -0.17121755 -2.2775884 -0.67802554 -0.07050713 -1.7167805 0.5779612 -0.84700316 0.17418502 -5.518521 0.43549645 0.8145661 -1.5336063 -0.5936531 -0.59959096 0.15098496 -1.6372288 -1.0989078 -1.6176089 1.1179427 1.6960964 0.44300357 -2.518019 1.3312755 1.7980728 -1.0180025 1.1363256 2.5868366 -0.8376058 1.3073554 -2.92496 -0.8458829 -0.08856329 -2.8026156 0.8698696 -1.958011 0.9166148 -0.35809717 -0.0011627316 0.95085055 0.2084798 1.9982381 -1.2348255 0.32478645 -0.81329834 0.5838653 1.1637877 2.3506796 1.2649995 1.0725179 1.1563909 -1.2462523 0.37789553 -0.3456799 -1.5494032 0.84271896 1.3976753 -0.4885691 -0.87939143 -1.0741976 -0.99735886 -0.15878035
各 -0.47052407 -0.090319216 -0.46175882 0.27643883 1.0443381 -1.5592997 -0.17410961 -0.25507385 -0.32942066 0.4659165 -0.6519887 -0.13024819 0.90248066 -0.8270821 1.209626 -2.143117 0.13108505 -1.3691758 -0.6842176 1.2585433 -0.747173 -0.98747754 1.4444716 0.832362 0.9238372 0.30641845 -0.11481594 -1.9820616 1.1115915 0.63916796 -0.8305065 -0.017924098 -2.5330465 0.3916864 -0.678397 -1.3493882 -0.8715457 1.0405201 -0.22427364 -0.2890775 -1.0638015 -0.45907527 -0.5156393 -1.6032075 -1.7301158 -0.55778456 -2.0780144 -0.1848296 0.35276434 -0.7867788 0.1407122 -0.07091033 -0.048542853 0.40478742 -1.4023296 -1.4028239 -0.44297022 0.14062813 -0.031097861 1.2616915 -1.8516397 -2.296988 1.4985123 -0.48872176 0.4386108 1.8084439 0.60027313 -0.54193354 0.2100209 0.9376221 -0.20031759 0.48505923 1.1489445 -0.5644721 -0.20782104 -0.4434871 -1.229993 -1.2721494 0.01012231 -0.52543527 0.18045682 0.86178815 0.6846833 -1.1121124 -0.4786786 0.50976276 0.55884415 0.11047018 -0.34020114 -1.6986707 1.0366699 0.06255112 2.2542245 1.6732864 -0.43856958 -0.9837976 0.926882 -0.48473594 0.8862348 0.29042858
征 0.57391095 -0.8969726 0.39537397 0.09441964 0.0065546357 0.12303869 0.4279878 0.8592829 2.2169242 -0.7489423 -1.1540631 1.1556813 0.5538139 -1.2317708 0.19626369 -0.28563923 0.1513981 -1.532165 -2.3018272 1.1396163 -0.6985168 -0.62926507 0.24876818 -0.6228009 -1.7272878 -0.08327714 -3.5151234 -1.3791345 0.9749979 -0.10318324 0.63371515 -0.909931 0.6498607 0.25778037 0.94632995 -0.42092875 -0.26396433 -0.39103812 -2.1734953 2.1788218 -0.51360446 -0.26767346 1.2190683 -0.4083228 -2.4904714 -0.91853505 -1.0596117 0.98963684 -1.5032893 -1.222717 -1.2735081 0.6641781 -0.92315066 0.36551735 0.38312048 -2.321303 0.3995433 -0.58849674 -0.6520724 1.6685165 -0.41926607 -0.3546055 1.511431 -0.09667078 -0.8073108 0.6634325 -1.2060423 0.2765779 1.0818442 -1.6836377 1.609699 -0.69537187 0.7165927 0.45202652 -1.4306828 0.28663644 0.92516583 0.19621775 0.119645976 0.21137825 0.74557436 1.5407437 -0.11371938 -1.7051318 -0.23276822 -0.12264895 0.5223917 -1.5725622 -2.8293135 1.516823 -0.8817164 0.0738678 -0.11197903 0.4248235 -0.3688288 1.9448496 0.035421737 -1.3887415 0.23157637 1.4021388
疼 -0.8923405 -0.27736163 1.7887013 2.6220644 0.4307654 0.6350418 -1.5016557 -0.1034459 -0.092160925 -0.3406324 1.6387804 -1.5291789 -0.024435619 0.5555442 -0.49623382 -0.87022 0.9595185 -0.22206041 0.99590313 2.9493136 0.9972371 4.7025104 0.24902819 -0.23948753 0.4639152 -0.75572836 2.3501737 0.34701058 0.2837083 -0.59793925 -1.937191 -1.1791852 0.17242894 -1.8523716 -0.23774362 0.11890221 -1.3009415 0.85825014 -1.9395285 -1.4141182 0.8650621 -1.1347711 0.72083294 0.8394386 2.3637474 1.1644535 -0.08542151 -0.5654948 0.9917979 -1.0570711 -1.133855 -0.65446186 -1.9489675 0.6313654 -0.54717207 3.2434738 -0.5016418 0.6779471 -0.62177485 -0.92132163 0.44794914 0.7641346 -0.18151511 -0.24878307 0.16741148 -1.5555943 0.4212377 -0.3921453 -0.8268326 -2.2928214 0.80682343 1.5171876 0.4782449 -1.7300053 0.79203904 1.2835376 -2.1415138 -2.6649654 0.1593858 1.7581971 -0.3881657 0.64082855 -1.2754385 1.2167966 0.81811106 -0.22081782 -1.065354 1.9547733 -0.10520637 -1.0147209 0.5526414 1.9571142 -0.7677224 -1.7919743 0.993818 -2.1521065 0.9704796 -2.7809455 -0.05702365 -1.1203799
管 -2.3097754 1.0531366 -1.7690536 -1.6779658 -0.20864867 1.8168596 -0.74150926 0.9492862 -0.36990643 1.5294791 -1.9144337 -0.20745428 0.10775307 -0.8506084 -0.5487977 2.1999702 -0.5872397 0.8116816 0.47015035 0.13189575 0.15181045 -0.9078076 -1.2221651 0.64275485 -0.071143486 -0.26446152 1.8287323 1.4561275 -2.2228086 0.9537052 -0.018380748 0.114874 -0.9573789 -0.7517687 -0.31628975 -1.0119368 0.65482754 2.3087184 -1.0604044 -0.94458956 0.15039475 0.65555674 -0.83125263 0.46155602 0.6522925 -0.280254 2.798753 -2.404656 -0.001040455 0.34297752 0.060245067 1.1056598 1.0075058 -0.20448044 -0.5087906 -2.8774855 -0.17342442 0.026952649 1.3813337 -2.2408214 -1.586942 1.2642496 0.101988524 1.420191 -0.5711917 1.4189101 -2.0346003 -2.9295132 0.48454568 0.473141 1.986592 -1.5382779 -0.6010193 -1.3216522 2.0216122 0.75308305 1.481986 -0.07391703 -0.9265489 0.012162065 1.556067 0.21818186 -0.65227324 -0.5087235 1.2177794 -0.767307 -0.15253387 2.0110044 2.1670697 0.5440023 -0.567032 -0.6506404 -0.8662393 -0.3509073 1.471114 -0.4756827 1.0100622 0.1402149 -0.38504502 -1.0552468
已 -1.2356101 -0.24100405 0.25858268 -0.1042495 -1.1076269 0.36385038 0.33701685 -0.6032166 -1.5945674 0.96174103 1.3093214 -1.4205216 0.26146045 1.4855335 -0.37710062 0.74502075 -0.22668263 1.1022952 -0.80120206 1.7272652 0.8892032 -0.6705692 0.33721438 1.6094754 -0.06589271 0.15336551 1.3694143 0.25650534 0.5209951 -1.3261632 -0.82334733 1.2582418 0.1621842 -0.26389816 -1.1061002 -0.56794846 0.44669154 -0.8519826 -1.8685753 -1.8134431 1.0989777 1.7395476 0.26600403 0.03113878 0.34196702 -1.3457254 -0.346229 -1.34441 -1.4687775 -0.17468752 -2.3511062 -0.5575886 -0.087462276 -0.64995396 -0.99518746 2.1567235 1.3684725 -1.2961425 0.31555074 -1.4923168 0.43581596 -0.8221599 -0.015039104 1.1876173 1.2541794 -2.291095 -1.3070815 -0.9880272 -1.0046566 -0.9348998 0.9259675 1.6108301 -0.9421289 -1.5217509 1.0080472 -0.7923922 -0.5107084 0.33342588 0.431572 0.33287215 -0.3256015 -0.58712894 0.38237685 -0.08605003 0.010859422 1.3163121 -0.5704281 1.7651063 0.31651416 1.287651 0.5176861 0.30225372 -1.7989824 -2.6154702 0.32927006 -1.1700233 -0.5434334 -0.74343336 0.817724 0.71739304
膜 1.117325 0.84078985 -1.3114226 0.48589924 -1.2015924 0.4491454 1.1630368 -1.7455392 -0.09643194 1.1544219 -0.6607298 -2.254535 0.78687435 -1.6338377 -0.2690971 -1.7428294 0.053529974 -1.2192566 -1.979781 -1.0626018 -1.4806468 -2.2393775 -0.65654093 0.7122093 0.2800247 -0.2792737 -0.95042175 -0.40217626 1.6580132 -1.4517916 -0.9208788 1.1958728 -0.43935952 -0.10361651 0.50706285 -1.3990698 0.31391487 0.6995188 0.49057832 -0.4616447 1.3911053 0.8594231 -1.0802187 -1.9822723 -1.5033557 -0.8230044 0.47416428 0.9610013 0.9811309 -0.4378224 -0.043200035 -0.20041879 1.7581697 2.503154 -0.849641 -2.1210644 -3.755249 -0.9526595 1.5358588 -0.847396 -2.0235991 -0.49406734 -0.47899586 -0.15868808 -1.1358347 0.37514564 -0.48897922 -1.7117133 -0.5272947 -0.91249454 -1.125993 2.800516 0.15360822 -0.3910159 1.9233468 -0.58481294 -0.5272768 0.43196905 0.97565913 0.6828249 0.7248066 -0.46706554 1.5416393 -0.8462891 0.26823145 1.366503 1.2506845 -0.8862801 0.2555292 0.023684189 2.3534431 -0.15853001 0.7033222 1.3924304 -2.382348 -0.29409853 -0.4404781 -0.8469016 1.1188852 0.18469839
浊 -1.831597 0.5694936 2.5462677 0.4307359 1.8840882 -2.0146685 -0.35691628 2.2431011 1.4353955 -0.4305046 0.34403178 1.6401966 0.85157555 -1.5480927 0.9088217 2.6767359 -0.8507431 0.20687665 1.9952987 1.2725338 2.1455846 0.7883044 1.982316 -1.9567802 1.4525777 2.5288913 -1.4674597 2.1188922 1.2356834 1.8455533 1.025003 -1.5853281 -0.30332237 0.6278931 0.44748223 2.356247 -1.3651191 0.55717134 2.1951365 0.5830407 -0.5865116 0.56731534 1.9486943 0.18805072 1.8446909 -1.75518 1.0304289 1.7840171 1.2735215 -0.3459199 0.65799284 2.5420237 0.19106287 -1.818649 0.109307215 -2.070628 2.1790414 1.4877816 -0.09678875 3.9754326 -0.38229042 -0.23664868 1.0372224 -1.6234559 -1.8978481 -1.5989388 -1.5090407 2.800305 -2.6688693 1.4158261 0.24739355 2.956717 2.030779 1.7327827 -1.5821865 0.58001167 0.8437812 0.810012 -0.13744584 -0.8147118 -1.3798958 -2.1748378 0.3535419 -1.9370695 -0.9786307 -0.085674606 2.7800696 -1.1315674 -0.3809035 -1.4243413 -0.7712875 -0.10071833 0.75033677 2.0779867 0.38483107 -0.34738764 0.2849187 -0.10615575 3.7135713 0.16449083
包 -0.4526736 1.8598616 2.6606255 -0.32006258 1.9589553 1.1951859 -1.6079847 -0.499773 -0.53144854 2.0060651 0.67579746 -3.1340206 -0.14969389 -0.13416535 -0.5177578 -1.5989507 1.4241263 -1.7973342 1.5773672 2.0100536 0.40352944 0.52547985 0.28119123 0.12324476 0.5098767 -0.25005552 1.0984261 2.864518 0.8773502 0.5298735 1.9510349 -2.0043397 1.0499572 -0.6524557 -1.2884657 0.2604517 0.51841235 0.08281888 -0.9351636 1.0384822 1.9890993 -1.0164583 -1.9009534 1.6610907 1.5558051 -1.932 1.6957321 1.3982065 3.063754 1.0512373 -0.9503686 0.8603159 1.6678046 0.60466313 1.0328996 -1.4566702 0.8828396 -0.4414029 2.4093926 0.92182195 -1.9713176 1.6440564 0.55449975 -0.44130537 -0.9540216 0.7919887 0.26879495 -1.0732526 -2.195098 -1.7193263 0.16341123 0.9600925 1.5489883 1.8449427 0.22801127 2.4073737 -0.7296328 -1.203606 -1.3562486 -1.8148564 2.739353 0.8085855 0.99192965 -0.06866326 0.0756597 -0.053842098 1.6178364 -0.46138778 0.51826537 -1.6574466 0.3469689 1.6452694 0.36462933 0.3126117 -0.90302145 0.50492847 -0.9130598 2.317315 1.8236428 -0.9116281
鸣 -4.3548584 0.7124536 2.4789574 -0.34807873 0.3793505 -2.1954598 -0.66770023 -0.065480195 0.18596715 -2.233001 0.2490991 1.5873985 0.3591513 -0.7364832 0.36166722 1.3230445 0.67788386 2.0519161 -0.6032091 1.9963003 0.04601377 -1.1208596 1.1568164 -3.5456886 0.4035292 1.6786519 -0.6862506 0.968986 -0.32185796 3.2374587 1.8644482 -0.054417636 -1.7728274 -0.2719909 -0.9435151 -0.624807 -3.262602 0.77675825 0.35734978 -1.1459833 -0.4367703 -0.7219116 3.5442965 -0.8324461 -0.94065386 -2.4271092 -1.767016 0.98943734 -0.14512418 -1.6452625 -0.24481338 1.2759255 -0.25940895 -2.8105726 -0.40829647 -3.0853844 1.2739222 1.0351964 0.6405174 3.7873113 -0.1381841 -1.3531184 -0.07525291 0.12344762 -1.2273674 0.564475 -1.7581537 3.0416815 -1.7202665 1.0766433 -1.2693975 0.5405746 0.8375857 1.2964954 0.0064222547 -1.089198 -0.29669124 -0.62222034 -0.41574836 -0.8611964 0.8531401 -1.9050202 -0.24974118 -2.0124624 -1.2256556 -0.7046257 0.9864921 0.14003503 0.08506212 -0.5899558 -2.8040633 0.25187883 2.1869164 2.8848507 -0.044153225 1.6774228 -0.35093352 -1.5543512 1.0724016 0.15106732
肾 0.65227073 0.64859337 -0.86674786 1.8659275 -1.1837432 1.5388099 -0.5571814 0.13233727 1.0038756 2.4483867 -1.4984119 0.80204684 -0.054483768 -1.6961585 -1.3629502 -0.19958454 -0.21278039 -0.72570354 1.9722241 -0.8478642 -0.290468 0.9158253 -1.7222505 0.9088195 -0.05048348 0.33952335 0.29422584 0.9122081 0.61897635 0.3557293 1.1401154 -0.2703865 -0.5078669 0.39332303 1.7974181 -1.3499175 2.1972587 3.0240815 2.560186 -0.28935918 1.6215973 0.60669166 0.10142755 -1.303573 0.84957 1.9544804 1.1798056 0.07933645 0.10673819 1.0267087 0.07116649 1.1840458 0.92528176 2.2726476 -1.707202 -1.7756828 -0.4702461 1.2879381 0.9813756 0.21201545 -1.6617959 2.2405868 -0.23305431 1.1743715 -2.9519718 1.7135586 -1.4682882 -1.2230326 0.36386597 0.21246903 1.2799329 2.2988858 -0.8577508 -0.75942177 1.9924725 0.67625105 0.022921478 1.2457012 1.0376235 0.39170787 0.7727619 -0.77307695 -0.9051019 0.047780354 0.4460568 -0.13560538 2.471821 1.6446884 0.71831423 -0.25416636 1.1744877 0.860995 -0.6399481 -0.92668766 -0.9348275 -0.78259736 0.8398773 -1.3041041 0.51549983 -1.2870154
骨 -0.34290004 -0.19689824 1.0545549 0.98236305 -1.73391 -0.13881855 0.68878466 -0.103869565 -1.5203744 0.57599735 -0.050542165 -1.2081403 0.44812205 -0.085726835 -0.035515383 0.039791897 -0.61806107 1.4061068 0.392495 -2.1356697 0.19056307 0.1504349 -2.0850935 3.4212487 2.2232 1.4572768 1.3232108 0.0020910988 -2.0624402 2.83497 -1.7131048 0.13860708 -0.34825364 -0.4477593 0.1928065 0.0033965725 1.4253603 0.6698162 -0.5333331 0.3492155 -0.293376 3.1181836 2.0708313 1.1454788 1.5370079 0.36008736 2.7317753 -0.11624785 0.66988087 0.4528426 -0.322589 2.1105113 0.21858366 1.8054132 -1.4588739 -0.46512812 -0.80978954 0.4498835 -1.6917725 0.804048 -2.0231152 1.8714095 0.4470176 -0.721346 -2.7190742 1.6097691 -0.15845828 -1.2352111 0.40135282 1.128829 1.2371291 -0.5589722 -0.44951946 -1.8291578 2.2220702 1.604594 -1.053465 -0.18958317 1.9814299 -1.088053 -0.1438339 0.48018807 0.3141039 0.51332414 2.388733 -1.0840769 0.14505538 2.0215745 1.9354552 -0.41682523 0.18693799 -2.0478587 0.007125671 -2.0331233 0.7117292 -1.5261608 1.176132 -1.3403298 0.81558454 -2.722215
