743 100
， -0.6117816 0.23465346 -0.040094282 -0.5248636 1.0037956 -0.6752015 -0.39684042 0.48224533 -0.22323398 0.156121 0.63362753 -0.36932483 -0.932611 -0.042514037 -0.4387243 -0.0646915 -0.055919584 -0.12512566 0.9420667 0.7134428 -0.7793251 0.9567353 -0.22501592 0.046520334 0.051923383 -0.65612704 0.80453324 -0.062384706 -0.019085659 0.09965154 0.21825466 -0.44414136 0.6101454 -0.3599513 -0.85570276 -0.6129136 -0.020228278 -0.69171953 0.1981176 -0.32050782 1.3787692 -0.08014695 -0.010432434 -0.26832685 0.41059914 0.7146815 0.05172791 -0.4274772 -0.6922625 0.3249112 -0.8928757 -0.069940984 0.13092811 -0.393904 -1.0840302 -0.83387655 0.116352506 0.16098942 0.4748097 -0.36891848 -0.10605636 -0.18528372 -0.18206312 0.09139178 -0.13824296 -0.05002766 -1.073009 1.126429 0.05196838 0.47554347 -0.9367209 0.17033474 0.23190793 -0.6276515 0.32803902 0.7376437 0.08544757 -0.9234945 0.1353819 0.034518752 -0.63654006 0.32489628 0.22261816 0.5082793 -0.41237164 0.8116159 -0.031021709 -1.0532063 0.0053904317 -0.4335085 0.888682 -0.061895624 -0.3029793 -0.3539704 -0.02958671 -0.7659237 0.2248192 1.3141117 0.4725036 -1.0331804
。 -0.31250736 -0.5351487 0.1673174 -0.41284966 -0.3308395 -0.26245224 -0.21895401 -0.0345667 -0.5971643 0.38069087 -0.3599565 0.33199903 -0.76511484 0.3301756 -0.22745061 0.49008343 -0.3381485 -0.58056754 0.81684244 -0.04083497 -0.13637047 1.2774773 -0.6571056 0.118870705 -0.18642586 0.030054037 0.722544 0.5872059 0.34595188 0.8284957 0.310734 -0.31449047 0.087046355 -0.33632597 -0.6129308 -1.2700658 -0.5343188 -0.7547126 -0.039177593 -0.56612134 1.1897777 0.32521176 -0.28841624 -0.70015943 0.55247474 0.62462056 0.48505408 0.13591143 -0.6688372 0.6933719 -0.2752854 0.53336525 -0.049554862 -0.26528597 -0.6367573 -1.1787103 0.32966077 -0.0053813807 0.915989 -0.4328773 0.08192482 -1.1195284 -0.33825308 -0.014332586 0.121112764 -0.75700456 -1.8300413 0.5548794 0.2016181 0.06353804 -0.60148746 -0.16111195 -0.01614312 -0.77679145 0.48132583 -0.14372468 -0.44383273 -0.9983253 -1.0788921 -0.5655671 0.95992106 0.5603803 0.9938873 0.21216127 -1.7643443 0.92280793 0.17200844 -1.6799703 -0.37869376 -0.19419125 -0.19712104 -0.0069426647 -0.5169009 -0.15418972 -0.29651645 -0.60785353 0.27557057 1.1981199 0.20095558 -0.9256152
无 0.69043773 0.9301847 0.1476182 0.43686506 -0.5792078 1.3556043 0.49692324 0.119086124 -0.61459386 0.66268915 1.4392053 0.68165 -1.623106 -0.79570615 0.30418658 -0.1144154 1.1218137 0.79532045 1.3442848 0.5512508 0.8922362 1.0459961 -0.6280134 -0.17631273 -0.1029277 0.65327567 0.441453 -0.9654076 -0.6135444 -0.48666626 0.5597606 0.49262294 -0.120178916 -0.121696785 -0.8190617 0.08406419 -0.31696454 -1.2795358 0.64304405 -1.1694769 0.7794377 -0.057358634 -1.0152304 0.24499977 1.2895119 -0.8939771 0.10642374 0.3099668 0.6983648 -0.23831701 -1.3648565 0.9991187 0.46434638 0.5618271 -1.567597 -1.6038845 0.39952546 -0.41701606 0.38882354 0.36536467 -0.046931412 -0.15050535 -0.87483567 1.132222 0.1551583 0.79489714 -1.275751 0.52014124 -0.6348273 0.37328693 -0.8787348 0.63686645 -2.215796 -0.20894608 1.4028614 0.16197236 -0.48563358 -0.34556526 -0.73025227 -0.749664 0.29066673 0.59027475 0.4280694 0.21926904 1.5710243 1.1218017 -0.41371265 -0.42987525 0.64402 0.002427063 0.08474626 -0.80789626 0.7567557 0.19881065 0.78942686 -0.05092153 0.14385918 0.6518193 1.0498756 -0.73107594
及 -1.4583681 0.050001666 0.6786219 -0.24867125 0.6206491 -1.1718574 -1.4121608 0.056409296 -0.37814042 0.012675148 2.205288 -0.23212202 -1.2619013 0.25429463 0.75051796 1.0352947 0.27708888 0.86659926 0.9088631 0.88891137 -0.25152552 0.9592122 -0.65118253 0.034660712 -1.0385706 0.45451447 0.6420153 -1.3701506 0.67928886 0.5042125 1.5598024 0.22489621 0.20963788 -1.5021342 -1.7636967 -1.7111031 -1.6478657 -0.110792376 0.5256788 -0.45662943 0.4347273 0.33826 -0.61092246 0.80035883 0.57696325 0.101326026 0.8491774 0.40439123 -0.45390475 1.2512395 -0.49450117 0.29576296 0.43985718 -0.36876652 -1.0675907 -1.830179 0.26287305 1.1163754 -0.37348372 0.11812589 -0.8453144 1.3620143 -0.35474992 0.705527 -0.18837231 -0.98428667 -1.5865886 1.4436424 0.13987027 -0.4653567 0.017191632 -0.4912464 0.11126719 0.2005386 1.3211279 0.3616658 0.17786486 0.20736483 -0.5273535 -0.24880126 -0.2965039 -1.0098124 1.2456031 0.50680715 -0.25571176 0.8127669 1.6142716 -1.3953031 -1.3680111 1.3124464 -0.8057619 -0.5708926 -0.23220228 -0.101640105 0.3836031 0.7438304 -0.640924 0.906702 0.097604334 -0.5896815
痛 -0.30061045 -0.6196356 0.9963315 -0.19540045 1.2721323 0.25951168 0.487366 -0.75144964 -1.1111776 0.6104014 0.045043267 -0.045160294 -1.3724838 -0.033394035 0.7824782 1.6078708 2.3209605 2.0923293 -0.4241192 1.87278 0.013942495 0.22912899 -1.2884514 -0.01316991 0.65385735 1.1285902 -0.41001666 0.23630953 0.028978651 0.8020258 0.52140045 -1.22934 1.3490454 0.6332348 -1.5330818 0.7632728 0.2108019 0.878434 0.45560622 -0.60214734 1.4262332 0.62074286 -1.2520595 1.1623966 -0.28361768 -1.5168786 0.7410366 0.50327975 -0.8332897 -0.4010817 -0.98738587 0.09626726 0.8864721 0.507596 -2.2662983 -1.3262984 -0.35551885 -0.048632465 -0.20100483 0.055774294 -0.17054304 0.025619224 0.5447853 -0.072691396 -0.047096882 -1.0207236 -0.06485266 -1.3184146 0.5022174 -0.61534405 -0.9444698 0.2566694 -2.6637473 0.22964513 1.2249912 0.7692194 -0.054696057 1.043213 -0.59041953 -0.15929216 -1.4743836 -0.36108437 -0.1441999 1.6892973 1.446592 0.89035666 0.7677375 -0.8209129 1.8359445 0.2440131 -0.37292925 -0.16086113 -0.9157729 -0.451256 1.71838 -0.6875638 1.4890649 1.0148315 1.1450067 -1.5592802
未 0.4386721 -0.71167326 -0.040438 -0.14031841 -0.052958805 0.4844787 -0.8406163 -1.6332256 -1.0545092 -0.657865 1.8069746 0.93722147 -0.54091996 1.0548136 1.1738454 1.9425197 -1.1884993 -0.47977927 2.2432013 0.4095634 0.60253114 -0.5209052 -0.9467949 0.4822389 0.33950132 0.1929227 -0.15133597 -0.19786099 1.5160129 0.6679268 1.2358392 0.20445465 0.3253296 -1.1902918 0.29626125 -0.10008627 -1.1170034 -0.66625625 -1.7017894 -0.03336903 0.11777521 0.17753969 -1.1187285 -0.13087733 0.75229543 0.6254195 0.23858988 0.7451389 0.13355954 0.8902428 1.3779855 2.0547624 0.69617313 -1.0320752 -0.29737782 -0.9550944 3.2285876 1.094541 -1.5077904 -0.43018934 -0.103345886 -0.1590461 0.9912667 -1.0219091 1.1216348 0.02878504 -1.6840609 2.0285385 -0.7782504 1.0591309 0.6105331 -0.25240448 0.36097217 -0.036699723 1.0472835 0.9723638 -0.23592418 1.429222 -0.110014856 -0.69819915 0.92070025 -0.48603284 -1.0338597 1.1802471 0.04429797 1.390255 -0.22812526 -1.1984792 0.95327985 0.46224463 0.6687959 0.69237655 0.04928841 1.1497737 1.1928566 1.1486338 2.2413697 0.9305951 0.2792054 -1.8028927
常 -0.7840254 0.6034527 0.02617112 0.4906382 0.808345 0.50564504 -1.0556598 -1.0325856 0.13881536 1.3824136 -0.42888567 0.5280013 -2.3826334 -0.2660809 -0.45306882 0.7461704 -0.32751262 -0.22774367 -0.91286457 0.8589565 -1.1887529 -0.32907173 0.7885164 -0.17971629 0.08433881 0.11251484 0.08301142 1.1870075 1.2202551 1.5128994 -0.36420566 -0.07755007 0.5444496 -0.99803054 -0.95311344 -0.724983 0.474935 -0.24013087 -2.2858615 0.6594064 0.7116081 1.7502083 0.3931445 0.008001608 1.0642482 0.017033234 -0.5817097 1.103519 -0.6323964 0.7473432 0.7091673 0.62459123 2.6629574 -0.13771915 -0.07349628 -1.2940365 -1.5391507 0.8311215 1.7663187 -0.9050792 0.8150674 -0.5345945 0.5447021 0.7892194 0.37769225 -1.5902157 -1.9081719 -0.00737994 0.04834767 1.157315 1.0019152 -0.040884726 1.1584837 2.8727846 0.9259004 -1.0696738 -0.9998476 0.53559875 -0.036246292 1.5529038 1.7984233 -0.5443569 -0.6625046 0.5384678 -1.7422272 0.5293561 0.035841115 -0.9265486 -0.34630185 -1.0262907 -1.0059848 0.9439192 0.1758752 -0.38915873 1.1024201 -0.43675682 -1.3210022 0.85554194 -0.8072269 -0.71039855
腹 -0.012458139 -0.34405813 0.14147769 -0.20656228 1.1297714 1.1339043 0.24285886 -0.32658222 -1.2402147 0.8717176 1.1596129 -1.0599349 -0.3643787 -1.7088634 0.6886422 1.1275526 -0.089722864 0.5593113 1.0535604 0.88818157 -0.916905 -0.11494485 -0.56899774 -0.1617295 -0.73495185 1.0792712 -0.23452602 -0.5190058 0.73100936 0.31092384 1.4083531 -1.1690592 -1.059642 -1.0510225 -0.67839587 -2.1389065 -0.6970485 -1.1119503 -0.44415975 -0.7539832 1.2636683 0.4788678 0.07125476 0.7987748 0.6043466 0.8279448 1.5737109 0.04725826 -0.85070664 -0.6626186 0.7271718 0.6195693 1.3007771 0.27425686 -0.6852275 -0.48445258 1.4620403 1.7361783 -1.0099907 -0.8439813 -0.19541481 1.0855709 -0.19546826 0.005400761 1.2881829 -0.9685532 -1.4311283 0.77955997 0.0027965684 0.65790474 -0.33196756 0.6870561 0.26057246 -0.33611894 1.5348173 -0.6806549 -1.3261333 -0.08750276 -0.18355289 -0.8812353 0.7083967 -0.84902495 0.28819856 1.3513104 -0.49304214 1.8168468 1.6574156 0.15337197 0.40292957 2.213074 -0.56162417 1.7969382 -0.62541574 0.81180656 0.5709056 -0.045978706 1.4977251 3.0532115 -0.30287525 -1.7661842
音 0.72173935 0.6357611 -1.4445009 0.31566533 0.081835 -0.8094296 -1.2930734 0.0040351683 -0.5948537 1.8394929 1.5708413 -0.291441 -2.0086956 -0.1630251 0.47528014 1.5752639 -0.2193498 1.3336939 0.3924176 1.538216 1.8133919 1.930355 -1.4685394 0.42460367 -1.2645358 -2.0637386 0.023407765 -0.46044207 1.4490969 -0.60682005 0.54116344 0.5381152 -0.5194976 -2.5013745 0.9630021 -1.5919867 -0.03010274 -0.5795248 -1.9746243 0.7991237 2.2910855 -0.71987426 0.7442302 -0.5852877 -0.14683725 0.61855555 2.0532236 -0.11938761 -1.3023584 -0.07091603 1.6412044 0.91269636 0.18746175 -1.0796374 0.08197254 1.1915445 2.2510626 0.715608 -0.6837974 -1.285069 0.044862486 -0.7027997 1.2174467 -0.7071489 -0.7696793 0.25723642 -1.6764213 1.0165716 -0.41789237 -1.232011 1.1698304 0.5378982 0.979109 -0.0103470385 1.699577 0.61170375 0.17475103 0.3578042 0.5210967 1.4784057 0.922452 -0.24156952 0.76411813 0.26306322 -0.38424787 0.23717357 1.7657418 -1.02868 0.45019564 1.4964998 -0.130968 0.9670258 -1.902127 1.0089756 -0.3540413 -0.12434901 -0.4260761 0.52937025 -0.1416452 -2.1559205
双 1.4000784 -0.13586538 -0.344667 0.9822057 -0.999881 -0.19559407 -0.84317166 0.72742057 -0.9371703 -0.57784796 1.1672745 -0.7235999 -1.313716 0.7084668 1.0524462 -1.2189603 -1.2077883 0.3808082 0.5767915 1.6380875 -0.10087105 0.5643493 0.36853865 0.86289996 -0.57885635 -0.54348505 -1.1021743 -0.8584245 -0.14888872 0.6687306 0.58664864 1.2952852 -0.45071888 -0.27790236 -0.123655856 -0.72318727 0.87372583 -0.9256223 0.16805439 -1.1409893 -0.123761944 0.7018904 2.0479984 -1.2776858 -0.86358494 0.055442132 -0.109545216 -0.38785937 1.1936774 0.31090036 0.64023584 0.83737004 -0.09924085 0.18637738 -1.3612603 -0.43635085 1.3336889 -1.0761982 -0.62088776 0.69860965 0.71568626 -0.8193573 0.1994702 0.33801255 -0.9874465 -1.3685251 -0.4834072 0.7920112 0.89730936 0.04420473 -1.0364705 -0.35719088 0.6897684 0.8396346 1.0559694 1.0389274 -0.39714628 -0.017136956 0.23188059 -0.30017966 1.8131473 -0.4732575 -0.784789 1.0064708 0.319438 -0.97646374 -0.6086176 -1.3474288 0.33827072 -0.44676492 0.37248757 -0.8264359 -0.7991758 -0.104406476 0.2503239 0.17274645 -0.21315946 1.0566726 -0.8580625 -0.048431594
部 -0.090173095 0.13503158 0.050606545 0.8173141 0.3463096 -0.31535083 0.2734104 -0.6501159 0.430691 -0.6824146 0.16317633 0.18439248 -0.016189318 0.4831826 1.4218411 0.46210134 0.54782295 -0.33673334 0.06477038 2.875633 -0.2806452 -0.6709943 -0.8671728 0.6060885 0.79696566 0.93327904 0.890412 -0.63813597 -0.39067632 0.769112 1.0433799 -0.88085437 -0.043445613 -0.7831108 -0.2553718 0.38676137 -0.037370503 0.9865127 0.027531886 0.4055709 1.2251906 1.7877617 -0.74754477 1.6583898 -0.5138426 -1.2326896 0.5599617 -0.119656205 -0.37734956 1.225215 -0.7315198 -0.012851261 -0.34575036 0.12126427 -0.30986553 -1.2796204 0.028392037 1.0764339 0.29691848 0.9529476 -1.7803339 0.89378166 -0.32089087 0.3296369 0.9847168 -1.3606024 -0.42768395 -0.2089075 0.21236323 2.5314162 -1.2573417 -0.45272192 -1.0666323 -0.7636375 -0.69440776 -0.6113194 0.251987 1.862666 -0.3625402 -0.51772594 -1.1504462 0.1772581 -0.08055566 1.401989 1.1445379 2.5920477 0.19478878 -1.9658049 1.0806578 0.89269394 -0.14843537 1.7613977 0.11849495 -0.009421368 2.231275 -1.9356414 1.5627344 0.5470576 1.0220289 0.13917966
正 0.19592236 -0.4464387 -0.27061674 0.24059884 0.5550895 -0.8405449 -0.0073276106 -0.9418094 0.85409015 -0.09952306 -0.6537109 -0.8565051 2.2894516 -0.57115453 -0.43653938 2.5411196 -0.7308034 0.066609964 -0.10010586 0.58469296 -1.7112377 0.18525217 1.1305914 2.1176836 -0.5800731 0.037363995 -0.4509684 2.0377254 0.4528187 -1.6190478 -0.38226393 1.0633458 0.9217224 0.8800694 -0.2828145 0.20519505 0.050347164 0.6325216 -0.3277711 -1.2822244 0.7561246 -0.77440673 0.52030903 -0.32111543 0.4926612 -1.3369292 0.66874737 -0.3653944 1.6479255 0.9484673 0.84727895 0.3241634 0.6905806 1.0211532 0.939737 -1.4566326 -0.6678616 -0.13088022 0.30913466 0.15436704 1.3440942 -0.18279815 -1.0690587 -0.74244803 -0.9035705 -1.8631198 -1.5485052 1.2268997 -1.5938257 0.58942753 0.16285142 0.95790374 0.9131258 1.682578 0.37904462 -0.607828 -1.7317207 -1.6063025 1.1849533 0.89058465 0.86745924 0.050623976 -0.12388933 2.016974 -0.115550555 -0.14684117 -0.185836 -0.719795 -0.60243267 -2.9151971 -0.9049661 -1.111908 0.85226613 1.2261206 0.21894754 0.45530447 0.90374273 0.86138237 -0.18578205 -1.4637226
肿 1.0916897 1.500126 0.61371005 1.2988752 0.39214885 0.6680006 -0.95483506 -0.24152961 -2.1144323 2.138236 -0.16474289 1.0120425 -0.80271673 -0.8799869 0.3602827 0.39223137 0.5867592 0.72360367 1.6196826 2.2004113 -0.2617005 1.1515014 -1.7960961 -0.9924169 -1.6823853 1.6096977 0.03698821 0.10794287 -0.63018906 -0.9858861 -0.61797225 -1.7142371 0.0067758085 -0.16388288 -0.4969499 0.03304403 0.95260286 0.6335962 -0.16005525 -1.4270867 0.48358786 0.38881576 1.4081116 1.7258571 -0.37689397 -0.85076785 -0.31113008 -1.1166958 0.02420852 -0.46300718 -1.6493434 -0.5197003 0.6900548 1.5058581 -0.73288393 -1.0003778 1.6879295 -0.03490964 2.3485587 -0.9303926 -1.3720027 0.9530759 -0.922373 -0.6174541 -1.2169003 -0.23998387 -0.7490139 0.6632623 0.81025296 -0.8553133 -1.4198924 -0.2797671 -2.3713148 0.10401402 0.5886137 -0.22898671 -1.8881084 0.3996856 -0.84306115 -0.5912845 -0.4083071 -0.86394817 -0.72513723 0.35727343 1.486558 2.0136027 0.28842866 -0.42845142 1.6210276 1.8336419 0.22126378 0.7093461 0.027151767 -1.0519458 0.4242494 -1.0338912 1.853133 2.236867 0.11271435 1.0510406
动 -0.87040216 0.28686678 0.12225269 1.5593189 0.9184745 -0.46632704 -0.32186827 0.2058049 0.13605545 0.23623316 -0.52400076 0.049903262 -1.4017451 1.5642548 0.6600047 -0.645612 0.08395454 0.44767132 -0.2850217 1.0276036 -1.7961031 1.4793499 -0.54531854 -0.3299331 -1.3204187 0.29467368 1.071749 -0.047984827 -1.5525498 -0.35792702 2.174631 2.0155609 0.8876771 -0.6498491 -1.2041193 0.42414987 -0.65250635 -0.16026488 -1.3778256 -0.6078137 1.9970531 -1.4604682 0.47765645 1.0333655 0.67264634 -2.5212092 0.3390219 0.84948266 -1.0033809 1.1822501 1.0006299 0.4976795 -0.9390706 -1.6595738 0.04564059 1.3609102 0.053441904 0.46836787 -0.42424047 0.025768677 -1.6186959 -1.6509953 0.9784667 -0.31609982 0.46111435 -1.2007692 -0.5750359 -0.13941738 -0.16163477 -1.3785537 -1.7169833 0.5722654 -0.73856765 -0.544231 -0.34803748 0.6626429 0.99381447 -0.6355488 -0.5998136 1.3414243 -0.08122017 -0.33917376 0.73628837 -1.5308812 0.79563546 0.1049715 0.616233 -0.7478986 -0.2465232 0.46246502 -0.77484864 -0.269434 -1.0175858 1.2603401 0.3721048 -0.53176636 2.1135876 -0.46174368 0.2652288 -0.70868796
可 1.3746256 1.0675043 0.41437942 1.1912293 1.5404949 0.117412336 -0.8485616 -0.18276659 -0.38330853 -0.27088735 0.0152312005 -0.3312959 0.06892622 0.18216076 -0.11286186 1.5971409 0.7378961 -0.2794301 -0.5906578 0.7606748 -1.2246768 -0.39841348 -0.95045215 0.97463876 -0.49239022 0.6985734 1.55478 0.986515 0.9735364 -0.8386077 0.9042827 -1.2423443 0.39682686 0.20917086 -1.3156052 -0.98339987 -0.28803527 -0.12747262 0.094824605 -0.9322733 0.3235918 1.5234451 0.5615443 -0.6116586 -0.0033189722 0.14787596 0.19089873 0.3458434 -0.712843 0.8517683 0.94133294 1.737582 0.6945145 -0.5748665 2.6135824 -1.2662588 0.35391277 1.3785627 -0.7890687 -0.49283007 0.012546709 -0.38178617 0.31237665 0.23370567 0.256728 0.62308514 -1.1386524 -0.070714206 -0.2622907 0.3855369 -0.01819147 0.19932447 0.8964559 0.5079083 0.0028124165 -0.15833062 -0.6390523 1.8326831 -0.10538134 -0.31861478 0.14719719 -0.022012522 0.01775527 1.7216008 -0.40318465 -0.08150704 -0.3723093 -0.9254379 0.0035421073 -0.19796923 0.117187604 0.47244325 0.20914693 0.314075 -0.12191188 -0.8687239 -0.74139434 1.5302671 0.37227482 -1.1342685
性 -0.33575693 -0.48489517 -1.3649297 -0.38450542 0.76466167 -0.74163216 0.40068313 -1.1769559 1.6449444 1.2901306 0.6725619 1.5686793 -1.2828127 1.1381181 -0.113504335 1.3264974 -0.07297889 1.1990441 0.38042504 1.7205997 1.2044737 -0.36899307 -0.27352732 -0.24157107 -0.7056235 -2.2369921 0.15859401 -0.45690513 0.36675778 0.035763644 1.6003643 0.9743654 -0.2981473 -2.6577065 0.4856964 -0.57053053 1.1843203 -0.44028968 -0.79588705 -0.45374894 0.53662056 0.47706208 -0.32564145 -0.8634944 0.018082181 0.4514346 1.6377189 0.16926418 -0.83416903 -0.81313676 0.60403025 -0.07004999 -0.29954174 -1.1392955 -0.75385934 0.9096568 0.9496928 -0.14337258 -0.60002846 -0.5739627 -1.3631718 -1.2950898 0.9217141 -0.074853174 -1.2104956 -0.12785684 -0.6351612 1.0444045 1.8084625 -1.2511156 1.2848539 1.6330178 0.21085659 0.8271598 0.5695421 -0.023867834 0.3924137 -0.4635985 0.24959497 0.72416914 -0.037580863 0.22378853 1.2749553 -0.61985 0.061652884 0.2181978 1.756438 -1.9401735 0.44217983 1.5392507 -0.16342385 0.8319678 -0.65586036 1.305543 -0.52675605 -0.60879946 0.5767568 -0.11576452 0.9317694 -1.0798136
压 1.3764644 -0.083145745 0.01931813 0.5892639 0.510152 1.2149551 0.5490011 -0.06422128 -0.60153973 -0.9015128 0.7439598 -0.6134202 -1.2773411 1.3795788 -0.527996 1.0310717 -0.07338836 1.2569163 0.23588674 2.4006174 -0.41539776 -0.10188969 -0.54254234 0.37190333 -0.15391487 1.8586267 -0.036571927 -0.900522 -0.24133022 -0.61209345 -0.18981916 -0.8610344 1.3285826 -1.4005829 -1.3370152 -0.16191173 0.5459524 -0.010426537 0.28205606 -0.7958672 1.951433 0.46157873 1.2321786 1.9682976 1.602005 0.2853222 0.09111087 1.0485026 -0.011526656 0.19233525 -1.0961684 0.054561913 -0.4858824 0.9040471 -0.865173 0.9412904 0.0380884 0.0014162696 -1.4326649 -0.41761363 -0.5829339 0.8301009 -0.40305215 0.87632126 -0.061984774 -0.825713 0.28114438 0.011080961 1.4364737 0.94992286 -0.29251093 1.4324887 -1.5467461 -0.14093931 0.7645755 0.4416524 0.39860535 -1.013738 -1.2637681 -1.2750511 0.16065037 0.5513104 -1.3816661 -0.1918202 0.21120955 1.6617708 1.8374766 0.41004306 0.43311062 1.8841106 -1.20867 1.6864344 -0.30778372 -0.62143815 -0.010603786 0.31466618 1.3202802 1.2748799 -0.9814387 -0.94346625
侧 0.3202599 0.399268 0.24371028 -0.031049944 -0.38212422 -1.1566099 -0.46569833 -0.95667404 1.3815973 0.60542464 0.9014034 1.0054808 -0.35901847 0.37473196 0.28776428 0.12114108 -0.23451705 -0.3613755 -0.32757267 1.7269591 -0.4686904 1.4693516 -1.2725588 0.21606271 -0.6768091 0.7730339 0.0058741043 0.03203964 -1.4232463 0.050668925 -1.3336495 -0.5127414 1.0688659 0.91362923 0.34288493 0.008069983 0.5695513 0.16112383 0.11825693 -0.28026775 0.17344047 0.6698674 0.14241947 0.005935202 1.7308447 -0.6658673 -0.11483424 -1.0533109 1.1242708 1.0905931 -1.9354124 0.8057422 0.6860029 0.3398606 1.0033869 -0.026834521 -0.07267633 0.35052323 0.14870547 -0.58705115 -0.36089343 0.4195704 -0.15919934 -0.3416122 -1.0250293 0.20873316 -0.072397634 0.5774873 -1.1742235 -0.8455242 -0.105135486 -0.074535 -0.97783095 0.9385627 -0.7852365 0.7917662 -0.7440069 1.0285459 -0.058883246 -0.012812987 0.21284282 0.3460989 0.107646845 -0.051828947 -1.3329144 1.2072716 0.34875765 -2.6381528 0.96060187 0.5717839 -0.9494477 0.6866588 0.35285002 -0.60276455 0.87127995 -0.79777807 1.0302309 0.3402728 0.04934567 -0.08061182
触 0.5368435 0.30470282 -1.0049574 0.9457611 -0.090375125 0.1180185 0.13584994 -0.60858333 -0.42247885 0.5261052 1.6946436 1.4037944 -0.040517136 0.18496577 1.3918731 1.6556538 -0.5357313 1.2915951 0.75635797 3.1451163 1.7740813 0.16216555 -0.45381197 1.6399412 -1.4174011 -0.6845701 0.13159133 -1.0966003 -0.120498806 -0.79305875 0.075819895 -0.30344465 -0.35241672 -1.5275382 0.4414521 -0.1934261 -0.85035133 -1.5238686 0.5437595 0.54173315 1.1536783 0.14265159 2.315627 1.5394655 0.412686 -0.7928105 -0.55163 -0.97989076 -0.825799 1.1754866 -0.7808575 -1.3259928 -0.43378088 0.24805771 -3.7177634 -1.4747502 -0.43968466 1.2343067 -0.63973606 -1.0699325 -0.6509321 1.8017322 -1.3176032 0.07333462 -1.1343229 -0.79812676 -0.46293032 -0.89617425 0.02104729 0.525924 0.22889431 0.23717096 -1.9375024 0.65282536 0.3382622 -0.37321895 -0.37939823 0.7828093 -2.1505988 -0.8882371 -0.4287204 0.56473655 -0.5074158 0.83681387 0.49212718 0.70026016 1.0408705 -0.25943515 2.04613 1.112857 -0.06228898 0.4211893 -0.31680202 -0.1555029 0.28583723 0.2822766 -0.057976305 1.5594642 0.4489591 -0.7304371
体 0.43993866 1.4910003 -1.7844112 0.7349614 0.013430915 -0.9277708 -0.2864877 -0.48382142 -0.3632098 -0.5999948 -1.3192744 -1.0450711 -0.94844997 -2.5004632 -0.8678356 -0.00096330955 -0.9789592 0.037073024 -0.28690854 0.12399174 -1.959853 -0.047952276 -0.42244238 1.6159244 0.77016586 -0.15869781 0.37058586 0.7137176 1.8504047 0.5353061 -1.2571895 0.14418332 -0.23176214 -1.4492108 0.41664752 -1.905376 -0.15111277 -0.16335176 0.2022964 0.036925007 -0.6583499 -0.2932996 0.29364377 -0.790901 1.1115801 1.106808 0.9113493 0.9918455 1.7799472 0.0953162 1.5586139 2.1067762 -0.13764362 -0.015052678 -0.31961402 -3.291505 -0.76359135 0.60926247 1.1279697 -0.9849817 1.2981815 0.2555189 0.9275458 0.4298511 1.732245 -0.6245446 -1.9516035 0.71121305 -0.6893084 1.606446 0.50584185 -0.09705001 -0.23705426 1.316578 -0.65102607 -0.28048614 -1.413307 1.0293363 -0.73906606 1.5264626 1.9915811 -1.0051469 -0.31014785 1.8735408 -2.0178616 -0.79274976 -1.6340653 -2.1233628 -0.68139166 -1.3821645 -0.4215721 0.28023076 0.21504205 0.9886164 -0.71734875 -0.14699663 -1.1961528 0.5693782 0.09021998 -0.32881936
神 1.2370995 -0.40134454 -0.9499766 0.16074426 1.3022541 0.02186875 -0.062774815 -0.86510813 -2.5890248 -1.101287 -0.36977786 -0.31920052 -0.631918 -2.163467 -0.052230105 -0.9656514 -1.5817952 0.50958043 -0.52214557 0.24278693 -0.7480171 0.4723796 -0.19719747 1.4546382 -0.05976335 -0.18332872 0.3495665 -0.67810434 0.7724524 -1.9414713 -0.9937729 0.18498793 -0.96277994 -0.51027507 -0.49752432 -1.2277776 -0.1264835 0.065679565 1.9662206 0.9244846 0.27714735 0.06312755 0.9217914 -1.0149392 0.606478 1.5989496 -0.61929613 -1.5415144 1.1359785 1.1901909 0.8163144 0.94479513 -1.0228293 -1.274817 1.1399415 -0.73550636 -1.0404532 0.28366062 -0.5255816 -1.488829 2.215521 0.14583413 1.7225279 -0.04728958 1.6484044 1.2642336 -0.38465935 0.5955139 -1.2217901 0.21753527 -0.46021605 -0.080155335 0.15414754 -0.7108623 0.8473642 -0.48828495 0.6324123 1.56092 -0.8838646 2.034702 -0.42162666 -1.0488664 1.0749898 1.9840089 -0.42540595 -1.7254357 -1.9665921 0.55265623 -0.79193527 -1.4534853 0.10698165 0.08766155 0.3608982 0.9695386 0.21110117 1.0905453 -2.5740628 0.7206269 0.059135333 -1.4251642
查 0.675406 0.1504056 -0.0018502638 -0.03220291 0.27678242 0.36763552 -0.89158714 -0.35337093 -0.8987876 -0.53598785 -0.9480757 -0.0845769 -0.6406163 -0.9102879 -0.10555371 0.9463429 -0.51050514 -1.0602008 -1.1830717 -0.7977175 -0.93715733 -0.3733326 -1.9184778 0.784913 0.50862044 0.20804703 -0.5772256 1.4903817 1.8030728 0.2725328 -1.4552158 0.86408794 -2.5282779 -0.94504863 1.0140405 -1.26695 -1.2245271 -0.42571023 -1.1090657 -0.6581829 -1.1295345 0.20543209 0.37672526 -1.2222246 0.5039557 1.9371493 1.1714818 0.21803662 1.6673156 0.07492851 0.15932932 -0.4569101 -0.5291103 -0.7709571 1.4599276 -2.1250958 0.17218022 0.7136966 0.006856992 -0.6975235 2.5370908 0.32990846 -0.27122864 0.72717327 1.6024274 -0.5357544 -1.9766988 -0.39382222 -0.4918791 0.98897785 -0.11530066 -0.36746597 1.892242 1.1659709 0.3308121 0.8188841 -0.9656895 0.23591517 -0.68396866 2.3014843 0.99977016 0.24383853 0.56712484 2.371511 -2.3187404 0.8002726 -2.5340984 -1.7221156 -1.3358961 -1.2091589 -2.0433934 -0.2243454 1.3897882 0.99466455 0.5103304 -1.484899 -1.6051226 -0.28813377 0.22209297 -0.28395003
见 -0.90560186 -1.0326974 -1.0310799 -0.22935955 -1.1492401 0.3540103 -0.97370535 0.6057145 0.4478853 1.625296 -0.2281973 0.6052796 0.1272768 -2.4341063 0.9343427 -0.36758742 0.80492187 0.6945451 -0.35442483 1.2467086 0.8974956 -0.11343046 -0.30131233 2.1001685 0.4359399 1.0161384 0.28438625 -1.6710609 1.7329687 -0.888013 0.88153356 -0.93713456 -1.5832951 -0.81530577 1.0101647 -2.1620762 -1.3139366 -1.9255208 -1.6390883 -0.53489643 0.26277095 0.37198457 1.1097033 0.9304318 1.6386719 -0.5359225 0.84528023 -0.71456856 1.3221865 0.20423654 1.8390808 -1.8733271 -0.99513674 -0.75718474 0.03764918 -1.385582 1.4584851 2.8821998 1.8830671 0.03266812 0.11403924 -0.6137041 1.4208179 -0.250313 1.9016957 -0.75578374 -1.1217456 -0.14987923 0.24000978 2.4691436 -1.07774 0.21673806 0.21030904 0.9770787 0.5474346 -1.6656404 0.5127771 1.4181763 -0.47991544 0.9899421 0.54918784 0.055090606 0.4747528 2.448267 -0.9275821 1.1809977 0.67344975 0.2456679 -0.7712689 0.39034805 -1.2344825 0.1305735 0.8154463 0.9863728 0.015894476 -2.0591962 -0.24193528 0.40182677 -0.100367635 -0.32325643
患 0.91229403 -1.3579377 -0.13245498 0.062420733 0.2696365 -0.20209742 0.025910255 -0.4948386 0.95013434 0.05420095 -0.08088489 0.26954955 0.93758005 -0.946075 0.24087691 -1.3779833 -0.37318996 -0.07949185 0.087666415 -0.37997735 -0.25962093 0.38998884 1.224359 0.16910358 0.41337693 -1.8974755 1.8602505 0.40194142 0.56028265 -0.05600414 0.16577527 -0.61600673 -1.9411583 -0.32188 0.15405439 -0.76726854 -0.2815415 0.070511594 2.0940857 2.4244258 -0.6633236 -0.15711018 0.84505796 -1.0478872 -0.9336462 0.51092327 -1.3590579 -0.71760046 -1.0634837 -0.32175282 0.3933692 -0.63233835 -1.3131344 -1.2404842 2.3203547 0.33927286 -1.4275932 0.72087896 -0.59454983 -1.2416939 0.83654225 -0.69650257 0.8314972 0.30040035 0.50572205 1.7259287 0.5947882 -0.7154187 -0.20683753 0.34275484 1.6008784 -1.480222 -0.464668 -0.30318037 0.26307976 0.651643 2.1007512 -0.50685173 -0.26890966 0.2836042 -1.6197824 -1.8463548 -0.24918075 0.38913935 -0.724522 -0.47258422 -2.50974 1.6024504 -0.5811289 -1.3629317 1.0348213 1.4261048 0.9296595 -0.5050165 -0.51186335 0.95409846 -0.2751901 0.46856263 1.0685903 -0.23745559
者 1.2127609 -0.2282592 -0.6199395 -0.91964626 0.39947176 -1.5401145 0.8378223 -0.40143877 0.23315056 -0.044696428 -0.7825286 0.16014595 0.5138143 -0.59097946 -0.90216976 -1.321691 -0.34178776 -0.12240632 0.4185197 -0.44386303 -1.2008625 -0.68771094 0.6941956 0.9749802 0.4607835 -1.3449379 1.149707 0.049044523 0.5747385 0.4413073 0.41899416 -0.5572177 -1.5889119 -0.52625185 -1.5298756 -0.8593568 -0.23578715 0.08636681 2.2397807 1.784857 0.046629272 -0.7899693 1.1013088 0.16360644 -0.9300172 0.12529904 -1.4638379 -0.37180755 0.104496844 0.80950683 0.28197896 -0.7756945 -1.2033284 0.09966824 2.2241402 1.3708222 -0.26933354 0.8915911 -0.9125563 -1.1385916 0.46086246 -0.31541377 0.7415525 -0.23157132 1.576009 0.6556911 -0.22750282 -1.8157994 -0.7859198 0.53450406 0.786294 -0.93193084 0.9865366 -1.5630261 0.78028643 0.5607171 0.9395009 0.55704075 -0.86916137 0.2608381 -1.892265 -0.45198664 0.3398299 1.5669141 0.111300446 -2.2122686 -2.0436857 2.1406715 -0.42737058 -0.42763513 0.00737209 1.4386883 -0.059191104 -0.46291035 0.19105773 0.07626885 -1.1013819 0.19516215 1.6775846 0.14938545
心 1.0465857 -0.113358065 -0.27669936 1.2802819 -0.28561682 1.3414705 0.13818239 -0.06121705 -0.50473815 -0.70994186 0.9957341 -0.8168726 -2.5515563 -1.519454 0.8964187 -0.013027257 -0.9799257 -0.33643946 -0.64830935 0.09013808 -0.12305319 0.5711298 -0.8669294 0.87419224 0.38059455 -0.43137214 -0.19186395 -0.30917162 2.4981005 1.3996829 0.91304135 -0.75511384 -0.5693246 -1.7940251 1.6813445 -1.2975575 1.3001385 -0.66333896 -1.5290155 0.079605915 0.12618664 -0.4551956 0.3100717 -0.5887138 -1.3790702 2.213544 0.68439466 -0.41533822 0.68363386 -1.9207546 0.5527597 -0.2222658 1.4679033 0.3963943 -0.07609637 -0.8238088 1.4613138 2.2362423 0.11975375 -0.16857098 1.2360638 1.5527618 -0.06442741 -0.25805447 2.4597242 -0.21493782 -1.219989 0.23713836 0.3986988 2.8735507 0.35328087 0.05865147 1.4275261 -0.9013882 0.37189344 -0.20675571 -1.0708492 0.5091406 -0.4365647 -0.23430057 0.10655307 -0.29649144 0.9538034 1.6899743 0.80420506 0.23001365 -0.5290591 -0.9210436 1.222354 0.40195382 -1.1086295 0.6706256 -0.6371872 -0.33787274 1.4138755 0.40356982 0.56224436 1.9214126 -0.5189388 -0.69040185
、 -0.34993714 0.29350352 0.8754145 -0.29932243 0.25269306 -0.8676364 0.40902245 0.30662343 0.096541494 -1.0720671 0.73914415 -1.2852414 -0.27789992 0.19859134 -0.40321395 0.07789067 -0.21705739 -0.5170915 -0.40378776 0.8580764 -1.2552845 -0.55237275 -0.8547754 0.5214398 0.23182684 0.05880821 -0.098799035 0.25602135 0.038950432 0.34329206 0.7622951 0.14460078 1.39436 0.84091556 -2.6812174 0.3052682 -0.5332371 0.08617085 0.94356596 0.050293673 0.6041105 0.036054343 -0.40569624 0.8323666 0.8630488 1.2003536 0.42499638 0.119964786 0.17546107 -0.2403057 -0.7592047 0.16349624 0.84923476 0.06661777 -0.50271565 -0.51354337 -0.3082598 -0.05733999 0.22859919 0.0755705 0.582625 0.9454014 -0.61426973 0.7445654 0.37654948 0.05017377 -1.3776044 0.38548964 0.06691876 0.2505257 -0.8021323 -0.4129343 -0.8881485 0.42550534 -1.083955 -0.35609892 0.65604085 0.6110376 0.015657784 -0.5667172 0.41407657 0.4468476 -0.26591215 1.4092884 -0.63774747 1.0874972 -0.08019081 -1.7594445 0.10391112 0.6276841 -0.07830329 -0.7416369 -0.14787894 -0.7333943 0.35459438 0.46619913 0.71920884 0.6003203 1.0990758 -0.69263995
： 0.6081696 0.88689816 -0.32742625 0.008106695 -0.55601364 -0.47872502 -0.62492985 0.56146955 0.3540092 -0.78065735 -0.6828537 -1.7823777 0.22646733 -1.0748557 -1.3430977 0.30209127 -0.89527065 -1.9087095 -0.5080561 -1.1060468 -0.9106888 -0.619476 -0.8706329 -0.6507358 0.83564234 0.3733313 -0.60722125 1.7657912 1.167615 -0.7279972 -1.1268677 -0.1459665 0.71107715 0.42824557 -0.2990848 -0.9664318 0.0056491666 -0.41912094 -0.77238107 -0.3842157 -0.6440395 -1.9483203 -0.20048863 -0.893447 0.71063757 1.6578903 0.7409379 0.32871726 0.9306924 -0.07312479 1.2213604 0.4085789 -0.065847196 0.2718153 2.3005648 -1.2392731 0.46246582 0.5318315 0.6529223 -0.6053992 2.0087938 -1.2076637 -0.08898388 -0.18264115 0.6457372 -0.14582276 -1.0319334 1.5178887 -0.22714737 1.8653692 0.6749931 -0.19103138 1.100886 0.8650438 0.11673576 -0.42353705 -1.0164168 0.6033853 -0.16669424 1.1197612 1.4289273 -0.67956144 -0.024247378 2.1903455 -1.7790312 -0.08660303 -1.6980704 0.21006669 -1.0983357 -1.188751 -0.5977224 0.29172283 -0.34382725 1.2363784 1.1730896 0.44370252 -0.88540065 0.14223884 -0.044511043 -0.29630247
肺 0.10727448 1.6292961 -1.8279793 0.301736 -1.6321343 -0.9025586 -0.73815393 -2.3101482 -0.8580445 -0.90383667 1.8906853 1.6465781 -0.6386737 -0.99042803 0.79520565 -0.6883682 -1.0896738 -0.7650359 0.6452467 2.1438482 0.5281996 -0.8851915 -2.9133682 0.48327616 -0.5311861 -0.7026583 0.36819535 -1.1115851 0.7375609 0.09311088 -0.19655594 -0.10313337 -0.90208 -0.28709266 1.8690269 -2.8699732 -0.9273213 -0.6107998 -0.57545424 0.071301036 2.1643608 -1.34694 -0.61630356 -0.85816157 1.170271 0.46852857 1.396134 -1.66771 1.6201534 -0.6796523 0.89833283 0.9233658 0.43588048 -2.029716 0.4694094 -0.46200535 -0.17998253 1.6896795 -0.27051896 -1.4040151 1.6235745 -0.82260287 0.13860087 -0.4764578 2.046977 0.086656705 -2.0844035 1.6060685 -1.1849915 -0.099517696 0.099313065 -0.6622678 0.7521743 -0.17569698 0.02245372 -0.1458613 -0.7290287 2.5704503 -0.31036836 2.174746 0.16901645 0.8901353 0.8855993 1.6865976 -1.6296674 0.51370794 -0.066633396 -1.2300806 -0.45488396 0.9977611 -0.9309231 -0.8647725 0.07914021 1.4347355 0.031249035 -0.350704 -1.5369194 -0.6179359 0.65176797 -2.9911728
区 -0.06641563 0.118808575 -1.3072593 -0.20932765 1.892958 0.7340353 2.59887 -2.332529 0.7300209 0.9356711 2.2125413 1.5798717 -0.8769205 -0.7474602 2.3162668 1.3645561 -0.30272874 -0.9758651 0.62465364 0.92703205 0.043421734 1.5649474 -0.9775263 0.05622573 -0.7963538 -0.45337594 0.2766771 -1.017747 -1.0985909 0.8976076 0.13248213 -0.04922954 -0.6810169 -0.61429304 0.4567365 0.15460531 -0.015502042 0.38559484 -0.45243672 0.23125549 0.380426 0.7663202 0.13523807 -0.17570947 -1.2758043 -0.2844115 2.1346743 -0.032534063 -0.06380718 -0.8755172 -0.1704867 1.349912 0.92719287 -0.8858949 -2.3572924 -1.3233035 -0.393842 1.2829466 -2.7190402 -2.0629363 -1.2858236 0.98305994 -2.7615738 -0.48152077 -0.26457325 -0.20939878 -0.5347631 -0.95597374 -1.1231064 -1.4171613 -0.23451403 1.1494857 -0.11815913 0.57887536 0.8007556 0.051481146 -0.9137056 -0.9947063 -1.0614928 -0.5856586 0.29568887 -0.023707373 0.62906635 -0.60268635 0.32318246 -0.19858696 1.6855589 -0.87879825 1.2924025 0.6558646 -0.7557621 0.18880634 -0.93195635 1.1601827 0.16489707 -0.7664047 2.0091634 1.7139783 -0.31519517 -1.1102092
反 -0.22894228 -0.41788688 0.8391253 -0.6031059 0.7590829 -1.2389175 -0.2581506 1.1542256 -0.17368826 0.60429144 1.734595 -1.1277463 1.2097714 -1.1754862 -0.30725622 1.3764781 0.26263228 1.2337773 -1.8172479 0.36835533 0.81602204 1.3890648 -0.78105986 2.2120705 -1.4027586 0.41313115 -1.4326668 -0.020672616 -1.5237668 0.49718726 1.4391427 -0.7562012 -0.26276994 -0.9166834 -0.5609859 1.4823034 0.3367069 1.708542 -0.48622063 -0.7253371 1.3554697 2.2983115 0.5537382 -0.2683245 1.3650105 -1.0185813 -0.58840764 1.3255159 -0.94414115 -0.5184191 -1.5826015 0.03556551 3.0813885 0.6140267 -2.226588 0.190632 0.20412748 0.035209373 -0.5160234 -0.7837187 -1.2697375 0.9948919 -0.45326883 0.9013068 0.27264887 -0.7914079 -1.9626839 -0.8411467 -1.1823963 0.032005787 1.1759471 1.4633801 -0.11154786 1.2663018 -1.0560534 -0.71721375 0.060060278 -1.288935 0.21335708 -1.106973 0.041079335 -0.11541996 -0.9463416 0.8315235 0.08212254 1.5626187 2.0789378 -1.8832808 1.8902407 0.10706387 1.6265463 -0.40290976 1.4376787 -0.0954595 -0.41387075 -0.68495655 1.2662889 2.413459 0.82020324 -0.5589473
尿 0.13281655 1.091411 0.07061762 0.9685732 0.8118189 -0.93382484 2.2382917 1.3860854 -2.260428 0.653325 -0.52811265 -0.48108044 -0.25145218 -0.99080986 -0.46377596 0.8277868 1.1912317 -0.17869425 1.9622304 1.1853544 0.88478947 1.2234919 -0.9255605 -1.6476558 0.062344115 2.617122 0.47105145 1.1199625 -1.0824083 -0.4150932 0.17249678 -0.03018604 -0.38813308 -1.3463274 -1.4976766 1.756255 -0.88433564 0.9467721 -0.5235041 -2.7705932 -0.85536665 0.11136092 -0.6496975 -0.506879 0.7738485 0.7034473 0.41343614 2.20612 1.5038899 -0.4771154 -2.0114176 0.67061913 -0.0040060896 1.5128338 -1.1923026 -1.3704756 -1.4624373 0.52680707 0.11970837 -0.711041 0.5347796 -0.070722096 -1.0010145 0.839465 -1.3691106 0.65763193 0.5154678 -0.3040966 -1.8015198 2.951586 -0.01834239 0.74386704 -0.6028093 -1.3425167 0.39305845 -0.3049362 -2.0186155 0.06731675 -0.63196725 0.6490828 -0.9240677 -0.14014015 -0.6944372 0.4234389 1.12269 0.60332483 -0.23573981 0.653622 -0.7165363 -0.701307 -0.14500001 -0.97693086 -0.53735036 1.287102 -0.1158111 -0.0757557 -0.98181486 1.0065972 -1.0984689 0.8314719
清 1.4226876 0.36645728 -0.8984577 0.6595179 0.75293624 0.47847483 -1.5071814 -1.3128676 -1.5593568 -0.87769866 0.8934852 0.4110144 -0.8121126 -0.94912136 1.2252578 -1.8485036 -1.1599866 -1.137669 -0.327027 1.6748141 0.8431017 1.0449892 -1.4143331 1.200121 -1.5172603 -2.1922467 -0.21425822 -0.41650057 2.4360201 0.83227164 0.18163875 0.26870036 -2.3272939 -1.9426131 0.2357011 -1.8163365 -0.23039408 1.044936 2.110732 -0.49163195 1.3097978 -1.6446419 0.2114469 -1.0358871 -0.81011117 -0.04996972 1.0635539 -0.43818823 -1.0307274 -1.9151285 -0.18448342 -0.41239983 1.2909528 -0.6339188 0.32239318 0.83290386 -0.46055666 1.2216419 -0.47572818 -0.22528806 1.9734094 -0.6139284 -0.977874 -0.29069597 0.962667 0.45508 -2.1575313 0.7397005 0.39790675 -1.3353876 -0.065136425 -0.055312254 1.5980206 -0.3399745 -0.80680025 0.69470537 -1.2195597 0.30582425 1.0487381 0.4830545 1.3072702 -0.2915332 1.3414977 1.755214 -0.59116095 -1.4544523 -0.6199126 0.5281754 -1.4710718 0.0959971 0.20426129 -1.0750741 0.19541326 1.1050951 0.30800182 1.4198865 -1.8060641 1.6435214 2.1090627 -2.2307649
异 0.8083935 -0.37601528 -0.9924253 0.11895456 -1.1945064 -0.69915324 0.090723045 0.6252069 0.28391588 0.31613183 0.359989 -0.10697243 -0.3193624 -2.4852767 0.9611016 0.9827893 -0.15909067 0.49136555 1.1598285 0.418851 -0.22617285 0.9671612 -2.098282 1.423456 -0.11674166 0.5291181 0.99511814 -0.4143732 -0.43002993 -0.59673065 0.717158 -0.14516127 -0.73824275 -0.26739362 1.3646222 -2.9582362 -0.36094373 -0.05792219 -2.1049492 -0.74186075 0.9182373 0.5367168 -0.11051021 -0.8476846 -0.79000163 -0.47536606 1.8151349 0.014735589 0.10879621 1.0040746 1.2484982 1.5577815 -0.044484764 0.18759482 0.9153389 -0.9069081 3.7353647 1.5104676 -0.6903004 -0.67380875 -0.4552013 -0.7774499 -0.34940445 -0.6007016 1.7142674 -1.2437227 -2.6010766 0.35143134 -1.732991 1.8390105 -0.3061729 0.28360832 1.116726 -0.66395015 1.3609507 0.4310907 -2.2563324 1.9685932 -1.1403422 0.027916066 0.914645 -0.5807233 2.329184 3.054507 0.36387828 4.0341315 -0.71629035 -2.0262423 0.2876892 0.30065575 -1.0584942 2.111841 0.45100948 0.06463301 1.0629523 -1.3992981 0.7167595 0.273468 -0.32676867 -1.0092192
分 0.58933896 -0.61053044 0.9495815 1.8345817 -1.1168743 -0.18714303 0.25919637 0.87071526 1.8800299 -0.17608781 1.6485952 2.1886714 -2.0062 -1.7146214 -0.28291786 -1.018871 0.23425671 -0.0957453 -0.8872891 -1.1870885 0.9475542 2.0888615 -0.29951292 1.141535 -0.9664743 0.9853618 -1.3654045 -0.5835827 0.5381478 0.3228838 -2.0897875 0.51453674 -0.7950566 1.5924344 1.0364429 0.09764228 -0.055533893 -0.4794189 -1.3980764 -0.54339254 0.13190946 0.25201342 0.3835882 -0.33373603 0.5877468 -0.6630233 0.057103854 -0.22436993 1.1681687 0.21699154 0.97654414 0.33280104 0.4820573 -0.07410978 -0.9638514 1.3468294 0.52908003 1.5701119 -1.0330482 0.09816419 0.42668527 -0.5037363 -0.40458176 -2.4311295 0.23035385 -0.2641516 0.45985797 -1.1933367 -2.0078495 -0.0028479907 0.40255147 0.38044575 0.8001873 1.0963149 -0.31596035 -0.18081313 -0.46284974 -1.1389776 0.58705205 -0.32707718 3.1525412 2.0663126 -1.432842 -0.08303883 -2.0748901 -0.0632565 1.3554895 1.1361747 1.4573704 -0.9943631 0.46069342 -0.11000072 -0.013758328 -0.13676453 -0.9767014 -1.0979282 1.1517913 0.46043172 -1.4899158 0.0974188
肢 -0.43761092 1.1015224 0.52405685 0.4418912 -0.4939841 -0.9155423 -0.78957844 -0.04124645 -0.28575006 1.1589037 -0.092645876 0.36623237 -0.57124686 0.10762322 0.45398515 -0.29302964 0.58142287 -0.9373523 -1.05817 2.1331952 -1.3937232 0.9485262 -1.2628721 0.47422725 -1.7824817 0.81299704 -0.13100965 -0.9948047 -2.5142467 -1.4677241 -0.03110028 1.9337786 1.3631864 0.7616052 -0.91619015 0.6419572 0.09096682 -0.074157 -0.8972846 -0.5492547 1.9712505 1.3846503 -0.09618925 1.677988 0.04523336 -2.7660787 -0.3390097 -1.5334952 -0.31427422 2.8844337 -0.6039533 0.62812734 1.7540559 -0.023486441 -0.48559117 1.3706062 -0.20377232 -1.066679 0.7977504 -0.6883164 -1.0427687 -2.9368007 -1.0671906 -1.6648413 -0.03289061 -1.0610719 0.17078948 0.36298624 -0.533114 -3.173067 0.12301681 0.6947665 -0.29596418 2.559908 0.86161685 0.57441336 0.7515395 0.0593723 -0.17562304 -0.8738057 3.2387536 0.8750023 -0.6377965 0.6554097 0.9639763 1.1424633 0.9404811 0.45724446 -0.9204427 1.0083557 -0.6755776 0.819769 0.57064337 -0.78034204 2.7382753 -0.90973896 0.8608711 -0.3002755 0.040345978 -0.55454344
便 0.37423638 0.44776455 -0.31494507 0.36733872 0.7355011 -1.1995142 -0.022907913 -0.2470702 -1.4371607 -0.94483876 -1.4954445 -3.255045 0.2638307 -1.4855148 -1.0161272 1.3507676 -1.7312965 -0.27616996 -1.6679045 0.72425574 -2.1510184 0.76238865 -1.0120153 0.7503871 -0.32859996 0.91826683 -1.0960742 2.9981313 0.6787572 -0.80087095 -1.008306 2.0831997 0.6671884 -1.1096361 -0.56059843 0.084481455 0.3334661 0.07949613 -0.4511989 -0.91073453 -0.18669325 -2.1236348 0.74231994 -0.97444206 1.4696517 1.0573299 -0.0909217 -0.2682357 1.2128155 0.53189135 0.09390931 0.19822563 -0.19156203 1.1083299 0.31074914 -1.8303612 -1.0585585 0.5256514 0.83149713 -1.3738047 2.4524279 1.3801769 0.14723657 1.0946139 -0.0946384 -0.12706172 -1.4538174 -0.27379715 -1.4628762 2.1459432 1.826175 0.5942435 1.0202993 1.9292973 -1.128652 -1.701914 -2.0391877 0.4824639 -1.126495 1.4906362 2.1160884 -1.4959567 -0.48956427 3.4145296 -1.4879047 -0.8377972 -2.3867588 -1.3494403 -1.7730664 -1.4994254 -2.0268433 -0.1019172 -0.14968897 1.1498537 1.8502461 0.7545617 -0.703777 2.7382092 -1.1304294 -0.1235249
胀 0.37575102 -0.19015136 0.16721554 0.44123605 1.1587751 -0.93942004 1.7998815 -0.19104052 -1.5457195 -1.1806507 0.14868985 -1.140564 -0.8472513 0.95476705 0.33322656 0.9339321 1.8733475 -1.0703106 -1.1282017 1.820837 1.0808463 0.10912891 -1.6167475 0.9706308 0.7118245 2.504785 1.5267249 -0.1380388 0.55625886 0.28381845 0.074244566 -1.9305546 1.4035236 -0.74400556 0.11112246 0.84341455 -0.51584667 1.1236101 1.454259 -1.7093911 0.60589045 1.5888621 -0.32875836 -0.4011188 0.8695332 0.6234188 -0.44472465 1.6282068 0.7532028 0.8705527 -1.8720491 1.6418346 0.6111784 -1.1516327 -1.3251811 -1.0073395 -0.9645742 0.037696797 -1.7299939 -1.5101627 -1.0192423 0.08542089 -0.5005041 0.20643423 1.4491591 0.7252776 0.25914547 -1.676647 0.33441305 1.5611448 -0.41519085 0.81894535 -1.1084731 -0.14087981 0.32299948 0.39536867 0.19246593 0.39540228 -1.3719729 -0.24499862 -0.841916 1.8161469 -0.5428595 1.2280632 1.4091102 -0.16987081 1.7177107 -0.122114494 -0.44081208 -0.8250826 -0.6523001 0.15743953 1.0732366 1.0373623 0.2282862 -1.4120309 -0.9899982 0.7116135 -0.07305652 0.7680674
右 0.06029561 -0.79732263 -0.42134112 0.44878784 0.64226335 0.00056077994 -0.08474892 1.2846309 0.002552145 0.5667628 0.3733495 0.05607785 0.44260773 1.4484301 0.9469321 -0.14986014 -0.57429445 0.33167565 0.1382072 1.0808675 -0.15146385 -0.57518387 0.20134124 0.84712535 0.45376316 1.4435866 0.092473544 -0.19880518 -0.42527118 0.11253331 1.0775841 -0.041086614 0.12025651 0.11343633 -1.3566811 0.55540615 -0.41817197 -0.988999 -0.15399513 -0.5586309 -1.162983 3.085924 1.4073309 1.4621387 -1.9485039 -2.1256795 -0.26138768 1.0458956 0.8119906 0.6587169 0.2661705 -0.4413432 -0.21616088 -0.9226918 -0.8864074 -0.70573044 2.1448839 -0.9708984 -0.88802934 0.40334833 -0.080414355 -0.043272413 -0.61808157 0.2994974 -0.22606313 -1.0084041 0.21722923 -0.05193272 1.5362589 1.2288668 -1.7183535 -0.83978224 -1.061869 0.58859605 -0.112489484 -1.1719294 1.3686289 1.2546004 -0.33301035 -1.472586 0.24968866 -0.5296716 -1.5525185 0.8249807 1.4321793 -0.44415614 -0.08961689 -1.1529609 1.385246 -0.55056596 -0.13178724 0.9929872 0.043712135 -0.47264698 0.32332402 -0.989523 1.0958481 1.1136874 0.87075293 1.5151048
肌 -0.66148937 -1.1864083 0.75094 0.09761115 0.36303717 -0.43148294 0.5103198 1.2868714 0.09598306 -0.57100344 -0.1296958 -1.1295022 -1.0123217 0.50371265 -0.7795918 2.113935 -0.894054 1.9443052 -1.0557731 0.8920043 -0.07516334 1.269923 -0.55480444 1.7862183 -1.370727 0.556885 -1.4968479 0.88065255 0.046434604 0.48249486 0.30160227 1.60892 1.8799969 -0.3994087 -1.7524223 0.8660664 0.042162273 0.20072018 -1.3223925 0.20917475 1.2956911 0.5511279 0.3626393 0.6764367 0.26338086 -1.2096139 0.44286048 1.4321082 -1.2509445 0.74202293 -0.5065289 -0.4077911 3.0867705 1.695099 -2.507956 -0.9659394 0.43291986 -0.59198356 0.5682854 0.15140773 -0.7570434 1.1039729 -1.4395728 0.86533177 -0.27397493 -1.8307713 -2.1723063 -0.54150075 -1.008631 -0.2860517 1.1042854 0.08435716 -1.3065112 1.6494479 -0.020143082 -0.8543249 0.911849 -2.6117017 -0.12303221 -1.4978936 0.917287 -0.051337402 0.153941 1.7978895 1.7257726 0.46042573 1.2831262 -0.45879385 0.7856191 -0.319106 0.18048976 0.21873838 0.9860799 -0.40292135 1.419264 0.48209977 1.2927006 1.4055542 1.0739002 -0.5974801
口 1.2337525 -1.0424626 0.069714084 -0.15505555 0.7040048 0.4958896 -1.8346901 2.2199023 -0.75969934 1.713896 -1.4159012 0.62008417 0.16512688 -1.5641903 -1.0110039 -0.30889624 -0.4014596 0.35409635 -0.45374596 -0.9217209 0.7938704 0.672438 -0.23320927 0.42824593 -0.31564876 -0.08699708 1.2701283 -1.2000735 -0.6509798 -1.5171448 -0.47348866 0.3035981 -1.9288658 -0.844913 -0.61989564 0.19220941 -0.3709935 0.23082101 -0.7916761 -0.99211055 0.26578963 1.7142229 -1.173012 1.00841 -0.19297235 -0.56707364 -0.7127933 0.9370885 0.09295657 -0.44706634 -1.084657 1.96216 -1.1955462 -1.4372793 -0.58963585 1.1275542 -0.2850953 0.4102207 1.2149391 1.3218635 -0.6020307 -1.2714835 -1.1206551 -0.7936095 1.8335551 -0.52699804 -0.19040741 -0.44790438 -0.076621816 1.0564065 -0.22435535 1.6642926 -1.5443667 -1.1500986 -0.11714773 -1.5254356 -0.4768562 -0.95476925 0.06394751 -1.2923325 -0.4951702 -0.27417266 -0.79407734 -1.462788 0.32950732 0.9904901 -0.9117335 -0.45546636 1.570312 -1.0710428 1.9481989 1.3026341 0.2840302 -0.2820531 0.4633573 -2.8628714 1.1479816 0.93148804 -0.07550031 0.14214121
阴 0.31216806 -0.38974956 -0.27182123 -0.15194052 0.5945018 -0.27864388 0.19996822 0.15560485 1.7708137 1.7921946 1.3684947 0.9832484 -1.0361412 1.302819 0.44743568 0.5250922 0.41481835 1.0090511 1.2148697 1.5719436 1.0955378 0.14257321 0.049965773 0.59223557 -1.5062047 0.18747337 0.069755636 -0.33853415 -0.5803513 0.31488365 1.0451566 0.7423884 0.46258566 -1.9323 0.29554236 0.006767577 -0.11973477 0.07996599 -2.1709385 -1.752244 1.6205375 1.9041514 0.9106591 -0.63634694 0.99794924 -1.6665672 1.2616692 -0.10427385 1.3706801 -1.9160128 -1.4043072 1.2317246 1.131718 -0.23194428 0.01985656 0.45316538 0.2924998 0.38270015 0.17009151 0.4362191 -1.6238708 -1.3066896 0.41915533 0.2238461 -1.8566582 -1.0377021 -0.8112029 0.93695277 -0.09395941 0.07230305 0.87374794 1.0399799 -0.08166888 1.0102421 0.19480483 0.771139 0.07080153 -0.19604637 0.59841645 1.1789201 0.5278608 -0.122698896 0.39941567 -1.1305238 1.201693 -0.3193202 1.7148502 -3.1626484 0.68212444 0.062480915 -0.2704925 -0.5934378 -1.1418242 -0.022234727 -0.8170117 -0.72095305 0.543667 -0.5116953 0.9188219 -0.119787216
叩 1.0366753 -0.1422988 -0.65897083 0.98640466 0.57260656 1.2377704 0.8374151 -1.3243291 0.871089 0.9020143 2.7461352 1.0702704 -1.6111373 0.2042558 2.1465435 1.6996152 -0.26708677 0.9167069 2.925198 2.7468274 1.2018749 0.80694526 -1.0949552 1.0110567 -1.6253717 -1.3035486 0.74572235 -1.4873983 0.6585536 0.8860976 0.5189694 0.0738162 -0.91389495 -2.3046415 -0.04695555 0.47139674 -0.36224228 -0.7196854 0.40472952 0.7526742 0.7303283 1.7952226 0.9254227 -0.701461 -0.74398756 -1.3604956 0.7102895 -0.7576386 -0.38439032 1.1309265 -1.0229154 0.7271492 0.67084026 1.0464025 -2.8036802 -1.9165828 0.9202691 0.5594061 -1.4684815 -1.4512922 -0.9370567 1.1179878 -0.7233043 -1.1462395 0.0028841554 0.42475656 0.44246307 0.9322652 -1.4760294 -0.6089723 -0.024452928 0.2821206 -0.5462643 -0.052036203 1.4847859 -0.19618025 -1.0352712 0.49253878 -1.3384039 0.460913 -0.015450574 -0.35535452 1.7358983 0.16222277 1.5568321 0.27481097 1.3091363 -1.3253101 0.7913874 1.3290762 0.49031684 -0.14909789 -1.8128926 -0.7978937 0.78331 0.43253535 -0.09420592 1.0770806 0.25935075 -2.133247
头 2.2284226 -0.6989262 0.30612078 -0.27346268 0.5358845 -1.1627573 1.102801 0.26688784 0.16259022 -0.16355632 0.023668133 -1.9786679 -0.0055120545 -1.88866 -0.7356425 -2.0482438 -0.7741992 0.2318614 -1.6185017 0.41236737 -0.9272966 0.6591626 -1.4381001 1.9792268 1.2303413 1.3910094 -0.8258489 0.3159329 -0.8736155 0.47326404 -0.7585179 -0.5462911 0.30068216 0.2608756 -1.3336296 0.23477931 0.37297603 -0.00015914257 0.605858 0.28450432 1.0479606 1.4902598 0.5698675 -0.0105706435 2.243373 -0.4402976 -1.2935758 0.50579685 1.6042831 -0.34901166 -1.5318344 0.7370667 1.0052791 1.3293581 -0.8724682 -0.54902107 0.0362128 -0.07122955 -0.34190956 -1.1975398 1.3681766 0.41764382 -1.1517407 0.9689147 2.7426753 0.3943622 -0.66385514 0.2238858 -2.5734718 2.3646822 -0.078971826 1.0135198 -1.1741536 0.25557157 -0.7348963 -2.62271 -0.4162924 0.9956784 -0.27760407 -0.46972558 1.3685715 -0.7271418 -2.3066387 1.6240326 -0.72037506 0.92539257 -2.353465 -0.2618225 0.036293585 -1.0162759 -0.62209225 0.36522 0.64713526 -1.107229 0.9575569 -0.7789642 -0.4027911 1.3392011 0.34472498 -0.29553515
肠 -0.46174192 -0.58811224 -0.42816377 0.30385584 2.089845 0.27255028 -1.1573076 0.57864743 0.5113324 0.34360048 0.71738863 -1.2418972 -2.064513 0.09359051 -0.87167156 0.15273254 -1.0469713 2.5649736 0.85567516 -0.07005086 -1.2207083 0.7045239 -0.09875532 1.0257578 -2.4519806 -1.1360484 0.4818934 -0.05784199 -0.13509415 -0.54854673 2.8492823 0.43305248 -0.47117642 -2.4077682 -0.051069163 -2.764501 -0.15137689 0.34999675 -2.5448387 -0.07893511 2.4544168 -0.09052987 1.9224511 -0.91904134 0.9831876 -0.044706117 1.52696 1.4253372 -1.8916981 -0.87155366 1.0337633 0.6783522 -0.097334035 -1.2841142 -0.08734021 0.62716687 -0.015937705 -0.014625711 -0.26648188 0.62337154 -1.9209174 -0.56990623 1.6213696 -0.63691247 -0.708681 -1.3010606 -1.7759098 1.621374 -0.09255678 0.5021033 1.5119587 1.6508064 2.2483568 1.0537087 1.5687037 0.5495327 -0.4391678 -1.302228 -0.07136071 1.4457245 -0.021906594 -1.3607244 1.9005126 -0.9175481 -0.6174199 0.43799847 0.87927985 -1.123072 1.2265333 0.24604443 0.22937016 2.1358345 -0.6912424 1.0356239 -0.8793393 -0.53727156 0.8001486 -0.13570431 0.617139 -1.569477
/ -0.25455838 0.8593414 0.66947585 2.5365977 -1.8487989 0.9295224 0.056308318 0.6738604 3.0167248 -0.832354 1.9283233 2.2114806 -2.3566475 -1.1591028 0.12519361 -1.2649081 -0.67708087 0.23501077 -0.976517 -1.6438837 0.24189255 0.5917959 1.1092957 -0.48382354 -1.6345273 -0.77088904 -1.6730484 -0.45952573 0.8002894 -0.83574975 -2.051731 0.8820933 -2.4775887 2.42423 1.0198438 -0.3990351 0.945772 0.032003235 -2.2408264 -0.1536423 -0.58116543 -0.16331606 -0.64979565 -0.08452919 -1.3150359 -0.0075415573 1.214179 -0.28500193 1.0000442 -0.030288832 1.7552803 -1.0546867 0.70045954 -0.2812026 0.59972227 1.785446 0.7429194 1.7519042 -0.14467017 0.92439014 1.7477705 -0.35574335 -0.03439498 -1.1895363 -0.8156375 -0.7441761 -0.054416273 -0.08832684 -1.2603244 -0.21261385 0.38538155 0.124194354 1.683568 0.22941163 -0.9561328 -1.1378533 0.16289072 -0.61094695 1.8961315 0.40295535 3.0887253 1.741508 -0.57327104 -0.24208203 -2.7044117 0.24722795 1.7132024 0.7915104 1.6811575 -1.6719687 0.8636739 -0.39728284 0.19792753 0.26701528 -0.67939115 0.021392481 0.50762236 -0.80646837 -0.49020752 0.45618144
出 0.7856953 -1.0231704 1.0452735 -2.1471195 1.1004198 -1.1429318 -0.1456818 -0.2461221 0.52544266 2.5896516 0.4293584 0.45538396 1.0835688 0.2879208 -0.1984993 -0.7499079 1.3044034 -0.29781616 0.44262192 0.017683785 1.5199324 -0.15932237 -0.016585555 -0.7817391 -0.55596906 0.37074503 0.5554312 0.5876909 -0.7638613 0.08269555 -0.7217553 -0.29128402 -1.1129832 -1.5115254 0.25317362 -1.5937356 -0.3289306 0.7553939 -0.16769858 -0.6383943 0.07841087 1.30999 0.64268285 -0.10273943 -1.6355665 0.92772263 -2.0541203 0.4665758 -0.1523419 -1.4877818 -0.9155746 0.6709611 0.54637724 -1.2773952 -0.3435495 1.0008407 0.29211563 0.82079196 1.0055541 -0.405738 -0.36731645 -0.12571229 -0.7106837 0.58568704 0.704475 -1.4016613 -0.78233033 -0.4137991 1.0297238 -1.1698453 0.18324478 1.4665724 -1.1296005 0.17572665 0.99803776 -0.004986313 -0.31566143 -0.7228284 0.098850064 -1.3288165 -1.5001668 -1.1220975 0.8479216 0.30866212 -0.7913978 1.2264459 -0.7375989 1.4286709 -0.025667237 -0.39489865 0.21138036 2.1319778 0.19948712 1.3337175 -0.31887433 -0.2016599 0.72865945 -0.39215732 0.2913704 0.893293
闻 -0.25463387 0.7639765 -1.8640381 0.53302234 -0.52910733 0.6156778 -0.53410524 -2.1401067 -0.42557183 0.14637199 1.5655491 -0.02611873 -1.2521437 -0.79760873 2.2810948 0.39291432 -0.5832056 1.282582 1.34246 1.7970096 2.4387813 0.5434712 -1.5208862 1.4568534 -1.6814504 -3.0816078 -0.6926794 -2.075755 2.1461246 1.4496442 1.9680202 0.38187912 -2.9224896 -2.4291718 3.0587294 -1.1665462 -1.5966915 0.5197202 -1.1366961 0.964363 2.4108834 -2.9184005 0.2234659 -0.84056 -0.045150075 0.2873655 1.9132353 -1.6447173 -2.022131 -1.3525001 1.7264923 -0.9847663 -1.0455158 -0.6586204 -1.1682174 0.63217247 1.1770463 1.025035 0.75334626 -0.70403093 0.35951498 1.2859269 1.0040475 -1.5382837 1.0786065 1.0254785 -2.0124483 0.6014647 -0.21506432 -0.94435865 0.18821922 -0.05954521 -0.5914365 -1.231783 1.3461744 0.571818 -0.32420078 -1.0783395 -0.6291839 1.3465157 0.79255813 -0.14756036 1.3940744 -0.6583748 -1.344662 -0.70958066 1.7494304 0.52435327 -0.20299092 1.1949577 -0.26459807 0.5086771 -1.8226911 1.5736792 -1.2137443 1.1490782 -0.54069823 0.60116553 1.4690777 -2.1856058
下 0.5239486 0.9210943 0.32529625 0.27701503 -1.424568 0.002137 -1.3129112 -1.2136934 0.30857947 0.93566537 -0.0036908754 0.45950204 -0.87135303 0.45885566 -0.45617592 0.017614417 -0.31210744 0.20737031 1.3812795 2.7414114 0.6075089 1.3255603 -1.7170124 1.2440747 -2.1795363 -1.1438726 0.6056011 -1.3398029 -0.7838085 -0.3495559 0.2186269 -0.14494534 1.835191 -0.88581395 -0.081599794 0.23962682 -0.92392415 0.1973701 0.4978548 0.731917 1.3343825 0.5929061 0.7794552 0.989432 -0.45791954 -1.236553 0.034660492 -1.5733355 -0.9302201 2.2983356 -0.4507462 1.1514636 -0.32708964 0.1612358 -0.5191835 0.18711193 1.5770801 0.72285175 0.7546834 0.07822194 -1.3556964 -1.0789537 -1.4043896 -0.6983997 -0.4231568 -0.37660736 -0.81464946 -0.47599816 -0.12786227 -1.4364645 1.068332 -0.6261562 -1.1582724 1.806847 0.3548413 0.66165274 -0.19629727 1.2279269 -1.0052173 1.150164 -0.09794246 -0.82987905 0.700288 0.6436094 0.51244766 -1.621253 -0.04622357 -0.9612398 -0.17486864 1.1156129 1.16399 -1.572189 0.970716 -2.445009 0.8396113 0.35484362 0.860432 -0.028264582 0.19984014 0.27383515
对 1.2702724 1.0764072 -1.7142955 -0.9890603 -0.0044160304 -0.3094792 -1.3388197 -0.10540377 -0.23786408 1.158821 1.733832 0.95814854 -0.020449515 -0.33663088 0.12522767 -0.9795823 -0.491077 0.3903496 -0.35953736 1.6248305 1.1562268 0.86570513 -0.2546172 0.9060997 -0.5708641 0.3314168 -1.2321467 -0.56985 -1.7935698 2.2378347 0.3061743 -0.07156847 -1.1704087 -0.32433704 0.3132033 -0.72757035 1.9604328 -0.64619875 0.74223274 -0.61117125 -0.14600037 0.6368869 0.27590877 -0.9740105 1.349128 0.80127406 -0.4248073 0.8064995 1.689624 -0.4711878 -1.062036 -0.2032947 0.122043714 0.7035886 -1.854276 2.2969131 0.38363793 -1.5659041 -0.9198562 0.23239593 0.8913631 -1.2094836 0.5003928 0.7982193 -1.7089224 -0.45164025 0.38523597 1.6799759 -0.49141523 -0.15610753 -1.6666445 -0.31382164 -1.477368 0.46048433 -0.4975228 0.45184353 -0.97847897 1.355206 1.0652496 -0.07756981 -0.5273667 -0.23645346 0.9144926 -1.084159 -0.9577733 0.9585012 -0.9792805 -3.6278515 1.911092 0.5962476 -0.14374268 -0.96793604 0.6918522 0.022145888 -0.28356794 -1.2221763 -0.33801335 -0.7184278 -0.5024401 -0.43495485
好 1.6927341 0.36630738 -0.23800983 -0.093947664 2.0659225 -0.41405278 -0.996263 0.7248027 -0.4252825 2.2965658 -0.115824044 0.8688948 1.7551025 -0.44881207 -1.6148854 0.4536799 1.1215991 -0.26205164 1.0568103 0.18389024 -0.060498815 -1.2112272 -0.6553466 -0.1695673 0.1399654 -1.0024217 2.1125638 1.3676158 0.5740216 0.88135034 -1.074344 0.8345918 0.11703019 -1.5091074 -0.18240438 -0.18270327 0.034594588 0.64676005 0.7610468 -0.5755985 -1.1119089 0.33834425 -1.1472397 -0.8131681 -0.76289374 -1.27365 -0.7886145 1.4033434 -0.33573776 0.2729234 -0.84797764 2.0549421 -0.16627495 0.18799093 1.9291757 1.0529801 -0.9336188 0.47517884 -1.5046078 -0.43357852 0.47787297 -0.92789954 -0.80808246 -0.5657554 1.1236578 -0.13273068 0.07359018 0.16333704 -0.121905915 -0.6594677 0.9772767 -0.34076384 -0.19885105 -0.5811883 -0.73395693 -0.23285949 -1.1518013 0.9511324 -0.35980788 -1.4365562 -0.8669428 -1.3168476 0.9521195 0.4344206 0.7755446 -0.9268698 -3.3332753 0.8367495 -0.5825851 -1.0965183 -0.553421 1.1246827 0.09615005 0.5390704 -0.10562298 -0.72944474 -1.5059702 0.20654172 0.88660324 0.16275993
形 2.0512996 1.6877662 -0.24004956 1.3217604 0.4172251 0.038009245 -1.7748076 0.099865235 -0.3603136 0.026997743 -0.69418585 -0.055005156 -1.0559095 -1.7172124 -0.11036542 -1.9535136 1.2381866 0.14451064 0.040653925 1.4455186 -0.55124116 1.2040427 0.4499064 1.0767446 0.046177253 2.0535588 0.22261204 -1.4165545 -2.3300612 -0.6499586 -0.76909405 -0.24791947 0.5184271 2.3742433 -0.79168105 1.2022163 0.8620418 1.4878368 0.20250203 -0.9886061 0.24011339 0.9643872 0.23393083 1.0982559 2.3285708 -1.7944674 0.42109707 0.47994563 1.4395674 1.15412 -0.9347818 1.3276176 -0.5622939 0.9003408 0.24824809 0.9072975 -1.9294902 0.052769333 1.9394587 0.12848313 -0.928037 -1.9086401 -0.42217836 -1.2717519 0.225912 0.16444254 1.2970917 0.9440416 -0.6212727 0.39468682 -1.6405729 1.1990861 -1.436975 0.5015044 0.60437554 0.7911806 0.33384427 -0.09405118 0.70777214 -0.5633942 2.3267984 0.9715678 -1.6406194 -0.05869101 0.79569465 2.4455833 -0.5646706 -1.2893238 -0.2120471 1.3986034 0.050240286 0.0768201 0.5531813 -0.80700576 -0.12497748 -2.834128 -0.008241722 -0.3234043 -1.2130466 -1.0528463
大 -0.049606573 -0.29746738 -0.8152399 -1.2014532 0.49678108 -0.6940333 -0.032217715 1.0323983 -1.4463271 -0.859045 0.7352481 -1.385816 0.48240152 0.011435999 0.8582275 0.19793828 0.24428865 -0.65751314 -2.2286596 -0.14375997 1.6574484 1.373081 -1.0358732 2.0267606 0.6874763 1.2495446 -1.1876945 0.40367588 -0.9088589 -0.13075897 -1.0879395 -0.7584259 0.9679554 1.4402455 0.7878671 0.08184439 -0.77810425 -0.6374077 -1.1883701 -1.3779954 0.2865493 -0.04022002 1.0723561 -1.8183106 2.5144966 1.2082775 -1.0208552 1.2999945 -0.65955096 -0.10493546 -0.20793971 -0.6384573 0.99214715 -1.9498347 -1.684749 -1.9148005 -1.4488503 1.7305753 -0.22700122 -1.6083672 -0.022430493 -0.7330751 -1.1880772 0.3705966 -0.7896217 0.533628 -0.43479535 -1.3522799 -0.89751303 1.2193533 0.609655 0.24440749 -0.028193634 0.8557728 0.18199891 0.44846997 -0.829451 1.3068761 -0.43277368 0.23539655 -0.16667013 0.29381815 -0.2670099 1.2359513 -1.0221647 0.7719949 0.30873162 -0.96449095 0.95370543 -1.4062885 -1.4003259 -1.6975839 1.3633181 1.7541715 1.0857552 -1.0065997 -2.2741172 0.15806383 0.11570273 -0.10688559
张 -1.144129 -0.9297889 0.18858543 -0.13110411 -0.26265615 -0.362759 0.5495525 1.1312829 0.17702788 0.98905194 1.4920555 -0.35234684 -1.0648961 0.7580942 0.51162905 1.7508118 -0.98300004 1.940434 0.18240039 1.6788529 0.5806817 1.5196058 -0.013390975 0.91682625 -1.3951629 0.57986265 -0.6563338 0.18920283 -0.12824462 0.52975935 0.22516064 1.9330497 0.41873047 -1.7964596 -0.66271734 0.0825683 -1.462184 0.082589105 -2.603737 0.112821475 1.1976496 0.0061156815 0.8907921 0.2673229 0.8562751 -1.5090503 0.4324145 1.0462204 -2.165237 1.1671767 -0.35527998 -0.5161123 1.6357231 1.3156692 -2.6198888 -1.3413751 0.94133276 0.9041378 -0.1853851 -0.014576817 -0.32285333 1.0616537 -1.373802 0.20709465 -0.25307035 -1.6555687 -2.2846897 -0.40481752 -1.7291865 0.0709637 2.3192015 -0.48724023 -1.0720984 1.7622154 0.16129823 -0.52932686 0.019964548 -1.1066792 -0.7364659 -0.21837668 0.10391408 -0.8444533 0.12471426 1.457977 0.75081915 1.4436338 1.3898383 -0.64717567 0.19290589 0.6829392 -0.8330278 0.4012854 1.07531 -0.049868785 1.3474185 1.3683369 1.1669261 1.0692865 0.75428283 -0.21761498
精 1.9979638 0.3501645 0.022463629 1.3807232 1.2861034 -0.5462691 0.48042497 -0.8275541 -1.6168096 -0.4882406 -0.31815 -0.25995436 -0.67203474 -2.1114073 0.7856297 -1.6821461 -1.4294214 0.208633 -0.82956785 0.6868777 -0.19574906 0.79855627 -0.2455076 1.1161118 -0.22862017 -0.5559695 2.0352046 0.56437135 2.4114113 -2.386331 0.7129483 -2.0723248 -1.7390492 0.13879946 -1.7570894 -1.5191427 -0.6068595 0.06396051 3.3635497 1.1586034 -0.09212463 -1.6342248 0.945135 0.22986668 -0.2267325 -0.4335702 -1.1571634 0.45552352 0.3698398 0.78061837 -0.100165956 -1.3412262 -0.78254145 -2.3056304 0.24674325 -0.6473815 -1.5421227 0.70668036 -0.074328914 -1.3314031 1.4664398 -0.93481547 0.5288132 0.104531355 1.2271302 1.6231767 -0.5491803 0.027995776 -0.4052298 0.6871981 -0.83353394 -0.8847372 0.4178798 0.10515111 0.35430923 -0.70287323 0.6672356 0.597422 -0.43880188 2.2456183 -1.2884352 -0.7979359 -0.13385713 2.2348049 1.265097 -1.7712005 -2.844258 1.8197869 -1.3338786 -0.09737115 1.1945904 0.22276302 1.8216995 -0.40120366 1.4293907 0.62522537 -1.5350769 0.29347128 1.4866397 -1.4707279
发 0.7996785 -1.1728504 1.9759357 0.41749567 3.2970297 -1.360344 1.4472656 1.1063052 -2.5761378 1.554166 0.24411589 0.3939592 -1.5400901 -0.36796394 -0.098320104 -1.2559485 0.2370714 -0.014677754 -1.2421591 1.3743651 0.05553027 -0.005866362 -0.18166961 -0.03151291 -0.5315074 -0.52726364 1.6410112 -0.42738292 1.1189635 -1.5110021 2.2106779 0.45082498 -1.2777439 -1.3296348 -3.8572073 -1.679053 0.25289053 -0.74871004 0.36719826 -2.6445854 -0.20140055 -0.87091523 -0.47645023 -0.4459568 -0.72681147 0.08784265 0.19712907 0.06466649 0.021689462 -2.1097937 -1.3083973 -0.1219775 0.1592457 0.9477165 -1.554087 0.5961719 -0.39565283 0.44158608 -0.66318476 0.064688064 1.1691291 -1.4040686 -1.1685551 0.016045095 -0.33539087 1.2232707 0.59988993 0.5639111 -0.13214757 1.3312681 -1.863368 0.6941651 -0.49721617 0.049951073 -0.06280221 -3.2868917 -1.7648664 1.4119662 0.23564306 -0.82465404 -0.61959034 -0.6305767 0.9490336 2.0716643 1.7271168 0.20588362 -2.058953 -0.4832787 -0.714679 -0.13154969 -1.0782268 0.8699125 0.34483957 0.57425207 1.6043183 -1.0890661 -0.062069565 1.905773 1.2701712 -0.49624363
左 1.7526802 0.18636274 0.09209369 0.69057834 -0.4681759 1.3274835 -0.042210087 1.2800007 -0.6025468 -0.40341944 0.29111594 -1.5993037 -0.09752478 1.1596428 1.522003 -0.7694528 1.3777609 -0.4071872 -0.3381764 1.1254292 -0.50023997 0.008673532 -0.40599087 0.082603075 0.59794044 3.0613017 0.66953367 -0.14102976 -0.41427788 0.1016096 -0.30975118 -0.6391427 -0.011474726 1.5384384 -1.2160754 0.66893 0.1400279 -0.27676925 0.5949723 -0.4056612 -0.039921664 3.4039092 2.3078957 1.4426038 -1.7684016 -0.13159752 0.23510328 0.7030726 1.3275167 0.53297937 0.9277299 0.72474986 -0.6514882 -0.32834113 0.1248961 -0.89905477 1.9635447 -1.1150129 -0.21639514 0.5390496 -0.57252127 -0.21191308 0.32758078 0.34254876 0.6676975 0.16277108 1.0945824 -0.6916588 1.4508291 0.97330165 -2.1339064 0.28104284 -0.924801 0.35600173 0.4485732 -0.27332488 1.6697698 1.1689721 -1.0724617 -0.6710188 0.48457733 -0.39254367 -1.696559 1.6756262 0.97752786 0.4046149 0.16639285 -0.4704528 0.64224344 0.48086005 0.6168352 0.39401883 -0.9611846 -0.4287438 0.54915017 -1.136775 1.0643218 0.19841953 0.63523436 1.2752007
二 0.58062714 -0.7507297 -1.5351096 0.76892465 1.2231945 -0.7622704 2.2266655 0.4503376 -1.9645766 -0.3464663 -1.8940723 -3.2043629 -0.8900058 -0.44886258 0.21092106 0.6627281 -1.4251337 -0.28771335 -1.6423852 -0.3265255 -0.9820857 1.7602519 -0.9214493 1.7026443 0.8700084 0.96314096 -0.87621075 2.6533272 0.36581305 -1.3510377 -1.6110772 1.8390595 0.64476615 0.0635583 -1.3482513 0.4992464 -0.97835976 -1.0255282 -1.4053224 -0.9917156 0.85144466 -1.3205017 1.1023886 -0.26842344 1.604592 0.47110814 0.09594039 0.6461508 -1.1434189 0.13942537 0.74916506 0.5544999 0.9855434 -0.37082008 0.20496885 -2.497384 -1.6009703 0.8724492 1.1939775 -1.0906897 2.1545722 -1.6871448 -0.8788783 1.2305182 0.23474939 -0.03819934 -1.713986 -0.087354764 -1.6648831 2.2582505 0.6785372 1.3651812 -0.11923593 2.3179886 0.4296163 -1.8666813 -1.6910009 0.56885016 -1.4982402 1.8854485 2.5744867 -1.2445863 -1.5437503 2.3400638 -0.59509337 -0.5647557 -1.6110969 -0.5475868 -1.5381796 -3.5923238 -1.89023 -1.4515574 0.6282273 1.9135599 2.1603594 0.25643674 -1.9768102 0.872892 1.294419 -0.45093128
射 0.22383836 -0.13342953 0.15249965 -1.3953718 -1.4489267 -2.718861 0.3437542 1.2449944 1.3467841 0.78982514 0.88008356 -1.7246075 2.0916955 -1.4693553 -0.14213373 0.7748937 -0.2849731 1.9522463 -1.6256163 -0.09167142 1.7338499 0.83375907 -1.4028542 2.1591213 -0.14755665 0.40974075 -3.5805225 0.079006426 -0.38563088 0.61505514 0.60275584 -0.15307964 0.3646128 -0.20307688 0.025117258 1.0307896 -2.1854353 2.7134035 -1.3570001 -0.4912604 0.9342182 0.7900088 -0.10183856 -1.030363 0.6178152 -0.95173156 -0.8472294 0.38729435 -0.47028062 -1.9383141 -1.9704237 -1.6211555 2.5470185 0.6653695 0.21989885 2.2635007 0.44295183 0.14257134 0.50983775 1.3282377 -0.035604782 1.8309568 -0.16763496 1.4464904 -1.3631883 -0.6829448 -2.2631898 -0.8791982 -1.6012421 0.4694771 0.45747074 0.6002254 -0.46500212 1.718026 -1.0217496 -1.9157274 -0.51685023 0.29945752 1.2541517 -0.6226521 0.6814171 -0.6424333 0.54917103 -0.31504288 -2.3033493 0.03294283 0.97776836 -1.8800539 0.74333096 -1.9552215 -0.10242924 -0.16293989 1.1258626 -0.071079634 0.5628397 1.6648356 0.6118658 0.22728525 1.3562509 1.21344
诉 0.16833901 -0.29938042 0.3731082 0.13654502 0.22805057 -1.5074016 1.2897302 0.69407743 0.16871464 1.5340803 -0.70908314 -0.43500298 0.23934153 -1.1315097 0.67883646 -0.92110515 0.29023722 1.3309915 -2.5403717 0.8716953 -1.100165 2.0111103 -0.76056015 1.0290525 0.2696132 0.097250104 1.1662792 0.14229913 -0.28467876 -0.8616105 0.30333075 -0.20816872 -1.8918698 -0.057835724 -1.4158039 -0.37820143 -0.20924482 -1.4974256 1.3939846 0.050041623 0.6562645 0.555996 0.5860855 0.40583396 0.1835159 -1.4700061 -0.97500235 -0.62327975 -0.23436673 -0.36595508 -1.1235131 -0.744886 -0.43476185 -0.35201713 1.1840496 -0.5511307 -1.3772136 0.4419114 0.5647328 -0.45495847 1.5119526 0.3540828 -0.559359 1.2754767 1.1343051 0.5665158 -0.66741776 -1.5917878 -1.5363643 1.2868874 -0.7831636 -0.19037469 -0.8146079 -0.30346087 0.061340626 -1.6093873 0.36555016 0.8647206 -0.5921526 0.53167456 -0.9689607 -0.13377051 0.13850771 0.86224717 -0.24848132 -0.06377816 -1.7318251 -0.45671028 -0.3834897 -1.2978113 -1.4096963 0.6366014 0.50861967 -1.448781 0.6865916 -0.8221625 -1.251721 0.9434653 2.1904037 0.03032685
活 -0.2053068 -0.6364396 -0.8187644 0.9994523 1.4903754 -0.08969022 0.3116984 -0.35127804 0.46589342 -0.96100116 -0.57205176 -1.6971595 -1.8070983 0.22568229 1.0519997 -0.68784463 0.09439542 1.6728979 0.6217843 1.1463823 -2.9786468 0.95823056 0.56005156 2.1582448 -0.9599937 0.7929753 1.9958135 -1.0554545 -0.39148372 -0.5093261 -0.4619063 0.911977 0.86441684 -0.34723008 -2.29999 0.79197335 -0.0687032 0.6359242 0.9847251 -0.071797065 0.83328676 1.6280757 1.3480523 1.0668956 1.2076122 -2.419083 1.2858573 -0.13716574 0.6636595 1.0821958 -0.6561765 0.88397074 -0.7470054 0.040554706 1.6652344 -0.2129529 -1.2172239 -0.29666236 1.3214486 0.062485848 -1.5163156 -1.7428217 1.1673275 -0.5767157 -1.0628922 1.4953544 1.0145602 0.3245319 0.34976158 -1.0723535 0.26666933 0.48004907 -0.64446634 1.9919804 0.21578342 2.4551551 2.2048054 -0.6949135 -0.37677872 0.43048543 1.8003213 -1.4562259 0.6549806 0.508977 1.9911267 -0.15283144 0.649353 -0.72705305 -1.9705211 0.62515724 0.139384 -0.3091771 0.028386973 -0.9968716 1.0793358 -0.225721 0.012274864 -0.90589154 2.2073658 1.154669
次 -0.6374318 0.50602585 -0.49491525 2.4771137 -2.0886767 -0.7438851 0.69361216 1.7041491 2.4689682 -0.71935195 2.3309264 2.1150193 -2.0559378 -1.3819641 0.43589193 -1.1604525 -1.130331 -0.3363636 -1.8192008 -1.8637831 0.24493474 1.3864183 0.8225755 -0.73033816 -0.91664404 -1.0427759 -2.3706303 0.55302685 0.4492392 -1.212344 -1.8428596 0.75726765 -3.065576 1.8953202 0.47775915 -0.057861745 0.92190826 -0.20127915 -1.9008851 0.029750366 -0.055600625 -0.6310186 -0.6486314 -1.1916295 -0.4399091 0.25433734 0.8247491 0.06079524 0.69247293 -0.77853924 1.9500968 -1.4530847 0.8846443 -0.71532166 0.53436166 2.508463 -0.26145688 1.1438366 -0.106078856 1.2604053 1.9278843 -0.8701015 0.33495864 -1.4515587 -1.4408121 -0.8205198 0.42577094 0.60643214 -1.4361912 -0.27345243 -0.46516466 -0.58254045 2.0202398 0.18553226 -1.1752863 -1.3628457 -0.66797996 0.022737322 1.84303 0.5271726 2.7491176 1.9402214 -0.36529994 0.657161 -2.740545 0.6446381 1.8153987 0.5445619 2.4215248 -1.5199838 0.89030945 0.17242903 0.028022457 0.9495991 -0.61445576 0.25030345 1.1491659 -0.14672737 -0.8292908 0.23260668
呼 1.0784866 2.3810356 -1.9604838 0.9989021 0.19361274 0.9233771 -2.1716444 -2.3077967 -0.8574313 -0.86059844 2.7369165 -1.5204589 -1.1657026 -0.27587914 1.2303845 -0.60323346 -0.27629748 -0.9828552 0.3815205 2.3919587 0.6528541 0.5650627 -1.900413 1.4141337 -0.5126864 -2.5009704 -1.4364145 -1.6049924 0.6409339 1.7921594 -1.1879772 -0.6433859 -2.7454104 -1.7625632 1.1140168 -0.858769 0.52600676 0.6431996 1.6473405 -0.5915182 1.1819752 -1.9229717 0.26163906 -1.9537146 0.53606224 1.3804646 0.80276054 -1.8996954 -0.8632983 -0.6004963 -0.3707158 0.56072015 -0.74653506 0.43531826 0.1858784 1.2025824 0.1718875 0.8367144 0.06377136 0.12664077 1.3740919 -0.22703277 0.1697569 -1.1182894 -0.08563378 1.5986489 0.86669767 2.5186105 -0.621676 0.24407968 -0.773269 0.03882031 -0.31607574 0.22816773 -0.41946122 1.4672041 -1.4971583 1.971468 1.2507372 1.477318 1.977962 -0.041311435 0.18439172 1.1012411 -2.2219489 0.42513224 0.54244286 -1.9945071 -0.8820484 0.49943608 0.29943788 -1.1183374 -0.99999815 0.807244 0.73572224 -0.4443191 -1.5106512 1.3071709 0.6912476 -1.4274211
吸 1.6497127 2.568547 -1.9019063 0.9753746 0.4178978 -0.014795347 -2.6011755 -1.1609559 -1.3309078 -1.7133182 2.797785 -1.5891843 -1.1434019 -0.2875132 1.2306947 -0.8535856 -0.37857276 -0.84481436 1.4901009 3.2160547 1.2227246 -0.006339104 -2.40136 1.4056317 -1.9284128 -1.9317081 -1.1870314 -1.592579 1.8121586 1.7084949 0.08501628 0.53704673 -3.1212723 -1.1448607 1.7542456 -1.0205348 -0.071496494 1.0537128 -0.0063004694 -0.3772688 2.163574 -2.5295136 0.38355944 -1.3670466 0.33555707 0.5265742 1.9982935 -2.2613606 -0.72019 -1.3924395 0.78994757 0.61334455 -1.4821067 0.69844604 0.09958165 0.11357307 -0.632838 0.91443706 0.7734622 -0.052786615 1.6878492 -0.6732761 0.07097764 -0.7877743 -0.7685881 0.6283756 0.20002952 1.3099977 -0.5543945 -0.28786975 -0.22833224 -0.3597926 0.6430773 -0.08037958 -0.12805586 1.8743311 -1.9786718 0.36411896 -0.03228649 0.75370234 1.043103 -1.1378422 0.7061443 1.2031567 -1.3711877 0.19349226 1.6001711 -1.2261103 -0.6222464 1.0116459 -0.020762023 -1.421375 -0.9211186 1.3492447 -0.6186981 -0.56182325 -2.627608 1.0381368 1.5017116 -1.7168313
平 0.24378778 0.12204255 0.01708629 -0.3495787 -0.73717844 0.813746 -0.5581285 -1.6657186 -0.03134228 -0.8554312 1.2137264 0.099548556 -1.6078069 -2.241805 0.07098263 0.759569 0.17542142 0.30165112 0.7232444 0.7653101 0.852058 -1.2021078 -1.5052035 2.064176 -0.7490723 -0.14811276 -0.25413293 -1.6823853 1.7048118 0.6574852 2.074206 -1.4303023 -1.1075379 -2.0955715 0.6897302 -0.8148939 -0.8770921 1.9621513 -2.1191108 -0.52047515 0.3172057 0.0009082847 0.7838335 -1.3486394 1.7330618 0.4871019 1.3360676 1.133919 -0.033017114 -1.1844742 1.4588941 0.6590909 0.613455 -0.6733962 -0.28204226 -1.6583071 1.2339543 1.011987 0.078536816 -0.32037354 0.07008402 0.9843207 1.4435319 -0.09763799 2.420021 0.29997557 -3.8717313 -0.032365333 0.14097822 0.6928313 0.6269523 0.5346131 0.55788624 0.84803027 1.6343334 0.9259786 -0.71288705 -0.783831 -0.73617923 1.3285177 0.5482082 0.8774367 1.6009669 1.2290561 -1.1386796 1.7887279 0.4800326 -0.6704481 0.23263961 0.8014812 -1.2194022 1.2624704 1.3738523 0.8195363 -1.3973191 0.9333497 0.5295636 0.6644024 0.23873566 -1.7032337
块 0.15022396 -2.2278774 -0.13021816 0.90654856 0.42222282 0.81534815 1.9142773 -0.33253357 -0.3748927 0.73988163 3.5012248 1.8652692 0.038269836 1.8045735 3.0865579 2.2088795 0.648072 1.2652148 3.127113 3.1062434 2.5760438 1.3116459 -0.14750165 2.0803456 -1.1858504 0.56178945 1.220452 -0.9719788 1.6629578 1.2313046 -0.21328768 0.87491053 0.055550262 -1.6794784 0.017834093 -0.14934838 -3.2199745 -0.14142095 -1.124699 0.9653036 2.1274307 0.6668966 1.3202558 -0.027355852 -0.012090402 -1.5183247 -0.2180074 0.18884914 -2.9052873 2.0525627 -0.11395303 -0.3955074 -0.6668027 -1.1315411 -3.2588162 -1.9218652 -0.44199908 2.911415 -1.9054642 -0.21411714 -1.888588 0.44401282 -1.2452142 -1.3131889 -0.11345158 -0.84073263 -0.032105807 -0.9781712 -2.345516 1.6372442 1.1765605 0.8414176 0.520344 0.5319389 1.570485 -0.35762322 -1.181529 1.9758805 -2.0593665 0.32488286 -0.67343825 -0.2955288 0.77085197 1.7940404 0.5406371 1.1625823 1.7343326 0.37824082 0.3631434 0.18426873 0.10622419 -0.8182672 -0.44825262 0.7720108 1.6111304 0.8509687 0.18054716 0.41604528 -0.3341226 -0.567241
不 0.2571328 0.06854431 0.03388041 0.96172416 1.349488 -1.4178162 1.8700051 -0.83030957 0.50474226 0.69753766 1.0748905 -0.18668193 -0.27748492 1.0343939 0.607071 1.1596118 -0.2649424 1.2584934 -0.09579592 -0.6025686 -2.10018 -0.3472282 -0.6856452 -0.17054762 0.73693585 0.11302485 0.2519945 0.6306726 -0.072715364 0.74437207 0.052166227 0.99845725 -1.0041978 0.9587283 -2.012271 -0.501257 0.005492945 -0.6417243 1.2019098 1.2260658 -0.08548364 -0.8592506 -0.06988264 -0.11696931 -0.5522848 -1.5556349 -0.5402416 0.54316086 -0.28011915 0.20672768 -0.3261377 -0.11732891 -0.14765269 -0.84011316 0.9573255 -1.3427795 -1.0642173 0.5793564 -0.83549565 -1.2934866 1.8263375 1.0849161 -0.5650345 1.1393845 0.90103173 0.6386753 0.83531016 0.035840496 -1.1341352 0.37515944 -1.4011309 -1.4626672 -1.3586496 -1.3655719 0.844622 0.15152335 -0.1638345 1.3612475 -1.8529541 0.35606036 0.50104356 -0.73718756 0.052997224 1.962177 -0.7926239 0.3324862 -1.5120269 -0.47891283 -0.73426694 -1.1546837 -1.5083531 0.87263227 -0.17117056 -0.62643045 -0.07738536 0.119184375 0.07699164 1.1690408 1.316965 -0.092143625
0 -1.4758512 1.277325 1.506809 2.3220584 -1.141592 0.07305528 -1.3852789 2.7351673 2.5103126 -1.0912122 -0.64333934 1.3279284 0.002448504 -0.44667763 -2.1023872 0.14052188 -0.09585778 -0.58652556 -0.719358 -1.030807 0.2794433 -0.42384484 0.67275023 -1.3006643 -1.9507929 -0.114829354 -1.9960872 0.01425144 1.1113185 -1.4438468 -0.07876023 1.1285174 -0.523285 2.5213668 0.010533458 1.1945237 0.24494193 -0.37494278 -1.7060324 -1.0888299 0.090578385 0.54997647 -0.607097 0.5128749 -0.17858304 1.9025613 1.4780877 -0.38312745 0.47336492 -0.5162332 1.3666012 -2.618964 1.0644708 0.4034073 1.2859141 1.737988 -0.4673554 2.2711575 0.14199324 1.254892 -0.6121017 -0.21442495 -0.41163865 -1.7241979 -1.6965483 0.36064884 0.9851274 -0.15695003 0.27588165 0.46917343 0.7605886 0.47913516 1.2170379 0.23353891 -2.0289488 -1.5956452 0.62138593 0.7513953 2.286867 0.9400216 1.1008464 1.5455488 -0.55515254 -1.1633146 -1.9323062 -1.1825031 1.8468018 1.7046593 1.5129851 0.121713065 1.1073064 -1.7253876 -1.3615988 0.35580933 -0.14891587 -0.8089102 -1.11914 -1.0996864 -0.6947112 -0.26535335
胸 1.7143825 0.6278137 0.34228203 0.9806814 -0.6728555 1.4134685 -0.07532716 0.77680135 0.02474994 -0.2946941 1.7957302 -1.1917175 -0.650543 -0.5150546 -0.22815347 -0.7556944 1.6098597 0.24980836 0.063906915 1.109135 0.3524017 -0.34857944 -1.8001901 -0.28123873 0.63833773 0.096877225 -0.5498 -2.121587 -0.10991359 1.7606506 0.26458445 -1.2105855 -0.89048874 0.6863147 0.20592831 0.78215814 0.5907852 -0.38963974 2.059503 -0.027043765 1.0609281 0.2429117 -0.8169501 -0.27373004 1.0438968 -0.11200077 0.059055895 -0.01650893 -0.15587598 -0.087149926 -0.9553046 1.3752357 -1.4787831 0.754102 -1.020405 0.23855202 -0.07261841 -0.6495934 -1.4512589 0.4548344 -0.29427642 0.32420486 -1.2170032 -0.9197938 1.8953629 0.6990792 1.1054888 0.88341236 -1.3256837 1.1710819 -0.20895237 0.0057574823 -2.3761082 -1.2497561 -0.48456192 -0.4780309 -0.02552296 1.4349686 0.8040344 -0.5695716 0.18176326 0.455828 -1.798881 0.21341772 0.7557989 1.4741181 -0.26323035 -0.8242961 1.3135138 2.4066007 -1.1611049 -0.4538813 -1.1167741 -1.1820884 0.22062746 -1.2916352 0.13173905 0.8753283 1.0590088 -0.977126
软 0.4846568 0.31039384 0.102069356 0.41744167 0.7783273 1.742213 -2.397464 -0.11922282 -1.8395567 -1.1172283 1.4711971 -0.9703192 -0.7590971 -1.5357975 -0.34430465 0.8440989 0.95638365 0.9952851 0.5773988 0.6775567 0.6205116 -0.31953892 -0.15666443 1.5147091 -1.0423408 0.9196569 -0.07653771 -1.9862206 0.63465357 -0.5827024 1.3037951 -0.64679736 -0.9789872 -0.9055482 0.3151668 -0.7340158 -0.9220807 1.6266265 0.42887196 -0.37381652 1.7831693 0.8196338 -0.16380556 0.84940666 1.2729392 0.6916808 0.8417488 1.1548473 -0.20293292 -0.20197503 -0.038785674 1.1587793 0.40670174 0.025219455 -1.0791872 0.048948996 -0.0052903225 1.0805836 -0.17193677 0.6046605 -1.9561198 0.7007798 1.0105989 0.5501673 1.9672526 -0.13817115 -0.6150312 0.410338 -0.076064594 1.6257576 0.29359353 1.2907033 -0.13119549 0.062971205 1.0711776 0.2589261 0.057385065 0.20276287 -0.5884097 0.5330625 -0.622213 -0.11731138 0.38443536 0.74828273 0.72693914 2.5630026 1.1922663 -1.2016933 0.10134733 1.3224037 1.9189123 -0.22604407 1.2144756 0.7738672 0.41937754 -1.1781627 0.10429118 -0.11717425 0.52030647 -1.0363003
切 0.012290311 0.022262044 0.4432054 -0.44566366 -0.3283244 -0.85458356 -1.6110644 2.4400795 -0.9842276 1.3580377 -1.2882774 0.9263454 -0.8937048 -0.993307 -1.4884099 -1.0005363 0.85100704 1.0883375 -0.13351844 -0.89125335 0.544251 -0.12741472 -0.3487544 -0.18777639 -0.3463694 1.2127982 1.018484 0.32105973 0.4518949 -0.22608578 1.1221555 1.5155767 -1.9298935 -1.7752593 0.3661931 -0.46328795 0.500886 -0.4043091 0.21275397 -0.011195974 -0.254357 0.41325492 -1.3426069 -0.4218301 -0.6453941 -0.7707613 -0.8013857 0.08183435 -1.5834817 1.1943079 -1.0933284 -0.50705767 -1.1892613 0.71673423 -0.8778878 2.5388784 0.8825931 -0.25754917 -0.9388714 0.6709679 -2.29276 -1.2825488 1.4161749 1.4431787 0.3608291 -1.6042333 0.08852938 -0.097224854 0.18983522 1.983769 1.020709 0.9807264 -1.091587 0.05633167 1.02819 -1.688347 0.36271188 1.2542683 0.09668236 -0.5221948 -0.9970806 0.8304394 0.79380965 -0.101839945 0.028135553 0.0990681 -2.0945039 -1.3924321 -0.12522286 -0.98996294 0.31999964 1.5007004 1.396166 0.06711952 -0.84227383 -2.9735527 0.017784558 0.871171 1.11428 -1.2891661
食 0.5126196 1.2306838 -0.0273764 1.6529346 2.6359553 0.30811778 1.907794 -0.23893064 -3.0205317 -0.33234918 -1.8937391 -2.6885128 0.48241055 -0.92790353 0.30869502 1.6946342 -0.8793449 0.44696486 -2.274784 0.09587289 -2.1641793 2.056035 -0.37052798 2.160394 -1.1624006 -0.13336812 1.0840962 2.8090255 0.8803968 -2.9800653 0.23464048 0.82359666 1.3095735 0.15626392 -1.1538706 1.1267079 0.68556273 -0.2624814 1.6014717 -0.54708374 1.0442969 -1.5037303 0.7739128 0.05442078 1.1710625 0.037118904 -1.7680427 0.85723984 0.3555734 0.64107877 1.1125723 0.47237644 0.09005126 -1.4290271 -0.31079802 -2.8632965 -2.0937681 1.0480099 1.0584058 -1.8874791 2.637621 0.88419855 -0.7134037 1.4709773 0.40754023 1.0494578 -0.42194825 -1.9566414 -1.738612 0.7831797 0.98108417 -0.0032885293 1.0678307 1.3562796 -0.74121493 -1.5511556 -0.5672903 -1.5003163 -1.2730683 1.1322596 -0.60584587 -0.44593832 -0.27432334 2.4863546 0.69771695 -2.153237 -1.4957217 0.38661596 0.25364307 -3.4745147 0.15774494 -1.4935429 1.5905507 1.9390486 1.6702112 0.50612295 -0.45740676 2.9521616 0.15621623 -1.0763769
饮 0.9911922 0.1730935 -0.42104226 1.4014931 2.887687 0.8567519 0.9580027 -1.0222785 -2.9795306 -2.0751112 -0.81909347 -0.84695226 -1.5975349 -0.7689815 0.48348632 1.9951016 -0.9531318 1.1472423 -1.3881872 -0.38026243 -2.9824774 0.7953166 -0.38813215 0.20562457 -1.8459983 0.60433435 -0.10952151 1.1695824 0.6394585 -2.3873591 -0.52635294 0.6089027 0.7813197 1.0228292 -1.2759833 -0.6919277 0.41394058 -0.87796736 1.278209 -1.2806197 1.131756 -1.0448039 0.12155927 -0.9719839 -0.53190196 1.0888458 -0.80943024 0.432157 -1.1964453 -0.15827811 0.3539228 -0.32083175 1.4809029 -1.5016278 0.05253637 -2.0782592 -2.2642653 0.22569996 0.21817105 -0.14523761 0.6396798 1.651938 0.1765398 0.95602304 0.38911587 1.7322253 -1.7940063 0.018175704 0.31320617 -0.79205734 -0.53097224 -0.051971406 0.111869834 1.2811005 0.14287707 -1.8682821 -0.14317963 -0.05385768 -1.0430098 0.4210246 -0.06415 0.60188454 0.15652901 2.5408628 2.2523243 -1.7142551 -2.306585 0.9888819 -1.0401202 -1.8981345 -1.449768 -0.85382104 0.5377461 0.52568704 0.7176834 1.4431697 -1.3618902 2.1829724 1.958867 -0.80370414
明 1.8570044 0.3915382 -1.3764541 -2.1533709 1.9012786 1.1109841 0.2536055 -0.67755777 -0.52899057 1.0525103 -1.8294293 -0.89388734 -0.92742354 -0.19744936 1.6980902 -0.8357988 -0.112340376 -1.8680767 0.3307461 1.4449521 0.33780146 1.2352377 -2.5339813 0.34545678 2.2455878 3.1700807 0.34527734 -0.99989074 -0.80186087 1.9568462 -1.4103806 -3.1370375 0.9605314 0.7931725 1.4688008 -1.2721032 0.7175038 0.29379505 0.33646286 -0.8398799 1.9399031 2.1466093 1.0070846 -0.26133385 -0.71471566 0.043840066 0.3146797 1.8406142 1.2838687 0.6741652 0.69540125 2.138176 0.5941446 0.05768095 -0.9961582 -1.4450623 1.8981662 -1.0041552 0.049543746 -3.167631 1.002139 0.85757595 -0.2555678 0.28881085 2.2552123 -0.1067301 -2.1387024 0.03412959 0.8898859 0.80591744 -3.225603 -1.7593329 -2.0786858 -1.082064 1.8940336 0.55540687 0.048156742 2.2919583 -1.8244271 -0.8376502 -1.0651692 0.13869132 1.709685 1.60459 1.585171 2.657287 0.7741461 0.24624331 1.448867 -2.3917913 -2.537049 2.5553656 -0.35479692 -1.003502 0.25740516 -0.431141 -1.1467443 1.5290782 2.7457051 1.7456986
显 1.1148722 0.93395925 -1.3530657 0.98869765 -0.18181124 -1.7092634 0.68654495 -3.011227 -1.3054603 1.0033246 2.5169504 -1.052887 -0.10423295 -0.11678548 0.80834365 0.6302451 2.6142466 1.3808829 -1.2881985 2.0030968 -0.6182324 0.14875107 -2.6927605 0.4226602 0.45496428 1.8508124 1.7504302 1.1002748 -1.2497369 1.737856 -1.4344939 -2.719222 -1.1966406 -1.1170312 1.5490335 0.40461144 -0.56224483 -0.60318154 0.010951335 -1.4653639 -1.0844656 2.702557 -0.071980335 -0.2709869 0.24150388 -1.2150476 -1.111813 -0.046803962 1.3491511 0.4439391 -1.5318071 1.8440834 1.7028778 -0.69548154 0.30335668 -3.598499 1.8103414 0.2644426 0.2209774 -1.343015 0.7106777 0.51830477 -0.86296004 -0.13370483 3.8412857 -0.10455455 -0.5592278 0.09391854 0.22195601 -0.39427707 -0.68052757 -1.5212762 -2.2333143 -0.78760076 -0.93704426 0.55956954 0.053407352 -1.5054078 -1.3426776 -0.39085773 -1.5953395 -0.7562468 -1.7540021 2.1136649 0.93650025 0.29903325 -1.6182779 -1.7715983 -1.2546597 0.4403892 -1.0238411 0.92142606 1.9509987 0.6721606 1.217803 -2.7262175 -0.1767255 1.9768208 -1.1518989 0.6151864
上 0.2512028 1.3621247 -0.41983613 0.4611404 -0.96526235 0.47156143 1.7290201 0.2714534 0.39973316 0.040653948 -0.0020126095 0.20223911 -1.3351669 0.5275698 1.3193953 -0.30264583 0.55198056 -0.46654767 -1.178906 1.8006961 0.46097305 1.2439251 -0.41224462 0.5015585 -0.43261507 0.42435625 0.3372845 -0.9459412 -1.4532427 -0.10090197 -0.69666976 -0.6544282 0.77654135 0.66565603 -0.49146193 1.8977197 0.99871784 0.49671394 0.91477597 -0.99483824 -0.55887634 0.7797241 -0.29298848 0.6359486 -0.09322825 -0.97514415 0.116548024 -0.9720465 0.6834574 0.51537913 -1.2132183 0.9099144 -1.1647017 0.84965205 -1.2785463 0.16803011 0.8923834 -0.9209155 -0.25307268 -1.1639521 -0.30305824 -0.7702017 -1.604573 -0.24570599 -1.8239454 0.3506285 1.5750296 -2.004027 0.49742123 -0.90320545 0.18788402 -0.28983644 -2.9161956 0.64422935 0.29123545 1.6960065 0.22052684 -0.68370336 -0.75015444 -0.92286694 0.6772885 0.5300626 -1.4455482 -0.3792654 1.368878 -1.3233992 1.269659 -0.7484933 1.2335007 1.3543059 -0.20873183 -0.67220485 0.49173173 -2.067832 -0.06868223 -0.28721777 1.3837157 0.63336486 0.21724617 0.49513483
红 0.9786186 -0.02845172 0.102526985 0.5969596 0.6675015 1.1563969 -1.2055075 0.8268525 -0.33931804 -0.4101747 0.06603983 1.1368192 -0.33020416 -0.90533864 -0.18465006 -1.2568146 0.7912565 0.06333267 0.85127646 -0.04122235 3.9960465 1.0277306 -1.28984 1.1439097 -0.47050223 0.06963169 -0.1714343 -1.807905 -1.5458372 0.18392506 -0.6391262 -0.17954083 0.622918 -1.2485335 2.9814143 -0.6346415 0.2477521 -0.37303665 -0.07544864 -0.3369115 0.31225717 0.9248711 -0.014884832 0.0020248492 0.733741 1.2333993 -0.9973139 0.6628588 0.075346194 1.9736961 -1.3419136 0.94921565 -0.85914487 -2.129436 -3.294143 0.8909685 0.7082907 1.2080245 -0.8256782 -0.115978196 -3.6193867 -1.5889349 -0.93420374 -0.5206343 0.59504604 -0.52804446 0.67100275 -0.83154774 -0.18057542 0.66384166 -0.30665207 3.03895 -0.9656361 -0.97367597 0.38100728 0.37056333 -0.38066116 -0.3979366 -0.88671166 -1.5914859 0.38795358 0.9936533 -0.2592209 -2.0902328 0.3829573 -0.548086 0.54895216 0.9556043 1.8586749 0.27862948 2.122797 0.18592952 -0.19016467 1.4255624 -0.17632116 -3.4869409 -0.026833136 0.3887662 -1.5340779 -0.92976165
热 1.7614238 0.21203586 0.07345552 2.1990423 0.65486777 -0.6400521 1.9509517 0.5230804 -0.23927282 0.41142043 -0.65968704 -0.29242307 -2.071337 -1.7233651 -2.5740466 0.3339534 0.28857276 1.4921199 0.1312261 -0.18739407 -0.8987445 1.4797488 -3.371341 -1.4485183 -0.33164355 -0.32522035 0.5402544 1.2777574 -0.6524953 -2.9210958 0.30498284 -0.69588804 -0.09550849 -1.0601307 -2.4130564 0.30184612 1.5302057 -1.638536 2.465632 -0.18520671 1.7959578 1.0881975 -0.23197377 0.6076783 -0.7858429 -0.74385524 -0.5337253 1.8459041 0.49348456 -1.4935195 -2.3507173 1.1911368 2.3980513 -2.8607523 0.62649095 0.78465 -1.9879696 1.8055054 -1.424348 -1.2865068 0.15831949 -0.1974311 -1.7680353 0.8176385 1.953178 0.9175769 0.15756644 -1.5155008 -0.93554103 0.851217 0.70730716 1.5134964 -0.19454286 -0.515273 0.2624565 -3.602704 0.1423779 1.6826389 -0.27126533 0.5248768 -1.080041 1.2116351 -0.71803415 1.1330737 2.7851448 -2.0794919 -1.0909647 1.4832609 0.99623406 -1.7770231 1.2338246 -0.8583565 -0.19164208 -0.5163016 -0.019185502 -1.4786309 -0.8732269 2.888678 0.68590546 -1.5191191
皮 0.36082727 0.73048717 0.89436173 0.749788 -0.49201176 1.5703994 -0.17725992 2.2712467 0.26730064 0.69400966 -1.9220331 -0.040642023 0.752482 -0.282512 -0.07742531 -1.3458071 -0.56662685 0.9598847 0.49706182 1.5233486 1.6565052 -0.5430894 -2.7659407 1.1159408 -0.69774395 -0.7760334 -0.65583503 -1.1331408 -0.8921749 -0.7112841 1.0570009 -0.7836872 1.4721141 -0.9782262 -0.87039566 -1.00368 -0.10470186 0.059148386 -0.44763833 -0.42341417 0.8954268 3.5958028 0.24591635 1.6189244 -1.6354116 0.12296104 0.43832156 -0.7438969 -1.5405046 1.6808928 -0.840608 -1.3147243 0.62242055 -1.2771492 -1.6404558 -0.892402 2.2401223 -0.34838337 0.7060446 -0.311549 -2.7928722 -1.0027167 -1.2645289 -1.2895399 1.2169679 -0.58139884 -1.356967 1.4482961 0.60117054 -0.99261385 -0.79850084 1.0506173 -0.6844743 0.011860996 -0.5279163 -2.4944258 -0.41660324 1.0402324 0.47770435 -1.9325542 0.6479396 -0.6224366 0.954381 -1.8744413 0.9625671 -1.9078624 0.3437653 1.1703768 0.84721076 1.8593516 1.7837454 0.065237954 0.6040016 -0.8541041 1.705503 -1.0986389 -0.35144702 -0.271637 -0.62519556 -0.646793
畸 1.6294322 -0.1487007 0.64482254 0.20804138 -2.0002143 -0.95921093 -1.0842543 1.6888438 -0.5476408 -1.2345197 -0.92375463 0.1535165 -1.863047 -2.411574 -0.45510575 -2.7577813 1.9289583 0.35527343 0.57490855 2.0761733 -0.9598354 0.5907585 -1.5525765 1.9578787 1.1294122 1.7685686 -0.84220034 -2.0058444 -1.2838082 1.105147 -2.0195963 -0.37339932 1.2818782 0.5473969 -1.6764251 0.52377504 2.2564347 3.3919034 -0.5515095 -0.7457457 1.724853 1.5701885 -0.18918514 -0.5152124 2.7748601 -1.4866186 -1.9059837 0.9917218 2.84917 0.86510015 -0.8945733 2.0810952 -1.018404 1.7722054 -0.042649526 0.76935786 0.603485 -1.3697617 2.3078907 1.38827 -1.228683 -3.0161667 1.4558351 -0.252769 -1.2916921 -0.62915003 1.1516819 -0.43052378 -1.349294 0.9384827 -0.85323215 1.4510533 -2.4719284 0.16977672 -0.9278043 2.1685092 -0.854387 1.4392283 0.75031596 0.20211126 2.7339358 -1.2970786 -2.6546454 1.6368614 -0.8448017 2.8137715 -1.1018044 0.0078000757 -0.5363519 1.2355341 -0.8417919 -0.8726626 -0.83214694 -2.0770304 -0.3155533 -1.228982 0.22895725 -1.7024577 -0.6987309 -0.2954806
各 0.34894335 0.09757823 -1.1583469 2.7718515 -0.08008642 -0.30218512 -0.26699018 0.37598705 1.27712 -2.1117878 0.19006921 -0.34253734 -2.6748862 -1.5172068 0.9292612 -0.7487342 -1.3540171 1.2466276 -0.0021593706 -0.73141545 -1.0527464 0.56529593 0.6742972 1.2346007 -0.47725713 -0.3407661 -0.58756393 -0.7517274 0.89772433 0.09018291 -0.6966725 1.4687941 -0.5916249 0.320191 0.45965835 -0.004283555 -0.40451044 1.0277871 -0.9245769 0.14341843 -0.5789971 -1.308798 -0.5296559 -0.83515054 0.019339375 -1.8919251 0.49683762 0.23899938 -0.3796497 2.100086 0.94864535 0.28272483 -0.8655389 0.50473464 0.9000347 0.68540734 0.71080256 -0.18937537 -0.23660862 -0.032966215 0.6752629 -1.0447487 1.3323863 -1.473891 0.12039422 0.23596328 0.03907754 1.5503494 0.21496339 -0.41973278 0.026590088 -0.99345905 -0.019224087 -0.2507482 0.23565033 2.0684187 0.053971976 -1.3158274 0.32294196 0.7496551 2.7697105 0.39858398 0.6565566 0.5169442 0.7311483 0.21065995 -0.23438951 1.8776867 -1.0584154 -1.1152389 0.09765067 1.2561643 0.5633506 0.51410866 1.1400483 1.6585594 -0.8937204 -0.23320524 0.25469747 -0.35808802
疼 1.2290957 -0.11202019 -0.53924185 0.56650466 1.2086959 -0.49472898 1.0853565 1.60454 -0.84643066 1.2165128 -0.6022248 -0.49630544 -0.82756805 0.77365714 -0.5884753 0.15187307 -0.1973536 1.7341535 -1.6350641 3.0087342 -1.0831987 1.1987519 -1.0593016 1.4508806 -0.24757124 1.9677546 2.3752582 0.15847176 0.18652822 -1.3980985 -0.77421105 -1.2919346 -0.8186998 -0.67744744 -2.4974492 0.6854078 0.5894199 -1.0129406 2.7722323 -0.67974204 1.7555257 3.3241286 0.97510177 2.1985838 0.1111876 -2.4565558 -1.0396898 0.98941725 -0.27827033 1.6336132 -1.0107434 0.8054242 -0.9511594 0.8722738 0.0830423 0.8602801 0.7275221 -2.287292 -1.0456676 -1.7981899 0.9074464 0.7613708 -1.0154761 0.6633217 2.1540103 0.45279643 0.45806664 -0.046008505 -0.6296369 1.308153 -1.0611408 -0.581526 -3.2032251 -0.5236729 -0.26762107 -3.0173693 1.4761459 -0.133087 -0.43901148 -0.8012361 -0.8135892 2.0285273 -2.194881 0.66058207 1.1848487 -0.18896471 -0.5427022 -0.6104386 -0.4820242 0.13162428 -1.6288276 2.2117445 0.91828823 -2.89547 -0.5709176 -1.1185782 -0.94998837 1.9313761 2.015236 -0.43349016
征 0.56635207 -0.610794 0.60531706 -1.1235933 -0.7848266 -0.57534397 1.4562998 -1.9151293 1.216512 -0.35326448 0.8182488 -0.6681257 -0.5104422 -1.0077758 0.019651625 0.5428756 -0.6189072 0.7242534 -0.2597549 0.3390126 -0.29699495 -0.52641034 0.040721375 0.48259515 -0.25275657 -0.39837936 -1.8212216 -0.22193807 2.0422647 0.6771622 -0.15597527 -1.1656152 -0.4234815 -0.40777308 0.29035613 -0.6736162 -1.4536169 2.6055288 -0.9714343 0.53798884 0.6715709 -0.20625688 1.1635026 -2.5779355 1.6895378 0.66771936 0.89858705 0.032252498 0.9061265 -0.67987716 -0.05094406 -0.5953401 1.1714776 0.6949388 0.72955585 -0.15156499 0.57321227 -1.0876894 -0.003352003 -1.0009791 0.9071524 1.4724371 2.5230503 0.03958519 0.9552426 -0.17908227 -2.466371 0.26370504 -1.0127529 -0.44451714 -0.1342777 0.6327191 1.176845 0.8119746 1.7550771 -0.3606849 0.17373946 -1.5998094 -0.4175738 2.3034215 0.72260284 0.44216636 1.670553 0.49794292 -3.2189207 0.2500152 0.44604465 -1.2091993 -1.2770967 -1.2313992 -1.2200484 1.2357023 0.83974 0.7068993 -1.2780912 2.1288137 -0.04314318 -1.5479667 -0.41421226 -1.3417726
管 0.4956494 -0.0012751692 0.6290322 0.67991316 -1.270412 0.022574302 1.1737825 0.7760996 -2.1399076 -0.10040461 0.059639115 0.06674921 0.2634536 -0.36155832 1.4295269 1.5777942 2.43746 -1.3097713 2.3000095 1.964128 1.0030698 0.83564925 0.985361 -1.8023924 0.5472511 2.3706737 1.1841072 -0.90399176 -0.5060813 0.85859174 -0.15024015 -0.8026534 0.009129632 0.98605114 -0.45481896 2.717192 -0.51354724 2.0273137 -0.8925978 -1.5390139 0.24533021 -0.11062365 -1.3450607 -0.04880288 0.2934438 0.92073137 0.13422795 1.243433 0.05563889 0.43165708 -1.0121912 -0.4805439 -0.7079783 2.5798066 -1.8682851 -0.6144207 -2.0838218 0.9082144 0.23906185 -0.21442592 -1.1417005 -0.3696177 -1.0664887 -1.1766822 -2.2715337 1.1521122 2.0330472 -2.3557281 -1.5385847 2.6318672 0.9967771 -0.21208659 -0.8575404 -1.3295785 1.2730701 0.6670991 -1.2984107 -0.6955881 -0.344711 0.21564895 -0.9034424 0.50889915 -2.2575321 0.40400398 1.1961594 2.1368592 1.2563975 2.1841683 -0.6833245 0.5588836 -0.23058942 -1.4010715 -0.776973 -0.020944811 -0.2006523 -0.49059993 -0.24509236 1.0017052 -2.0131738 -0.28647196
已 2.0524883 1.5076183 0.99001366 0.745505 0.16232774 -0.9346584 0.528654 0.74984425 -0.3053095 0.41908538 -1.6075007 -0.20312785 0.78651744 -0.8774632 -0.738574 -0.31153035 1.6014575 -0.5837441 -0.6684455 -0.95347536 0.591781 0.22205062 -3.0291045 -2.00343 0.8613183 1.5809687 -0.2110322 -0.47961995 -0.7506286 -1.8834261 -0.8977234 -2.289103 -1.1973894 -1.0033625 -0.31097132 -0.24699582 -1.1726549 0.3447396 0.59355205 -1.748256 -0.12550548 2.4390156 -0.14652954 0.5069804 -0.6017831 -0.28950825 -0.25289002 -0.026470937 -0.009149044 0.67642236 -2.2939723 0.8696198 -0.86302644 -1.4411474 -0.43772894 -0.33023137 0.49892437 0.23982409 -0.38352522 0.15168837 -1.3015912 -0.857159 -0.57868093 -1.5487803 0.86644965 0.48160484 1.0698216 -0.58781755 -0.41558915 0.37291425 -1.667176 1.4003506 -1.5905119 -0.5561066 -0.13310125 -2.0037186 0.46016937 1.3255583 -0.09087692 -0.39811394 0.05922539 -0.23960194 -1.1770782 -0.945181 0.651362 -1.1385674 0.35152757 1.1007671 0.0016776747 -1.3285304 2.215629 1.4747887 0.8915818 0.9132595 -0.2707402 -1.8054998 0.53524 1.0544847 0.6596518 1.7197546
膜 -0.17998978 0.8419172 -0.8845402 1.4874778 0.98412293 0.37417415 1.0104873 -1.1965727 -0.11538882 -1.8514055 1.9997834 1.7928134 -0.6690783 -3.3314373 2.6574295 -2.1757803 -1.0672319 -0.05870101 1.8430327 -0.089570984 0.18007955 -0.73001015 -1.0441165 0.8029091 0.1068211 -1.8672706 -0.27016085 -2.8937483 -0.23009723 1.9128767 0.7600203 -0.611901 -0.3567081 -0.9652939 0.5862273 -0.7789222 0.27851373 2.3714666 1.0307384 1.5180769 -1.9035784 -0.21751772 -0.015019716 -0.8989887 -1.515902 1.0100915 -0.6436423 -0.43488058 0.045886993 1.1439652 -0.37222826 -0.8740448 -1.1616833 -1.6265265 -1.7142744 0.044803936 1.1604791 0.015029562 -0.56984806 -2.0471845 -1.7761626 1.7573252 -1.3444206 -2.7307756 0.9015275 1.1390709 0.41288626 0.655179 0.25987002 -1.2136829 -1.109807 -0.98260564 0.6918721 -1.8492577 0.50479424 0.43515667 -0.9555224 0.16159825 -1.4697627 -1.0356051 2.289351 0.39603445 0.9086772 -1.5546913 -0.035797577 -0.50470686 -0.5809441 2.0049236 -0.4206733 1.2144254 0.12968458 0.9287485 -0.35023388 -0.20663245 -0.34488884 1.8896172 -0.7212802 -0.21965736 -1.9915619 0.3580341
浊 0.7640622 -1.3336548 0.1542398 0.28881487 1.0944904 -0.029806223 -0.617555 -0.18488789 1.1952642 2.1064467 1.1870686 1.7532142 -1.562092 3.0345228 0.6883064 1.4062499 -0.8267017 2.683306 1.109953 3.2556915 0.051308684 0.13608755 1.8307658 0.34542403 -2.9494436 -2.2466109 0.6808648 -1.1595949 1.0922015 -0.5238577 1.9145252 2.6784346 0.78698397 -2.9800327 -0.1760751 -0.81204736 0.528689 0.24307157 -1.9965743 -1.3230052 2.8843217 0.7405784 1.0435145 -1.2698537 0.3138223 -2.106679 1.6256183 -0.71601367 -0.0585171 -1.1049479 0.039107293 0.014346643 -0.37561524 0.0075878724 0.2624142 2.7807791 -0.11961248 -0.27751455 -0.6374056 1.4441761 -1.4157614 -2.5247161 2.575894 -0.47265247 -3.263595 -1.8116864 0.02513217 1.7817036 0.98814577 -1.1051745 1.247831 2.1576402 1.5908529 1.6097332 0.8805321 0.45027035 0.59795034 -1.2320539 1.5259013 2.3043435 -0.028228631 -0.17126337 2.4754894 -1.8745848 1.47692 -1.6271625 2.2942097 -3.0628216 -0.25210473 1.2659603 -1.0170933 0.17727506 -1.8825536 0.35597005 0.17392409 0.66863215 1.1027954 -1.3820325 1.3064187 -3.0497706
血 0.63150907 0.097582586 0.7823535 -0.45803764 1.4508206 -0.19310638 -0.58487326 -0.755434 -1.9638488 1.1254586 -1.2233882 0.11281589 1.5295688 0.0053758537 -1.1878042 -0.34529915 0.834572 -1.3805424 1.4094671 0.24429335 1.2336925 0.20090534 -0.6875481 -0.11065372 -0.64025277 0.91307884 -0.04692167 0.72475797 -0.7788977 0.5698179 -0.13231166 0.56051075 2.3341901 0.17337424 0.6501529 -0.06763899 -0.9083143 0.64525956 -0.6469873 -0.7013437 -0.21856314 -0.33401963 1.1334727 -0.096359834 0.7922923 1.0827416 -0.9095672 0.56737864 1.7633429 0.35905033 -0.5172046 0.2657704 1.1486422 -0.35510787 -0.56700575 -1.1772761 0.42910427 0.09037031 1.0665965 -0.5297085 -1.1531013 -0.7739002 -0.5435796 -0.073081136 -0.49817544 -0.16731477 -1.3050772 -0.4073306 0.72404945 -0.6605961 -0.96856505 0.36484823 -0.25084725 0.4675093 -0.13538796 -0.3752809 -0.88125896 -0.1151851 -1.7542329 -0.2508007 0.29349574 -1.2143769 0.24509132 -0.3643721 0.20276189 -1.3190522 -1.5247866 0.49446705 -0.6815431 -1.1617922 -0.32814863 -0.51164526 -0.22284101 1.3489555 0.19306603 -1.8159105 -0.89925677 -0.50476485 -1.7447271 0.86051977
骨 0.0119531965 1.3097146 -0.9665902 0.5196911 -1.3649092 1.6977091 2.5068161 0.67715627 -0.895091 -1.6645286 0.006728951 -0.059621427 1.1126574 0.7251444 2.536065 0.4566362 -0.24079213 -0.1929864 -1.9887863 1.7453291 0.061218232 0.15238644 1.6467481 0.72875047 0.015686084 2.27409 -0.9076685 -1.3526849 -1.7983322 1.4458237 -0.75801826 -1.3466974 0.5997464 1.4849099 0.7928182 3.1280882 1.3470684 1.4541917 0.63347465 -0.7425258 -0.54810846 0.5241924 -1.1203091 0.5445839 -0.94188845 0.46032077 -0.69515336 -0.48844537 -0.30533662 1.1145893 -0.54689145 -1.77374 -0.9357235 2.2284405 -2.0629783 1.0479484 -0.6570963 -1.3210119 -1.3823078 -0.8843006 -0.68888074 0.7213689 0.11383907 -0.5289365 -1.8571757 -0.5584536 2.3506918 -2.4460533 1.3138012 0.010677201 0.5834824 -0.9285733 -2.6992776 -0.91904813 0.3057285 2.6319256 1.270288 -1.8520207 -0.7588901 -2.4800084 -0.77437997 0.96614426 -1.3497157 -1.8347892 1.5691503 -0.25053346 3.0725245 0.55549717 2.1433148 2.2298918 -0.77102286 0.4508131 0.32473287 -1.5352187 0.6906446 0.8923937 2.0951824 0.4057416 -1.1318313 0.67110234
包 -1.1350626 -2.5436842 -0.6600713 0.50956684 -0.44704002 -0.022643657 1.1112032 0.2908881 -1.3653697 2.0486841 1.4030658 2.3313391 0.2230836 1.108778 2.1264007 2.6683638 -1.0175219 2.0211892 3.3233347 2.9828348 1.5487975 1.2252284 -0.8133306 0.97537106 -1.3055447 -0.6295415 1.2254524 -0.5484419 2.0540042 1.2858404 -0.27068356 1.1330588 -0.9469382 -1.6986077 -0.4169951 -0.48508424 -2.2786689 -0.77698267 -2.3502445 1.4678531 0.6985406 0.257519 0.48481068 1.4041631 -0.646457 -0.697019 1.122708 -0.27251452 -2.1983 2.0476716 0.35845217 -1.0387534 -2.0267193 -0.029353296 -3.529517 -1.8869864 2.4283552 1.8300853 0.3344971 -0.09244437 -1.013329 1.3443191 -0.6366295 -1.4622233 0.119784124 -1.6496589 -0.8927424 0.56590855 -1.1927952 1.1182266 0.23789541 0.23205644 -1.1379112 -0.6984471 0.45974186 -1.4691346 -0.48117378 1.9985362 -1.4426767 -0.6425023 -0.5267658 -0.76740366 0.18188313 1.5314898 0.89449626 1.4553326 0.9094247 -0.20686536 0.81439 2.4057934 -0.15547153 -0.0024428826 -1.3398063 -0.28814074 0.86449486 0.19676796 2.638082 0.6841048 1.0608971 -1.2834156
鸣 -0.82832444 -1.5736992 -0.24435808 0.100587316 1.6251136 -0.94383097 -0.5390366 -0.13458085 0.7163966 -0.41775778 -1.081157 -0.26033175 -3.172429 0.4328938 0.79379195 0.7193312 -1.976244 1.8503102 -1.1210674 0.73526347 -0.9039931 1.4371887 1.0073559 0.5018303 -2.2367613 -1.3544436 -0.6447792 -0.23302841 -1.064167 -2.1042979 3.2105792 2.9694517 -0.52481866 -2.834226 -0.18708816 -0.24831812 0.8549302 0.87918526 -3.5947204 -2.5503771 2.0492332 -1.2608954 0.38630065 -1.8807124 2.2186131 -2.6426985 1.861226 0.603233 -0.011615375 -1.3205861 2.3079557 -0.43690744 -0.39935553 -0.7516789 0.15140666 1.2119845 0.25813007 1.3118796 0.84776473 0.3578992 -0.50650525 -3.0399096 2.8387039 -0.08823674 -2.8558226 -0.5531095 -1.2762794 0.33543813 -0.13553151 -0.40035474 2.0303235 0.56912994 2.7485073 1.3769196 0.49170178 0.15707742 -0.17417301 -3.7796607 0.9855194 2.9240377 1.5475496 0.47157454 0.5434209 -0.9340687 0.9769575 -0.81922144 0.27263921 -2.058095 -1.3804722 -0.47911885 -1.678712 0.46014142 0.15329604 1.8503251 -0.84501946 -0.24667606 0.83711445 1.3581223 -0.26047844 -2.7497473
